svm_type c_svc
kernel_type rbf
gamma 0.07692307692307693
nr_class 2
total_sv 1750
rho 2.0577182136507726
label 1 -1
nr_sv 876 874
SV
1.0 1:1.0 2:-1.0 3:-1.0 4:-1.0 5:0.64771277565154 6:0.003952809535392848 7:3.6487472634395525E-4 8:1.0 9:-1.0 10:0.0 11:0.26143790849673204 12:0.738562091503268 13:0.8044843588216403 
1.0 1:1.0 2:-1.0 3:-1.0 4:-1.0 5:0.64771277565154 6:0.011797616151787885 7:0.037703721722208705 8:1.0 9:-1.0 10:0.0 11:0.5630810092961488 12:0.43691899070385126 13:0.6610669021030141 
1.0 1:1.0 2:-1.0 3:-1.0 4:-1.0 5:0.64771277565154 6:0.024446606665045004 7:0.025054731208951592 8:-1.0 9:-1.0 10:0.0 11:0.5587996755879967 12:0.44120032441200324 13:0.659231995031055 
1.0 1:1.0 2:-1.0 3:-1.0 4:-1.0 5:0.64771277565154 6:0.012648990513257116 7:0.013074677693991728 8:1.0 9:-1.0 10:0.0 11:0.6514851485148515 12:0.3485148514851485 13:0.7152997866505307 
1.0 1:1.0 2:-1.0 3:-1.0 4:-1.0 5:0.64771277565154 6:0.0012770615422038434 7:6.689369982972513E-4 8:1.0 9:-1.0 10:0.0 11:0.07525150905432595 12:0.924748490945674 13:1.0682598187461803 
1.0 1:1.0 2:-1.0 3:-1.0 4:-1.0 5:0.64771277565154 6:0.011797616151787886 7:0.007115057163707127 8:1.0 9:-1.0 10:0.0 11:0.6385135135135135 12:0.3614864864864865 13:0.7046031657826717 
1.0 1:1.0 2:-1.0 3:-1.0 4:-1.0 5:0.64771277565154 6:0.019459985405010947 7:0.005959620530284602 8:1.0 9:-1.0 10:0.0 11:0.5521126760563381 12:0.447887323943662 13:0.6563603978562857 
1.0 1:1.0 2:-1.0 3:-1.0 4:-1.0 5:0.03450580159164085 6:0.0010338117246412066 7:0.0030406227195329603 8:1.0 9:-1.0 10:0.0 11:0.6647727272727273 12:0.3352272727272727 13:0.33136259763023423 
1.0 1:1.0 2:-1.0 3:-1.0 4:-1.0 5:0.64771277565154 6:0.009304305521770858 7:0.012040865969350523 8:1.0 9:-1.0 10:0.0 11:0.610705596107056 12:0.38929440389294406 13:0.6846797122264037 
1.0 1:1.0 2:-1.0 3:-1.0 4:-1.0 5:0.64771277565154 6:3.0406227195329605E-4 7:3.0406227195329605E-4 8:1.0 9:-1.0 10:0.0 11:0.5111111111111111 12:0.4888888888888889 13:0.6480940146386529 
1.0 1:1.0 2:-1.0 3:-1.0 4:-1.0 5:0.64771277565154 6:0.0021892483580637314 7:0.004074434444174167 8:1.0 9:-1.0 10:0.0 11:0.6534653465346535 12:0.3465346534653465 13:0.7167703146159448 
1.0 1:1.0 2:-1.0 3:-1.0 4:-1.0 5:0.03450580159164085 6:0.0060204329846752615 7:0.03216978837265872 8:-1.0 9:-1.0 10:0.0 11:0.4076086956521739 12:0.592391304347826 13:0.19080462184422264 
1.0 1:1.0 2:-1.0 3:-1.0 4:-1.0 5:0.64771277565154 6:0.014655801508148868 7:0.032656288007783994 8:1.0 9:1.0 10:0.0 11:0.38696369636963696 12:0.613036303630363 13:0.6869657117791093 
1.0 1:1.0 2:-1.0 3:-1.0 4:-1.0 5:0.64771277565154 6:0.004317684261736804 7:0.021710046217465338 8:1.0 9:-1.0 10:0.0 11:0.10650887573964497 12:0.893491124260355 13:1.0194914750664095 
1.0 1:1.0 2:-1.0 3:-1.0 4:-1.0 5:0.64771277565154 6:0.003223060082704938 7:4.864996351252737E-4 8:-1.0 9:-1.0 10:0.0 11:0.41509433962264153 12:0.5849056603773585 13:0.6696105951946065 
1.0 1:1.0 2:-1.0 3:-1.0 4:-1.0 5:0.64771277565154 6:0.002006810994891754 7:0.0032230600827049378 8:-1.0 9:-1.0 10:0.0 11:0.43478260869565216 12:0.5652173913043478 13:0.6607264847598178 
1.0 1:1.0 2:-1.0 3:-1.0 4:-1.0 5:0.64771277565154 6:0.004317684261736804 7:0.002979810265142301 8:-1.0 9:-1.0 10:0.0 11:0.48 12:0.52 13:0.6489679201692656 
1.0 1:1.0 2:-1.0 3:-1.0 4:-1.0 5:0.64771277565154 6:0.002006810994891754 7:0.003587934809048893 8:1.0 9:-1.0 10:0.0 11:0.4864864864864865 12:0.5135135135135135 13:0.6482894419151872 
1.0 1:1.0 2:-1.0 3:-1.0 4:-1.0 5:0.64771277565154 6:0.006993432254925809 7:0.002858185356360983 8:1.0 9:-1.0 10:0.0 11:0.18972332015810275 12:0.8102766798418972 13:0.89703700552168 
1.0 1:1.0 2:-1.0 3:-1.0 4:-1.0 5:0.03450580159164085 6:0.0016419362685477987 7:0.01538555096083678 8:1.0 9:-1.0 10:0.0 11:0.3627906976744186 12:0.6372093023255814 13:0.2770119709601939 
1.0 1:1.0 2:-1.0 3:-1.0 4:-1.0 5:0.03450580159164085 6:0.004135246898564826 7:0.03752128435903673 8:1.0 9:-1.0 10:0.0 11:0.29036827195467424 12:0.7096317280453258 13:0.4223712146955841 
1.0 1:1.0 2:-1.0 3:-1.0 4:-1.0 5:0.64771277565154 6:0.0022500608124543906 7:0.011919241060569205 8:-1.0 9:-1.0 10:0.0 11:0.3 12:0.7 13:0.7613665154334947 
1.0 1:1.0 2:-1.0 3:-1.0 4:-1.0 5:0.64771277565154 6:0.012892240330819751 7:0.007844806616395038 8:1.0 9:-1.0 10:0.0 11:0.7159863945578231 12:0.28401360544217685 13:0.7786912617528009 
1.0 1:1.0 2:-1.0 3:-1.0 4:-1.0 5:0.64771277565154 6:0.0010946241790318657 7:5.473120895159329E-4 8:1.0 9:-1.0 10:0.0 11:0.6964285714285714 12:0.30357142857142855 13:0.757542125685903 
1.0 1:1.0 2:-1.0 3:-1.0 4:-1.0 5:0.64771277565154 6:0.0024933106300170276 7:0.03150085137436147 8:-1.0 9:-1.0 10:0.0 11:0.5263157894736842 12:0.47368421052631576 13:0.6506154340929229 
1.0 1:1.0 2:-1.0 3:-1.0 4:-1.0 5:0.64771277565154 6:0.044514716613962536 7:0.022622233033325223 8:-1.0 9:-1.0 10:0.0 11:0.5694610778443113 12:0.4305389221556886 13:0.6643226102625377 
1.0 1:1.0 2:-1.0 3:-1.0 4:-1.0 5:0.64771277565154 6:0.0016419362685477987 7:0.027912916565312574 8:-1.0 9:-1.0 10:0.0 11:0.505091649694501 12:0.49490835030549896 13:0.6483959948939847 
1.0 1:1.0 2:-1.0 3:-1.0 4:-1.0 5:0.64771277565154 6:0.004196059352955485 7:0.014594989053758209 8:1.0 9:-1.0 10:0.0 11:0.40811258278145696 12:0.5918874172185431 13:0.6734505550774855 
1.0 1:1.0 2:-1.0 3:-1.0 4:-1.0 5:0.64771277565154 6:0.0027365604475796646 7:0.0030406227195329603 8:1.0 9:-1.0 10:0.0 11:0.22743682310469315 12:0.7725631768953068 13:0.8465880435541699 
1.0 1:1.0 2:-1.0 3:-1.0 4:-1.0 5:0.64771277565154 6:0.0021892483580637314 7:7.297494526879105E-4 8:1.0 9:-1.0 10:0.0 11:0.3422818791946309 12:0.6577181208053692 13:0.7204423555055375 
1.0 1:1.0 2:-1.0 3:-1.0 4:-1.0 5:0.64771277565154 6:9.121868158598882E-4 7:6.081245439065921E-4 8:1.0 9:-1.0 10:0.0 11:0.36164383561643837 12:0.6383561643835617 13:0.7043456215056602 
1.0 1:1.0 2:-1.0 3:-1.0 4:-1.0 5:0.64771277565154 6:0.0036487472634395522 7:0.0033446849914862565 8:1.0 9:-1.0 10:0.0 11:0.20689655172413793 12:0.7931034482758621 13:0.8736102480976919 
1.0 1:1.0 2:-1.0 3:-1.0 4:-1.0 5:0.64771277565154 6:0.0027973729019703233 7:0.008939430795426905 8:1.0 9:-1.0 10:0.0 11:0.6529126213592233 12:0.3470873786407767 13:0.7163439519840437 
1.0 1:1.0 2:-1.0 3:-1.0 4:-1.0 5:0.64771277565154 6:3.0406227195329605E-4 7:0.0290683531987351 8:1.0 9:-1.0 10:0.0 11:0.6016260162601627 12:0.3983739837398374 13:0.6794764823578643 
1.0 1:1.0 2:-1.0 3:-1.0 4:-1.0 5:0.64771277565154 6:0.003527122354658234 7:0.0356360982729263 8:1.0 9:-1.0 10:0.0 11:0.6619897959183674 12:0.3380102040816326 13:0.7251048115694322 
1.0 1:1.0 2:-1.0 3:-1.0 4:-1.0 5:0.03450580159164085 6:0.010155679883240088 7:0.008635368523473607 8:1.0 9:-1.0 10:0.0 11:0.40870570107858245 12:0.5912942989214176 13:0.18629802422226951 
1.0 1:1.0 2:-1.0 3:-1.0 4:-1.0 5:0.64771277565154 6:0.0029189978107516416 7:0.009425930430552176 8:-1.0 9:-1.0 10:0.0 11:0.03703014514328247 12:0.9629698548567175 13:1.1300413950290153 
1.0 1:1.0 2:-1.0 3:-1.0 4:-1.0 5:0.023084867262013243 6:5.473120895159329E-4 7:0.0 8:-1.0 9:-1.0 10:0.0 11:0.0 12:0.0 13:0.02309135437838372 
1.0 1:1.0 2:-1.0 3:-1.0 4:-1.0 5:0.64771277565154 6:0.004621746533690099 7:0.005837995621503283 8:1.0 9:-1.0 10:0.0 11:0.06097560975609756 12:0.9390243902439024 13:1.0911264561874767 
1.0 1:1.0 2:-1.0 3:-1.0 4:-1.0 5:0.64771277565154 6:3.0406227195329605E-4 7:0.0015811238141571393 8:-1.0 9:-1.0 10:0.0 11:0.10256410256410256 12:0.8974358974358975 13:1.0253563294929777 
1.0 1:1.0 2:-1.0 3:-1.0 4:-1.0 5:0.64771277565154 6:0.002675747993189005 7:0.0011554366334225249 8:1.0 9:-1.0 10:0.0 11:0.6261261261261262 12:0.3738738738738739 13:0.6951054115525882 
1.0 1:1.0 2:-1.0 3:-1.0 4:-1.0 5:0.64771277565154 6:0.007905619070785698 7:0.04025784480661639 8:1.0 9:-1.0 10:0.0 11:0.475 12:0.525 13:0.6509339694804598 
1.0 1:1.0 2:-1.0 3:-1.0 4:-1.0 5:0.64771277565154 6:0.002979810265142301 7:0.016480175139868644 8:-1.0 9:-1.0 10:0.0 11:0.5330739299610895 12:0.4669260700389105 13:0.6512970555409899 
1.0 1:1.0 2:-1.0 3:-1.0 4:-1.0 5:0.64771277565154 6:0.0030406227195329603 7:0.013439552420335685 8:1.0 9:-1.0 10:0.0 11:0.6537013801756587 12:0.3462986198243413 13:0.7170900667068351 
1.0 1:1.0 2:-1.0 3:-1.0 4:-1.0 5:0.64771277565154 6:0.006993432254925809 7:0.004925808805643396 8:-1.0 9:-1.0 10:0.0 11:0.40106951871657753 12:0.5989304812834224 13:0.6773137913383978 
1.0 1:1.0 2:-1.0 3:-1.0 4:-1.0 5:0.64771277565154 6:0.04329846752614935 7:0.016540987594259305 8:-1.0 9:-1.0 10:0.0 11:0.5688342120679555 12:0.4311657879320445 13:0.6638017748597796 
1.0 1:1.0 2:-1.0 3:-1.0 4:-1.0 5:0.64771277565154 6:0.0037703721722208705 7:0.004135246898564825 8:-1.0 9:-1.0 10:0.0 11:0.031484257871064465 12:0.9685157421289355 13:1.1391185882979702 
1.0 1:1.0 2:-1.0 3:-1.0 4:-1.0 5:0.64771277565154 6:0.0013378739965945025 7:0.045244466066650446 8:-1.0 9:-1.0 10:0.0 11:0.5306122448979592 12:0.46938775510204084 13:0.65217262247773 
1.0 1:1.0 2:-1.0 3:-1.0 4:-1.0 5:0.64771277565154 6:0.013196302602773049 7:0.0042568718073461445 8:-1.0 9:-1.0 10:0.0 11:0.12 12:0.88 13:0.9986611552985277 
1.0 1:1.0 2:-1.0 3:-1.0 4:-1.0 5:0.64771277565154 6:0.005412308440768669 7:0.018304548771588422 8:1.0 9:-1.0 10:0.0 11:0.5993788819875776 12:0.40062111801242234 13:0.677791146350419 
1.0 1:1.0 2:-1.0 3:-1.0 4:-1.0 5:0.64771277565154 6:0.014655801508148868 7:0.0031622476283142786 8:-1.0 9:-1.0 10:0.0 11:0.5439177991382168 12:0.45608220086178325 13:0.6538132182777511 
1.0 1:1.0 2:-1.0 3:-1.0 4:-1.0 5:0.64771277565154 6:7.297494526879105E-4 7:0.025784480661639506 8:-1.0 9:-1.0 10:0.0 11:0.1634072142546719 12:0.8365927857453281 13:0.9345458926038238 
1.0 1:1.0 2:-1.0 3:-1.0 4:-1.0 5:0.64771277565154 6:0.05819751885186086 7:0.011736803697397227 8:-1.0 9:-1.0 10:0.0 11:0.5693967631191761 12:0.4306032368808239 13:0.6650715648931641 
1.0 1:1.0 2:-1.0 3:-1.0 4:-1.0 5:0.03450580159164085 6:0.008574556069082948 7:0.013500364874726344 8:1.0 9:-1.0 10:0.0 11:0.28820375335120646 12:0.7117962466487936 13:0.4252964067389715 
1.0 1:1.0 2:-1.0 3:-1.0 4:-1.0 5:0.64771277565154 6:0.0032838725370955973 7:0.0036487472634395527 8:1.0 9:-1.0 10:0.0 11:0.49394812680115274 12:0.5060518731988473 13:0.6478444547841049 
1.0 1:1.0 2:-1.0 3:-1.0 4:-1.0 5:0.64771277565154 6:0.002918997810751642 7:0.005594745803940647 8:-1.0 9:-1.0 10:0.0 11:0.41304347826086957 12:0.5869565217391305 13:0.670684283521631 
1.0 1:1.0 2:-1.0 3:-1.0 4:-1.0 5:0.03450580159164085 6:0.0010946241790318657 7:0.001155436633422525 8:1.0 9:-1.0 10:0.0 11:0.37142857142857144 12:0.6285714285714286 13:0.2594525632152835 
1.0 1:1.0 2:-1.0 3:-1.0 4:-1.0 5:0.64771277565154 6:0.0015203113597664802 7:0.009547555339333496 8:1.0 9:-1.0 10:0.0 11:0.5977653631284916 12:0.4022346368715084 13:0.67665173598565 
1.0 1:1.0 2:-1.0 3:-1.0 4:-1.0 5:0.023084867262013243 6:4.2568718073461445E-4 7:6.081245439065921E-5 8:-1.0 9:-1.0 10:0.0 11:0.0 12:0.0 13:0.023088871870128726 
1.0 1:1.0 2:-1.0 3:-1.0 4:-1.0 5:0.64771277565154 6:0.009000243249817562 7:0.010581367063974702 8:1.0 9:-1.0 10:0.0 11:0.38799414348462663 12:0.6120058565153733 13:0.6854969416596184 
1.0 1:1.0 2:-1.0 3:-1.0 4:-1.0 5:0.64771277565154 6:0.0011554366334225249 7:0.024811481391388956 8:1.0 9:-1.0 10:0.0 11:0.06372549019607843 12:0.9362745098039216 13:1.0869639258059485 
1.0 1:1.0 2:-1.0 3:-1.0 4:-1.0 5:0.64771277565154 6:0.002067623449282413 7:0.01678423741182194 8:1.0 9:-1.0 10:0.0 11:0.6966292134831461 12:0.30337078651685395 13:0.757938002619244 
1.0 1:1.0 2:-1.0 3:-1.0 4:-1.0 5:0.64771277565154 6:0.004986621260034055 7:0.015872050595962053 8:-1.0 9:-1.0 10:0.0 11:0.20833333333333334 12:0.7916666666666666 13:0.8718293444830311 
1.0 1:1.0 2:-1.0 3:-1.0 4:-1.0 5:0.64771277565154 6:0.00383118462661153 7:0.002006810994891754 8:-1.0 9:-1.0 10:0.0 11:0.5217391304347826 12:0.4782608695652174 13:0.6491847997115124 
1.0 1:1.0 2:-1.0 3:-1.0 4:-1.0 5:0.64771277565154 6:0.004378496716127463 7:0.017392361955728533 8:1.0 9:-1.0 10:0.0 11:0.033942220494882755 12:0.9660577795051173 13:1.1352061136987752 
1.0 1:1.0 2:-1.0 3:-1.0 4:-1.0 5:0.64771277565154 6:9.121868158598881E-4 7:0.002858185356360983 8:1.0 9:-1.0 10:0.0 11:0.07857142857142857 12:0.9214285714285714 13:1.0629905946506988 
1.0 1:1.0 2:-1.0 3:-1.0 4:-1.0 5:0.64771277565154 6:0.0023108732668450497 7:0.0018243736317197763 8:1.0 9:-1.0 10:0.0 11:0.5714285714285714 12:0.42857142857142855 13:0.6632862666164073 
1.0 1:1.0 2:-1.0 3:-1.0 4:-1.0 5:0.64771277565154 6:0.011067866699099975 7:0.009547555339333495 8:1.0 9:-1.0 10:0.0 11:0.7371027651671481 12:0.2628972348328518 13:0.8028800522046117 
1.0 1:1.0 2:-1.0 3:-1.0 4:-1.0 5:0.64771277565154 6:0.0033446849914862565 7:0.02231817076137193 8:-1.0 9:-1.0 10:0.0 11:0.49065420560747663 12:0.5093457943925234 13:0.6483752793694076 
1.0 1:1.0 2:-1.0 3:-1.0 4:-1.0 5:0.64771277565154 6:0.0034054974458769156 7:3.6487472634395525E-4 8:1.0 9:-1.0 10:0.0 11:0.4689265536723164 12:0.5310734463276836 13:0.6506964012159278 
1.0 1:1.0 2:-1.0 3:-1.0 4:-1.0 5:0.64771277565154 6:2.4324981756263683E-4 7:0.023047920214059842 8:-1.0 9:-1.0 10:0.0 11:0.5 12:0.5 13:0.6481227549923622 
1.0 1:1.0 2:-1.0 3:-1.0 4:-1.0 5:0.64771277565154 6:0.006446120165409876 7:3.6487472634395525E-4 8:-1.0 9:-1.0 10:0.0 11:0.3333333333333333 12:0.6666666666666666 13:0.7284810474213355 
1.0 1:1.0 2:-1.0 3:-1.0 4:-1.0 5:0.64771277565154 6:0.004864996351252737 7:0.02760885429335928 8:1.0 9:-1.0 10:0.0 11:0.5027901785714286 12:0.49720982142857145 13:0.6483431939589971 
1.0 1:1.0 2:-1.0 3:-1.0 4:-1.0 5:0.64771277565154 6:0.014534176599367551 7:0.012709802967647774 8:1.0 9:-1.0 10:0.0 11:0.6076260762607626 12:0.3923739237392374 13:0.6828163078663764 
1.0 1:1.0 2:-1.0 3:-1.0 4:-1.0 5:0.64771277565154 6:0.011858428606178546 7:0.03898078326441255 8:1.0 9:-1.0 10:0.0 11:0.6382978723404256 12:0.3617021276595745 13:0.705476554897958 
1.0 1:1.0 2:-1.0 3:-1.0 4:-1.0 5:0.03450580159164085 6:0.001459498905375821 7:0.005169058623206033 8:1.0 9:-1.0 10:0.0 11:0.6089108910891089 12:0.3910891089108911 13:0.2206033282588492 
1.0 1:1.0 2:-1.0 3:-1.0 4:-1.0 5:0.64771277565154 6:3.0406227195329605E-4 7:5.473120895159329E-4 8:1.0 9:-1.0 10:0.0 11:0.6630434782608695 12:0.33695652173913043 13:0.7251654535071436 
1.0 1:1.0 2:-1.0 3:-1.0 4:-1.0 5:0.64771277565154 6:0.0060812454390659215 7:0.009243493067380199 8:-1.0 9:-1.0 10:0.0 11:0.4610951008645533 12:0.5389048991354467 13:0.6524635071476076 
1.0 1:1.0 2:-1.0 3:-1.0 4:-1.0 5:0.03450580159164085 6:0.003587934809048893 7:0.001459498905375821 8:1.0 9:-1.0 10:0.0 11:0.6138107416879796 12:0.38618925831202044 13:0.2302546274258185 
1.0 1:1.0 2:-1.0 3:-1.0 4:-1.0 5:0.64771277565154 6:0.00839211870591097 7:0.005290683531987351 8:1.0 9:-1.0 10:0.0 11:0.025666477595008508 12:0.9743335224049915 13:1.1487381862893469 
1.0 1:1.0 2:-1.0 3:-1.0 4:-1.0 5:0.64771277565154 6:0.0013378739965945025 7:0.0021284359036730723 8:1.0 9:-1.0 10:0.0 11:0.45390070921985815 12:0.5460992907801419 13:0.6542466953146782 
1.0 1:1.0 2:-1.0 3:-1.0 4:-1.0 5:0.023084867262013243 6:6.081245439065921E-5 7:1.2162490878131841E-4 8:1.0 9:-1.0 10:0.0 11:0.0 12:1.0 13:1.0002664293013526 
1.0 1:1.0 2:-1.0 3:-1.0 4:-1.0 5:0.005528218212745277 6:0.0018851860861104355 7:0.0017027487229384578 8:1.0 9:-1.0 10:0.0 11:0.7592190889370932 12:0.24078091106290672 13:0.5184738747072094 
1.0 1:1.0 2:-1.0 3:-1.0 4:-1.0 5:0.023084867262013243 6:0.0 7:2.4324981756263683E-4 8:1.0 9:-1.0 10:0.0 11:0.0 12:0.0 13:0.023086148812188557 
1.0 1:1.0 2:-1.0 3:-1.0 4:-1.0 5:0.023084867262013243 6:1.2162490878131841E-4 7:4.2568718073461445E-4 8:-1.0 9:-1.0 10:0.0 11:0.0 12:0.0 13:0.023089112124528494 
1.0 1:1.0 2:-1.0 3:-1.0 4:-1.0 5:0.023084867262013243 6:4.2568718073461445E-4 7:0.0 8:-1.0 9:-1.0 10:0.0 11:0.0 12:0.0 13:0.023088791784773247 
1.0 1:1.0 2:-1.0 3:-1.0 4:-1.0 5:0.64771277565154 6:0.01459498905375821 7:0.016236925322306008 8:1.0 9:-1.0 10:0.0 11:0.6 12:0.4 13:0.6782392580731549 
1.0 1:1.0 2:-1.0 3:-1.0 4:-1.0 5:0.64771277565154 6:0.0013986864509851617 7:0.002675747993189005 8:1.0 9:-1.0 10:0.0 11:0.3256997455470738 12:0.6743002544529262 13:0.7355700309982406 
1.0 1:1.0 2:-1.0 3:-1.0 4:-1.0 5:0.64771277565154 6:0.04348090488932133 7:0.018122111408416443 8:-1.0 9:-1.0 10:0.0 11:0.5625 12:0.4375 13:0.6613439647824084 
1.0 1:1.0 2:-1.0 3:-1.0 4:-1.0 5:0.64771277565154 6:0.004864996351252737 7:0.0035879348090488935 8:1.0 9:-1.0 10:0.0 11:0.12437810945273632 12:0.8756218905472637 13:0.9919352800667571 
1.0 1:1.0 2:-1.0 3:-1.0 4:-1.0 5:0.64771277565154 6:0.006628557528581854 7:0.0023108732668450497 8:1.0 9:-1.0 10:0.0 11:0.7346938775510204 12:0.2653061224489796 13:0.7999412367743776 
1.0 1:1.0 2:-1.0 3:-1.0 4:-1.0 5:0.64771277565154 6:0.003527122354658234 7:0.02852104110921917 8:1.0 9:-1.0 10:0.0 11:0.21481481481481482 12:0.7851851851851852 13:0.8635277004918338 
1.0 1:1.0 2:-1.0 3:-1.0 4:-1.0 5:0.64771277565154 6:0.004804183896862078 7:0.007054244709316468 8:1.0 9:-1.0 10:0.0 11:0.4260355029585799 12:0.5739644970414202 13:0.6644453849519288 
1.0 1:1.0 2:-1.0 3:-1.0 4:-1.0 5:0.64771277565154 6:0.008027243979567016 7:0.002250060812454391 8:-1.0 9:-1.0 10:0.0 11:0.35714285714285715 12:0.6428571428571429 13:0.707978807749931 
1.0 1:1.0 2:-1.0 3:-1.0 4:-1.0 5:0.64771277565154 6:0.0025541230844076867 7:1.2162490878131841E-4 8:1.0 9:1.0 10:0.0 11:0.006284101599247413 12:0.9937158984007526 13:1.180914870519556 
1.0 1:1.0 2:-1.0 3:-1.0 4:-1.0 5:0.64771277565154 6:0.05077839941620044 7:0.018000486499635125 8:-1.0 9:-1.0 10:0.0 11:0.5694610778443113 12:0.4305389221556886 13:0.6646304751099598 
1.0 1:1.0 2:-1.0 3:-1.0 4:-1.0 5:0.64771277565154 6:0.0015203113597664802 7:7.905619070785698E-4 8:1.0 9:-1.0 10:0.0 11:0.22448979591836735 12:0.7755102040816326 13:0.8503871273069655 
1.0 1:1.0 2:-1.0 3:-1.0 4:-1.0 5:0.64771277565154 6:0.028095353928484553 7:0.0475553393334955 8:1.0 9:1.0 10:0.0 11:0.6384493670886076 12:0.3615506329113924 13:0.7065802204581281 
1.0 1:1.0 2:-1.0 3:-1.0 4:-1.0 5:0.03450580159164085 6:0.047798589151058134 7:0.034115786913159814 8:1.0 9:-1.0 10:0.0 11:0.5955649419218585 12:0.4044350580781415 13:0.20290360983267453 
1.0 1:1.0 2:-1.0 3:-1.0 4:-1.0 5:0.64771277565154 6:0.018730235952323034 7:0.014412551690586233 8:1.0 9:1.0 10:0.0 11:0.7867625899280576 12:0.21323741007194244 13:0.8654602908604616 
1.0 1:1.0 2:-1.0 3:-1.0 4:-1.0 5:0.017192151145130917 6:4.2568718073461445E-4 7:0.0 8:1.0 9:-1.0 10:0.0 11:0.07407407407407407 12:0.9259259259259259 13:0.8520254273048441 
1.0 1:1.0 2:-1.0 3:-1.0 4:-1.0 5:0.64771277565154 6:0.0015203113597664802 7:0.003344684991486256 8:-1.0 9:-1.0 10:0.0 11:0.35714285714285715 12:0.6428571428571429 13:0.7079392566228896 
1.0 1:1.0 2:-1.0 3:-1.0 4:-1.0 5:0.64771277565154 6:0.0027973729019703233 7:0.0025541230844076867 8:1.0 9:-1.0 10:0.0 11:0.5681159420289855 12:0.4318840579710145 13:0.6618952445939535 
1.0 1:1.0 2:-1.0 3:-1.0 4:-1.0 5:0.64771277565154 6:0.008878618341036244 7:0.0055339333495499875 8:-1.0 9:-1.0 10:0.0 11:0.5588235294117647 12:0.4411764705882353 13:0.6583935938889535 
1.0 1:1.0 2:-1.0 3:-1.0 4:-1.0 5:0.64771277565154 6:0.004682558988080759 7:0.003952809535392848 8:1.0 9:-1.0 10:0.0 11:0.7059800664451827 12:0.29401993355481726 13:0.7676461045919335 
1.0 1:1.0 2:-1.0 3:-1.0 4:-1.0 5:0.03450580159164085 6:0.006263682802237899 7:0.004986621260034055 8:1.0 9:-1.0 10:0.0 11:0.6408588158750813 12:0.3591411841249187 13:0.28393586334987697 
1.0 1:1.0 2:-1.0 3:-1.0 4:-1.0 5:0.03450580159164085 6:0.03326441255169059 7:0.04573096570177572 8:1.0 9:-1.0 10:0.0 11:0.7493312953763852 12:0.25066870462361485 13:0.5030436085730269 
1.0 1:1.0 2:-1.0 3:-1.0 4:-1.0 5:0.64771277565154 6:0.002736560447579664 7:0.0013986864509851617 8:1.0 9:-1.0 10:0.0 11:0.010379652141387695 12:0.9896203478586123 13:1.1740756470423221 
1.0 1:1.0 2:-1.0 3:-1.0 4:-1.0 5:0.03450580159164085 6:0.008635368523473607 7:0.003162247628314279 8:1.0 9:-1.0 10:0.0 11:0.604776119402985 12:0.3952238805970149 13:0.21257318864728683 
1.0 1:1.0 2:-1.0 3:-1.0 4:-1.0 5:0.64771277565154 6:0.002858185356360983 7:0.011919241060569205 8:1.0 9:-1.0 10:0.0 11:0.4166666666666667 12:0.5833333333333334 13:0.6689244015963173 
1.0 1:1.0 2:-1.0 3:-1.0 4:-1.0 5:0.023084867262013243 6:1.8243736317197763E-4 7:1.2162490878131841E-4 8:1.0 9:-1.0 10:0.0 11:0.0 12:0.0 13:0.02308590852694968 
1.0 1:1.0 2:-1.0 3:-1.0 4:-1.0 5:0.023084867262013243 6:1.2162490878131841E-4 7:0.0 8:1.0 9:-1.0 10:0.0 11:0.0 12:0.0 13:0.023085187656226813 
1.0 1:1.0 2:-1.0 3:-1.0 4:-1.0 5:0.023084867262013243 6:0.0 7:6.081245439065921E-5 8:-1.0 9:-1.0 10:0.0 11:0.0 12:0.0 13:0.02308494736098352 
1.0 1:1.0 2:-1.0 3:-1.0 4:-1.0 5:0.64771277565154 6:0.0072974945268791044 7:0.001763561177329117 8:1.0 9:-1.0 10:0.0 11:0.09425625920471281 12:0.9057437407952872 13:1.038316009745988 
1.0 1:1.0 2:-1.0 3:-1.0 4:-1.0 5:0.64771277565154 6:7.297494526879105E-4 7:1.2162490878131841E-4 8:1.0 9:-1.0 10:0.0 11:0.11015325670498084 12:0.8898467432950191 13:1.0136342141522425 
1.0 1:1.0 2:-1.0 3:-1.0 4:-1.0 5:0.64771277565154 6:0.0024933106300170276 7:0.03782534663099003 8:1.0 9:-1.0 10:0.0 11:0.458252427184466 12:0.541747572815534 13:0.6541714244231611 
1.0 1:1.0 2:-1.0 3:-1.0 4:-1.0 5:0.64771277565154 6:0.0015811238141571393 7:0.009365117976161517 8:1.0 9:-1.0 10:0.0 11:0.6018518518518519 12:0.39814814814814814 13:0.6790561420324918 
1.0 1:1.0 2:-1.0 3:-1.0 4:-1.0 5:0.64771277565154 6:0.0025541230844076867 7:0.014047676964242278 8:1.0 9:-1.0 10:0.0 11:0.6391752577319587 12:0.36082474226804123 13:0.7051345332445949 
1.0 1:1.0 2:-1.0 3:-1.0 4:-1.0 5:0.64771277565154 6:0.0025541230844076867 7:0.0024933106300170276 8:1.0 9:-1.0 10:0.0 11:0.601177336276674 12:0.398822663723326 13:0.6785956037206716 
1.0 1:1.0 2:-1.0 3:-1.0 4:-1.0 5:0.64771277565154 6:0.013500364874726344 7:0.027912916565312577 8:-1.0 9:-1.0 10:0.0 11:0.5689655172413793 12:0.43103448275862066 13:0.6629616887714093 
1.0 1:1.0 2:-1.0 3:-1.0 4:-1.0 5:0.023084867262013243 6:4.2568718073461445E-4 7:1.2162490878131841E-4 8:-1.0 9:-1.0 10:0.0 11:0.0 12:0.0 13:0.023089112124528494 
1.0 1:1.0 2:-1.0 3:-1.0 4:-1.0 5:0.64771277565154 6:0.009365117976161517 7:0.011189491607881293 8:1.0 9:-1.0 10:0.0 11:0.4789961811238407 12:0.5210038188761593 13:0.649237546302509 
1.0 1:1.0 2:-1.0 3:-1.0 4:-1.0 5:0.64771277565154 6:0.006446120165409876 7:0.013439552420335683 8:1.0 9:-1.0 10:0.0 11:0.5635179153094463 12:0.4364820846905538 13:0.6602212629397056 
1.0 1:1.0 2:-1.0 3:-1.0 4:-1.0 5:0.64771277565154 6:0.00614205789345658 7:0.00456093407929944 8:-1.0 9:-1.0 10:0.0 11:0.3787878787878788 12:0.6212121212121212 13:0.691635655567317 
1.0 1:1.0 2:-1.0 3:-1.0 4:-1.0 5:0.64771277565154 6:8.513743614692289E-4 7:0.0041960593529554845 8:1.0 9:-1.0 10:0.0 11:0.5657894736842105 12:0.4342105263157895 13:0.660956270024879 
1.0 1:1.0 2:-1.0 3:-1.0 4:-1.0 5:0.64771277565154 6:0.0010338117246412066 7:0.026331792751155436 8:1.0 9:-1.0 10:0.0 11:0.6 12:0.4 13:0.678399787601967 
1.0 1:1.0 2:-1.0 3:-1.0 4:-1.0 5:0.64771277565154 6:0.007601556798832401 7:0.010277304792021406 8:1.0 9:-1.0 10:0.0 11:0.6038961038961039 12:0.3961038961038961 13:0.6803475935291725 
1.0 1:1.0 2:-1.0 3:-1.0 4:-1.0 5:0.64771277565154 6:0.010155679883240088 7:0.018182923862807104 8:-1.0 9:-1.0 10:0.0 11:0.3076094759511845 12:0.6923905240488155 13:0.7536723766142852 
1.0 1:1.0 2:-1.0 3:-1.0 4:-1.0 5:0.023084867262013243 6:1.8243736317197763E-4 7:0.0 8:1.0 9:-1.0 10:0.0 11:0.0 12:1.0 13:1.0002664366956917 
1.0 1:1.0 2:-1.0 3:-1.0 4:-1.0 5:0.023084867262013243 6:1.2162490878131841E-4 7:3.0406227195329605E-4 8:-1.0 9:-1.0 10:0.0 11:0.0 12:1.0 13:1.0002664736673865 
1.0 1:1.0 2:-1.0 3:-1.0 4:-1.0 5:0.64771277565154 6:0.001763561177329117 7:0.00991243006567745 8:-1.0 9:-1.0 10:0.0 11:0.41687979539641945 12:0.5831202046035806 13:0.6687817878900558 
1.0 1:1.0 2:-1.0 3:-1.0 4:-1.0 5:0.64771277565154 6:0.014594989053758209 7:0.00997324252006811 8:1.0 9:1.0 10:0.0 11:0.41005291005291006 12:0.58994708994709 13:0.672462813078809 
1.0 1:1.0 2:-1.0 3:-1.0 4:-1.0 5:0.03450580159164085 6:0.018912673315495017 7:0.018122111408416443 8:1.0 9:-1.0 10:0.0 11:0.6694829334234539 12:0.3305170665765461 13:0.34172300092998564 
1.0 1:1.0 2:-1.0 3:-1.0 4:-1.0 5:0.64771277565154 6:0.004500121624908781 7:0.02371685721235709 8:1.0 9:-1.0 10:0.0 11:0.6198979591836735 12:0.38010204081632654 13:0.6910981570070432 
1.0 1:1.0 2:-1.0 3:-1.0 4:-1.0 5:0.64771277565154 6:7.297494526879105E-4 7:0.0010946241790318657 8:1.0 9:-1.0 10:0.0 11:0.0313588850174216 12:0.9686411149825784 13:1.139311875250599 
1.0 1:1.0 2:-1.0 3:-1.0 4:-1.0 5:0.64771277565154 6:0.007723181707613719 7:7.297494526879105E-4 8:1.0 9:-1.0 10:0.0 11:0.48936170212765956 12:0.5106382978723404 13:0.648108566012406 
1.0 1:1.0 2:-1.0 3:-1.0 4:-1.0 5:0.64771277565154 6:0.006689369982972513 7:0.005047433714424714 8:1.0 9:-1.0 10:0.0 11:0.46831755280407866 12:0.5316824471959214 13:0.65085879716063 
1.0 1:1.0 2:-1.0 3:-1.0 4:-1.0 5:0.64771277565154 6:0.01769642422768183 7:0.0025541230844076867 8:1.0 9:-1.0 10:0.0 11:0.24029126213592233 12:0.7597087378640777 13:0.8304493005651864 
1.0 1:1.0 2:-1.0 3:-1.0 4:-1.0 5:0.64771277565154 6:0.0012162490878131842 7:0.004621746533690099 8:1.0 9:-1.0 10:0.0 11:0.27350427350427353 12:0.7264957264957265 13:0.7904150403606925 
1.0 1:1.0 2:-1.0 3:-1.0 4:-1.0 5:0.64771277565154 6:0.0024933106300170276 7:9.121868158598881E-4 8:1.0 9:-1.0 10:0.0 11:0.6559139784946236 12:0.34408602150537637 13:0.7188710337640506 
1.0 1:1.0 2:-1.0 3:-1.0 4:-1.0 5:0.64771277565154 6:0.009000243249817562 7:0.005716370712721965 8:1.0 9:-1.0 10:0.0 11:0.4128806789815277 12:0.5871193210184723 13:0.6708238408060508 
1.0 1:1.0 2:-1.0 3:-1.0 4:-1.0 5:0.64771277565154 6:0.004378496716127463 7:0.0021284359036730723 8:1.0 9:-1.0 10:0.0 11:0.029717682020802376 12:0.9702823179791976 13:1.1420233691263326 
1.0 1:1.0 2:-1.0 3:-1.0 4:-1.0 5:0.64771277565154 6:0.00231087326684505 7:0.005716370712721965 8:1.0 9:-1.0 10:0.0 11:0.5757575757575758 12:0.42424242424242425 13:0.6652268018580296 
1.0 1:1.0 2:-1.0 3:-1.0 4:-1.0 5:0.64771277565154 6:0.004074434444174167 7:0.013621989783507663 8:1.0 9:-1.0 10:0.0 11:0.3223684210526316 12:0.6776315789473685 13:0.7388815268507292 
1.0 1:1.0 2:-1.0 3:-1.0 4:-1.0 5:0.03450580159164085 6:0.05090002432498175 7:0.04171734371199222 8:1.0 9:-1.0 10:0.0 11:0.6343283582089553 12:0.3656716417910448 13:0.278744023904735 
1.0 1:1.0 2:-1.0 3:-1.0 4:-1.0 5:0.64771277565154 6:0.014655801508148868 7:0.008513743614692289 8:1.0 9:-1.0 10:0.0 11:0.6530612244897959 12:0.3469387755102041 13:0.716610124028169 
1.0 1:1.0 2:-1.0 3:-1.0 4:-1.0 5:0.64771277565154 6:0.004560934079299441 7:0.01070299197275602 8:1.0 9:-1.0 10:0.0 11:0.5665399239543726 12:0.43346007604562736 13:0.661345176000008 
1.0 1:1.0 2:-1.0 3:-1.0 4:-1.0 5:0.64771277565154 6:0.002858185356360983 7:0.0036487472634395522 8:-1.0 9:-1.0 10:0.0 11:0.5714285714285714 12:0.42857142857142855 13:0.6632959261051224 
1.0 1:1.0 2:-1.0 3:-1.0 4:-1.0 5:0.64771277565154 6:0.0018243736317197761 7:7.297494526879105E-4 8:1.0 9:-1.0 10:0.0 11:0.3520710059171598 12:0.6479289940828402 13:0.7120868274143806 
1.0 1:1.0 2:-1.0 3:-1.0 4:-1.0 5:0.64771277565154 6:0.043237655071758696 7:0.009973242520068109 8:1.0 9:-1.0 10:0.0 11:0.5511111111111111 12:0.4488888888888889 13:0.6572291707165318 
1.0 1:1.0 2:-1.0 3:-1.0 4:-1.0 5:0.64771277565154 6:0.01240574069569448 7:0.006506932619800535 8:1.0 9:-1.0 10:0.0 11:0.7365684575389948 12:0.2634315424610052 13:0.8022385073817301 
1.0 1:1.0 2:-1.0 3:-1.0 4:-1.0 5:0.64771277565154 6:0.0016419362685477987 7:0.0017027487229384578 8:1.0 9:-1.0 10:0.0 11:0.6763005780346821 12:0.3236994219653179 13:0.7374720403592245 
1.0 1:1.0 2:-1.0 3:-1.0 4:-1.0 5:0.64771277565154 6:0.001763561177329117 7:0.015567988324008757 8:-1.0 9:-1.0 10:0.0 11:0.5047619047619047 12:0.49523809523809526 13:0.647972233277438 
1.0 1:1.0 2:-1.0 3:-1.0 4:-1.0 5:0.64771277565154 6:0.01672342495743128 7:7.297494526879105E-4 8:-1.0 9:-1.0 10:0.0 11:0.2113144758735441 12:0.7886855241264559 13:0.8678533128239235 
1.0 1:1.0 2:-1.0 3:-1.0 4:-1.0 5:0.64771277565154 6:0.0042568718073461445 7:0.006750182437363172 8:1.0 9:-1.0 10:0.0 11:0.699885452462772 12:0.30011454753722794 13:0.761191370213649 
1.0 1:1.0 2:-1.0 3:-1.0 4:-1.0 5:0.64771277565154 6:0.002614935538798346 7:0.0016419362685477987 8:1.0 9:-1.0 10:0.0 11:0.6410256410256411 12:0.358974358974359 13:0.7064660637932838 
1.0 1:1.0 2:-1.0 3:-1.0 4:-1.0 5:0.03450580159164085 6:0.009851617611286792 7:0.03460228654828509 8:1.0 9:-1.0 10:0.0 11:0.7340425531914894 12:0.26595744680851063 13:0.47073207853828575 
1.0 1:1.0 2:-1.0 3:-1.0 4:-1.0 5:0.64771277565154 6:0.0023716857212357093 7:0.011797616151787885 8:1.0 9:-1.0 10:0.0 11:0.6680497925311203 12:0.33195020746887965 13:0.729821607970919 
1.0 1:1.0 2:-1.0 3:-1.0 4:-1.0 5:0.64771277565154 6:0.006385307711019217 7:0.010216492337630747 8:1.0 9:-1.0 10:0.0 11:0.542654028436019 12:0.45734597156398105 13:0.6534175182681853 
1.0 1:1.0 2:-1.0 3:-1.0 4:-1.0 5:0.64771277565154 6:0.010398929700802724 7:0.005473120895159328 8:1.0 9:-1.0 10:0.0 11:0.5622317596566524 12:0.43776824034334766 13:0.6596674163344213 
1.0 1:1.0 2:-1.0 3:-1.0 4:-1.0 5:0.64771277565154 6:3.6487472634395525E-4 7:0.006810994891753831 8:-1.0 9:-1.0 10:0.0 11:0.5 12:0.5 13:0.6477486877850109 
1.0 1:1.0 2:-1.0 3:-1.0 4:-1.0 5:0.64771277565154 6:0.005898808075893942 7:0.004135246898564825 8:1.0 9:-1.0 10:0.0 11:0.6972245584524811 12:0.3027754415475189 13:0.7584021636130497 
1.0 1:1.0 2:-1.0 3:-1.0 4:-1.0 5:0.64771277565154 6:0.004074434444174167 7:0.0010338117246412066 8:1.0 9:-1.0 10:0.0 11:0.4393939393939394 12:0.5606060606060606 13:0.6589703239552491 
1.0 1:1.0 2:-1.0 3:-1.0 4:-1.0 5:6.074965068950854E-4 6:0.0018243736317197761 7:0.0024933106300170276 8:1.0 9:-1.0 10:0.0 11:0.5364061456245826 12:0.4635938543754175 13:0.07288033854205808 
1.0 1:1.0 2:-1.0 3:-1.0 4:-1.0 5:0.64771277565154 6:0.007905619070785696 7:0.04056190707856969 8:1.0 9:-1.0 10:0.0 11:0.5613333333333334 12:0.43866666666666665 13:0.6605200360110783 
1.0 1:1.0 2:-1.0 3:-1.0 4:-1.0 5:0.0012149930137901708 6:1.2162490878131841E-4 7:0.0 8:-1.0 9:-1.0 10:0.0 11:0.0 12:0.0 13:0.0012210653717123364 
1.0 1:1.0 2:-1.0 3:-1.0 4:-1.0 5:0.64771277565154 6:0.001763561177329117 7:0.0016419362685477987 8:1.0 9:-1.0 10:0.0 11:0.34513274336283184 12:0.6548672566371682 13:0.717964563581134 
1.0 1:1.0 2:-1.0 3:-1.0 4:-1.0 5:0.64771277565154 6:0.0010946241790318657 7:0.0010338117246412066 8:1.0 9:-1.0 10:0.0 11:0.5961538461538461 12:0.40384615384615385 13:0.6756599405260811 
1.0 1:1.0 2:-1.0 3:-1.0 4:-1.0 5:0.64771277565154 6:6.689369982972513E-4 7:6.081245439065921E-4 8:-1.0 9:-1.0 10:0.0 11:0.35 12:0.65 13:0.7138155623369322 
1.0 1:1.0 2:-1.0 3:-1.0 4:-1.0 5:0.64771277565154 6:0.0036487472634395522 7:0.01708829968377524 8:1.0 9:-1.0 10:0.0 11:0.7261345852895149 12:0.27386541471048514 13:0.7901800843738981 
1.0 1:1.0 2:-1.0 3:-1.0 4:-1.0 5:0.023084867262013243 6:6.081245439065921E-5 7:9.121868158598881E-4 8:-1.0 9:-1.0 10:0.0 11:0.0 12:0.0 13:0.02310296256860597 
1.0 1:1.0 2:-1.0 3:-1.0 4:-1.0 5:6.074965068950854E-5 6:0.046339090245682314 7:0.0290683531987351 8:1.0 9:-1.0 10:0.0 11:0.6031473979432845 12:0.39685260205671546 13:0.2134240542743136 
1.0 1:1.0 2:-1.0 3:-1.0 4:-1.0 5:0.023084867262013243 6:6.081245439065921E-5 7:6.081245439065921E-4 8:-1.0 9:-1.0 10:0.0 11:0.0 12:0.0 13:0.0230929558549849 
1.0 1:1.0 2:-1.0 3:-1.0 4:-1.0 5:0.64771277565154 6:0.0034663099002675748 7:0.007236682072488445 8:1.0 9:-1.0 10:0.0 11:0.19516077682266794 12:0.804839223177332 13:0.8895527148873202 
1.0 1:1.0 2:-1.0 3:-1.0 4:-1.0 5:0.64771277565154 6:0.01076380442714668 7:0.0031622476283142786 8:-1.0 9:-1.0 10:0.0 11:0.5 12:0.5 13:0.6478099250845349 
1.0 1:1.0 2:-1.0 3:-1.0 4:-1.0 5:0.64771277565154 6:0.0010946241790318657 7:0.013439552420335685 8:1.0 9:-1.0 10:0.0 11:0.3860759493670886 12:0.6139240506329114 13:0.6867520780922436 
1.0 1:1.0 2:-1.0 3:-1.0 4:-1.0 5:0.64771277565154 6:0.0077839941620043785 7:0.0051082461688153735 8:1.0 9:-1.0 10:0.0 11:0.6494597839135654 12:0.3505402160864346 13:0.7134223381113155 
1.0 1:1.0 2:-1.0 3:-1.0 4:-1.0 5:0.64771277565154 6:0.004013621989783508 7:6.689369982972513E-4 8:1.0 9:-1.0 10:0.0 11:0.04024767801857585 12:0.9597523219814241 13:1.1247387192809053 
1.0 1:1.0 2:-1.0 3:-1.0 4:-1.0 5:0.64771277565154 6:0.0021284359036730723 7:6.689369982972514E-4 8:-1.0 9:-1.0 10:0.0 11:0.2 12:0.8 13:0.8829138222150144 
1.0 1:1.0 2:-1.0 3:-1.0 4:-1.0 5:0.64771277565154 6:0.0031014351739236195 7:0.009304305521770858 8:1.0 9:-1.0 10:0.0 11:0.4375 12:0.5625 13:0.6597370906229258 
1.0 1:1.0 2:-1.0 3:-1.0 4:-1.0 5:0.64771277565154 6:0.014655801508148868 7:0.006385307711019216 8:1.0 9:-1.0 10:0.0 11:0.6394230769230769 12:0.3605769230769231 13:0.7053669838668561 
1.0 1:1.0 2:-1.0 3:-1.0 4:-1.0 5:0.64771277565154 6:0.014899051325711506 7:0.01143274142544393 8:1.0 9:-1.0 10:0.0 11:0.6606382978723404 12:0.3393617021276596 13:0.7232587227420215 
1.0 1:1.0 2:-1.0 3:-1.0 4:-1.0 5:0.64771277565154 6:0.005169058623206033 7:0.0046217465336901 8:1.0 9:-1.0 10:0.0 11:0.6743978590544157 12:0.3256021409455843 13:0.7356890460115262 
1.0 1:1.0 2:-1.0 3:-1.0 4:-1.0 5:0.64771277565154 6:0.0024324981756263684 7:0.004986621260034055 8:1.0 9:-1.0 10:0.0 11:0.04907755686906681 12:0.9509224431309332 13:1.1103543677843872 
1.0 1:1.0 2:-1.0 3:-1.0 4:-1.0 5:0.64771277565154 6:0.019642422768182923 7:0.002736560447579664 8:1.0 9:-1.0 10:0.0 11:0.6117734724292101 12:0.38822652757078985 13:0.685491349203652 
1.0 1:1.0 2:-1.0 3:-1.0 4:-1.0 5:0.64771277565154 6:0.007175869618097786 7:0.01447336414497689 8:1.0 9:-1.0 10:0.0 11:0.2853717026378897 12:0.7146282973621103 13:0.7772091322359156 
1.0 1:1.0 2:-1.0 3:-1.0 4:-1.0 5:0.64771277565154 6:0.004621746533690099 7:0.004439309170518122 8:-1.0 9:-1.0 10:0.0 11:0.368 12:0.632 13:0.6994775963168194 
1.0 1:1.0 2:-1.0 3:-1.0 4:-1.0 5:0.64771277565154 6:0.006263682802237899 7:0.006142057893456581 8:1.0 9:-1.0 10:0.0 11:0.37576687116564417 12:0.6242331288343558 13:0.6937897949231672 
1.0 1:1.0 2:-1.0 3:-1.0 4:-1.0 5:0.64771277565154 6:0.0037703721722208705 7:0.010946241790318658 8:1.0 9:-1.0 10:0.0 11:0.6606683804627249 12:0.3393316195372751 13:0.7231342818453091 
1.0 1:1.0 2:-1.0 3:-1.0 4:-1.0 5:0.64771277565154 6:0.003709559717830212 7:0.03971053271710046 8:1.0 9:-1.0 10:0.0 11:0.16027290012302875 12:0.8397270998769713 13:0.9395640140764591 
1.0 1:1.0 2:-1.0 3:-1.0 4:-1.0 5:0.023084867262013243 6:0.0 7:4.2568718073461445E-4 8:-1.0 9:-1.0 10:0.0 11:0.0 12:0.0 13:0.023088791784773247 
1.0 1:1.0 2:-1.0 3:-1.0 4:-1.0 5:0.03450580159164085 6:0.007844806616395038 7:0.020311359766480176 8:1.0 9:-1.0 10:0.0 11:0.0754992693619094 12:0.9245007306380906 13:0.8499813079821136 
1.0 1:1.0 2:-1.0 3:-1.0 4:-1.0 5:0.64771277565154 6:0.007601556798832401 7:0.014838238871320845 8:1.0 9:-1.0 10:0.0 11:0.6750392464678179 12:0.3249607535321821 13:0.7364541723399198 
1.0 1:1.0 2:-1.0 3:-1.0 4:-1.0 5:0.64771277565154 6:2.4324981756263683E-4 7:0.03764290926781805 8:-1.0 9:-1.0 10:0.0 11:0.4 12:0.6 13:0.6789321671056991 
1.0 1:1.0 2:-1.0 3:-1.0 4:-1.0 5:0.64771277565154 6:0.0092434930673802 7:0.0077231817076137185 8:1.0 9:-1.0 10:0.0 11:0.6734006734006734 12:0.3265993265993266 13:0.7348116109488375 
1.0 1:1.0 2:-1.0 3:-1.0 4:-1.0 5:0.64771277565154 6:0.0017027487229384578 7:0.014716613962539527 8:1.0 9:-1.0 10:0.0 11:0.32 12:0.68 13:0.7411823782457041 
1.0 1:1.0 2:-1.0 3:-1.0 4:-1.0 5:0.64771277565154 6:0.009304305521770858 7:8.513743614692289E-4 8:1.0 9:-1.0 10:0.0 11:0.02534562211981567 12:0.9746543778801844 13:1.1492633503445011 
1.0 1:1.0 2:-1.0 3:-1.0 4:-1.0 5:0.64771277565154 6:0.010094867428849429 7:0.003587934809048893 8:1.0 9:-1.0 10:0.0 11:0.658703071672355 12:0.3412969283276451 13:0.721382893614608 
1.0 1:1.0 2:-1.0 3:-1.0 4:-1.0 5:0.64771277565154 6:0.0020068109948917535 7:0.0076015567988324 8:1.0 9:-1.0 10:0.0 11:0.6167400881057269 12:0.3832599118942731 13:0.688554023575557 
1.0 1:1.0 2:-1.0 3:-1.0 4:-1.0 5:0.64771277565154 6:0.003527122354658234 7:0.002067623449282413 8:1.0 9:-1.0 10:0.0 11:0.03331604874254602 12:0.966683951257454 13:1.1361004343129764 
1.0 1:1.0 2:-1.0 3:-1.0 4:-1.0 5:0.64771277565154 6:0.004864996351252737 7:0.004743371442471419 8:1.0 9:-1.0 10:0.0 11:0.39779005524861877 12:0.6022099447513812 13:0.6792389113770521 
1.0 1:1.0 2:-1.0 3:-1.0 4:-1.0 5:0.64771277565154 6:0.009304305521770858 7:0.003162247628314279 8:1.0 9:-1.0 10:0.0 11:0.4674862504043999 12:0.5325137495956002 13:0.6510429980458963 
1.0 1:1.0 2:-1.0 3:-1.0 4:-1.0 5:0.64771277565154 6:0.0055339333495499875 7:0.011067866699099975 8:1.0 9:-1.0 10:0.0 11:0.5089285714285714 12:0.49107142857142855 13:0.6480770319837209 
1.0 1:1.0 2:-1.0 3:-1.0 4:-1.0 5:0.64771277565154 6:0.0023716857212357093 7:0.0032838725370955973 8:1.0 9:-1.0 10:0.0 11:0.30297029702970296 12:0.697029702970297 13:0.7581761430330529 
1.0 1:1.0 2:-1.0 3:-1.0 4:-1.0 5:0.64771277565154 6:0.004378496716127463 7:0.011675991243006568 8:1.0 9:-1.0 10:0.0 11:0.5506925207756233 12:0.44930747922437675 13:0.6557181302949996 
1.0 1:1.0 2:-1.0 3:-1.0 4:-1.0 5:0.64771277565154 6:0.004804183896862078 7:0.005229871077596692 8:1.0 9:-1.0 10:0.0 11:0.06336088154269973 12:0.9366391184573003 13:1.0872888993019743 
1.0 1:1.0 2:-1.0 3:-1.0 4:-1.0 5:0.023084867262013243 6:0.0 7:0.0015811238141571395 8:1.0 9:-1.0 10:0.0 11:0.0 12:0.0 13:0.023138950905787964 
1.0 1:1.0 2:-1.0 3:-1.0 4:-1.0 5:0.64771277565154 6:0.0015811238141571395 7:0.04056190707856969 8:1.0 9:-1.0 10:0.0 11:0.09720430107526881 12:0.9027956989247312 13:1.034483981649614 
1.0 1:1.0 2:-1.0 3:-1.0 4:-1.0 5:0.64771277565154 6:0.002675747993189005 7:0.0055339333495499875 8:1.0 9:-1.0 10:0.0 11:0.5454545454545454 12:0.45454545454545453 13:0.6540902740431016 
1.0 1:1.0 2:-1.0 3:-1.0 4:-1.0 5:0.03450580159164085 6:0.044575529068353194 7:0.004925808805643396 8:1.0 9:-1.0 10:0.0 11:0.7556591211717709 12:0.24434087882822902 13:0.5144397308537552 
1.0 1:1.0 2:-1.0 3:-1.0 4:-1.0 5:0.64771277565154 6:0.0013378739965945025 7:7.297494526879105E-4 8:-1.0 9:-1.0 10:0.0 11:0.4827586206896552 12:0.5172413793103449 13:0.6486318083669728 
1.0 1:1.0 2:-1.0 3:-1.0 4:-1.0 5:0.64771277565154 6:0.005594745803940647 7:0.011128679153490634 8:1.0 9:-1.0 10:0.0 11:0.6535253980288097 12:0.3464746019711903 13:0.7169150436294053 
1.0 1:1.0 2:-1.0 3:-1.0 4:-1.0 5:0.64771277565154 6:0.00614205789345658 7:0.004682558988080759 8:1.0 9:-1.0 10:0.0 11:0.375 12:0.625 13:0.6943280859766985 
1.0 1:1.0 2:-1.0 3:-1.0 4:-1.0 5:0.64771277565154 6:0.006993432254925809 7:0.0024933106300170276 8:1.0 9:-1.0 10:0.0 11:0.03619441571871768 12:0.9638055842812823 13:1.1313927012654936 
1.0 1:1.0 2:-1.0 3:-1.0 4:-1.0 5:0.64771277565154 6:0.002736560447579664 7:2.4324981756263683E-4 8:1.0 9:-1.0 10:0.0 11:0.11859443631039532 12:0.8814055636896047 13:1.0007098499212044 
1.0 1:1.0 2:-1.0 3:-1.0 4:-1.0 5:0.64771277565154 6:0.0021892483580637314 7:0.009669180248114813 8:-1.0 9:-1.0 10:0.0 11:0.4685714285714286 12:0.5314285714285715 13:0.6508311194199531 
1.0 1:1.0 2:-1.0 3:-1.0 4:-1.0 5:0.03450580159164085 6:0.003223060082704938 7:0.002614935538798346 8:1.0 9:-1.0 10:0.0 11:0.6410090556274256 12:0.3589909443725744 13:0.28415152898304824 
1.0 1:1.0 2:-1.0 3:-1.0 4:-1.0 5:0.64771277565154 6:0.0025541230844076867 7:0.0015203113597664802 8:1.0 9:-1.0 10:0.0 11:0.7226720647773279 12:0.2773279352226721 13:0.7860483880540543 
1.0 1:1.0 2:-1.0 3:-1.0 4:-1.0 5:0.64771277565154 6:0.0077839941620043785 7:2.4324981756263683E-4 8:-1.0 9:-1.0 10:0.0 11:0.2962962962962963 12:0.7037037037037037 13:0.765227603454185 
1.0 1:1.0 2:-1.0 3:-1.0 4:-1.0 5:0.64771277565154 6:0.015811238141571392 7:0.007419119435660423 8:1.0 9:-1.0 10:0.0 11:0.45478036175710596 12:0.5452196382428941 13:0.6542294253992746 
1.0 1:1.0 2:-1.0 3:-1.0 4:-1.0 5:0.64771277565154 6:0.0034663099002675748 7:0.02797372901970324 8:1.0 9:-1.0 10:0.0 11:0.657608695652174 12:0.3423913043478261 13:0.7208941589044351 
1.0 1:1.0 2:-1.0 3:-1.0 4:-1.0 5:0.64771277565154 6:0.007115057163707127 7:0.004013621989783508 8:-1.0 9:-1.0 10:0.0 11:0.38321167883211676 12:0.6167883211678832 13:0.688590314183254 
1.0 1:1.0 2:-1.0 3:-1.0 4:-1.0 5:0.64771277565154 6:0.004621746533690099 7:0.032656288007783994 8:1.0 9:-1.0 10:0.0 11:0.6780354706684857 12:0.3219645293315143 13:0.7398690077941419 
1.0 1:1.0 2:-1.0 3:-1.0 4:-1.0 5:0.64771277565154 6:0.0029798102651423007 7:0.003223060082704938 8:1.0 9:-1.0 10:0.0 11:0.7393333333333333 12:0.26066666666666666 13:0.8054023124535419 
1.0 1:1.0 2:-1.0 3:-1.0 4:-1.0 5:0.64771277565154 6:0.02219654585259061 7:0.0023108732668450497 8:1.0 9:-1.0 10:0.0 11:0.7363515312916112 12:0.2636484687083888 13:0.8021708371044298 
1.0 1:1.0 2:-1.0 3:-1.0 4:-1.0 5:0.03450580159164085 6:0.005837995621503283 7:0.008027243979567016 8:1.0 9:-1.0 10:0.0 11:0.34411764705882353 12:0.6558823529411765 13:0.3138254307989968 
1.0 1:1.0 2:-1.0 3:-1.0 4:-1.0 5:0.64771277565154 6:0.00535149598637801 7:0.007358306981269764 8:-1.0 9:-1.0 10:0.0 11:0.22764227642276422 12:0.7723577235772358 13:0.846362535384123 
1.0 1:1.0 2:-1.0 3:-1.0 4:-1.0 5:0.64771277565154 6:0.006810994891753831 7:0.005716370712721965 8:1.0 9:-1.0 10:0.0 11:0.5305466237942122 12:0.4694533762057878 13:0.6506483621655121 
1.0 1:1.0 2:-1.0 3:-1.0 4:-1.0 5:0.64771277565154 6:0.007054244709316468 7:0.004804183896862078 8:1.0 9:-1.0 10:0.0 11:0.22161572052401746 12:0.7783842794759825 13:0.8541638663225012 
1.0 1:1.0 2:-1.0 3:-1.0 4:-1.0 5:0.64771277565154 6:4.8649963512527365E-4 7:2.4324981756263683E-4 8:-1.0 9:-1.0 10:0.0 11:0.375 12:0.625 13:0.6942853416244583 
1.0 1:1.0 2:-1.0 3:-1.0 4:-1.0 5:0.64771277565154 6:0.046217465336901 7:0.002614935538798346 8:-1.0 9:-1.0 10:0.0 11:0.497737556561086 12:0.502262443438914 13:0.649380632859896 
1.0 1:1.0 2:-1.0 3:-1.0 4:-1.0 5:0.64771277565154 6:0.0037703721722208705 7:0.00845293116030163 8:1.0 9:-1.0 10:0.0 11:0.7258741258741259 12:0.27412587412587414 13:0.7897429901248518 
1.0 1:1.0 2:-1.0 3:-1.0 4:-1.0 5:0.023084867262013243 6:1.2162490878131841E-4 7:1.8243736317197763E-4 8:1.0 9:1.0 10:0.0 11:0.0 12:1.0 13:1.0002664440900308 
1.0 1:1.0 2:-1.0 3:-1.0 4:-1.0 5:0.64771277565154 6:0.0036487472634395522 7:0.0260885429335928 8:1.0 9:-1.0 10:0.0 11:0.6066150598170302 12:0.39338494018296977 13:0.6824169173535839 
1.0 1:1.0 2:-1.0 3:-1.0 4:-1.0 5:0.64771277565154 6:0.00930430552177086 7:0.0023108732668450497 8:1.0 9:-1.0 10:0.0 11:0.5009345794392523 12:0.49906542056074765 13:0.6477864182997611 
1.0 1:1.0 2:-1.0 3:-1.0 4:-1.0 5:0.64771277565154 6:0.011128679153490636 7:0.013561177329117002 8:1.0 9:-1.0 10:0.0 11:0.7411705348133198 12:0.2588294651866801 13:0.8077700788102059 
1.0 1:1.0 2:-1.0 3:-1.0 4:-1.0 5:0.0012149930137901708 6:6.081245439065921E-5 7:0.0 8:-1.0 9:-1.0 10:0.0 11:0.0 12:0.0 13:0.001216513944913061 
1.0 1:1.0 2:-1.0 3:-1.0 4:-1.0 5:0.64771277565154 6:0.007844806616395038 7:0.008817805886645585 8:-1.0 9:-1.0 10:0.0 11:0.5526315789473685 12:0.4473684210526316 13:0.6563165904071736 
1.0 1:1.0 2:-1.0 3:-1.0 4:-1.0 5:0.64771277565154 6:0.004804183896862078 7:0.014047676964242278 8:1.0 9:-1.0 10:0.0 11:0.7435344827586207 12:0.25646551724137934 13:0.8105482307199642 
1.0 1:1.0 2:-1.0 3:-1.0 4:-1.0 5:0.64771277565154 6:0.002918997810751642 7:0.0036487472634395522 8:1.0 9:-1.0 10:0.0 11:0.5668693009118541 12:0.4331306990881459 13:0.6613922340523769 
1.0 1:1.0 2:-1.0 3:-1.0 4:-1.0 5:0.64771277565154 6:0.0015203113597664802 7:0.013196302602773047 8:1.0 9:-1.0 10:0.0 11:0.16487455197132617 12:0.8351254480286738 13:0.9321719568603821 
1.0 1:1.0 2:-1.0 3:-1.0 4:-1.0 5:0.64771277565154 6:0.004925808805643396 7:0.0012770615422038434 8:1.0 9:-1.0 10:0.0 11:0.0847457627118644 12:0.9152542372881356 13:1.0532340958038717 
1.0 1:1.0 2:-1.0 3:-1.0 4:-1.0 5:0.64771277565154 6:0.004560934079299441 7:0.003587934809048893 8:1.0 9:-1.0 10:0.0 11:0.7323943661971831 12:0.2676056338028169 13:0.7972415448901629 
1.0 1:1.0 2:-1.0 3:-1.0 4:-1.0 5:0.64771277565154 6:0.009061055704208221 7:0.006689369982972512 8:1.0 9:-1.0 10:0.0 11:0.6622222222222223 12:0.3377777777777778 13:0.7245156227952094 
1.0 1:1.0 2:-1.0 3:-1.0 4:-1.0 5:0.64771277565154 6:0.002006810994891754 7:6.081245439065921E-5 8:1.0 9:1.0 10:0.0 11:0.0062263689546848255 12:0.9937736310453151 13:1.1810103579534965 
1.0 1:1.0 2:-1.0 3:-1.0 4:-1.0 5:0.0012149930137901708 6:1.2162490878131841E-4 7:6.081245439065921E-5 8:1.0 9:-1.0 10:0.0 11:0.0 12:1.0 13:1.000000747349119 
1.0 1:1.0 2:-1.0 3:-1.0 4:-1.0 5:0.64771277565154 6:9.729992702505473E-4 7:0.005716370712721965 8:-1.0 9:-1.0 10:0.0 11:0.3793103448275862 12:0.6206896551724138 13:0.6912520776290455 
1.0 1:1.0 2:-1.0 3:-1.0 4:-1.0 5:0.64771277565154 6:0.01380442714667964 7:0.0012162490878131842 8:1.0 9:-1.0 10:0.0 11:0.38235294117647056 12:0.6176470588235294 13:0.6892656984155107 
1.0 1:1.0 2:-1.0 3:-1.0 4:-1.0 5:0.64771277565154 6:0.004925808805643396 7:0.0059596205302846015 8:1.0 9:-1.0 10:0.0 11:0.2344311377245509 12:0.7655688622754491 13:0.8376746999000164 
1.0 1:1.0 2:-1.0 3:-1.0 4:-1.0 5:0.64771277565154 6:0.004135246898564826 7:0.023351982486013136 8:1.0 9:-1.0 10:0.0 11:0.6721854304635762 12:0.32781456953642385 13:0.7339520045281362 
1.0 1:1.0 2:-1.0 3:-1.0 4:-1.0 5:0.64771277565154 6:0.02754804183896862 7:0.018669423497932377 8:1.0 9:-1.0 10:0.0 11:0.7281553398058253 12:0.27184466019417475 13:0.7930061273740419 
1.0 1:1.0 2:-1.0 3:-1.0 4:-1.0 5:0.64771277565154 6:0.0032230600827049378 7:0.00845293116030163 8:1.0 9:-1.0 10:0.0 11:0.5076182838813151 12:0.49238171611868486 13:0.6479551164246679 
1.0 1:1.0 2:-1.0 3:-1.0 4:-1.0 5:0.64771277565154 6:0.004135246898564826 7:0.0069326198005351496 8:1.0 9:-1.0 10:0.0 11:0.21703521703521703 12:0.782964782964783 13:0.8601588660356062 
1.0 1:1.0 2:-1.0 3:-1.0 4:-1.0 5:0.64771277565154 6:4.864996351252737E-4 7:0.0027973729019703233 8:1.0 9:-1.0 10:0.0 11:0.4090909090909091 12:0.5909090909090909 13:0.67275385763215 
1.0 1:1.0 2:-1.0 3:-1.0 4:-1.0 5:0.64771277565154 6:0.043420092434930675 7:0.015020676234492823 8:1.0 9:-1.0 10:0.0 11:0.5728045325779036 12:0.4271954674220963 13:0.6654658253730011 
1.0 1:1.0 2:-1.0 3:-1.0 4:-1.0 5:0.64771277565154 6:0.01544636341522744 7:0.0038919970810021897 8:1.0 9:-1.0 10:0.0 11:0.6614802354920101 12:0.33851976450798993 13:0.7239399445703186 
1.0 1:1.0 2:-1.0 3:-1.0 4:-1.0 5:0.64771277565154 6:0.0013378739965945025 7:0.0020068109948917535 8:-1.0 9:-1.0 10:0.0 11:0.35714285714285715 12:0.6428571428571429 13:0.7079338316542348 
1.0 1:1.0 2:-1.0 3:-1.0 4:-1.0 5:0.64771277565154 6:0.005169058623206033 7:0.021284359036730722 8:-1.0 9:-1.0 10:0.0 11:0.49395770392749244 12:0.5060422960725075 13:0.6481956650705002 
1.0 1:1.0 2:-1.0 3:-1.0 4:-1.0 5:0.64771277565154 6:0.02766966674774994 7:0.005777183167112624 8:1.0 9:-1.0 10:0.0 11:0.7402458578300374 12:0.25975414216996257 13:0.8069715700465924 
1.0 1:1.0 2:-1.0 3:-1.0 4:-1.0 5:0.64771277565154 6:0.005047433714424714 7:0.012709802967647774 8:-1.0 9:-1.0 10:0.0 11:0.432 12:0.568 13:0.6619779871119583 
1.0 1:1.0 2:-1.0 3:-1.0 4:-1.0 5:0.64771277565154 6:0.0011554366334225249 7:0.028460228654828508 8:1.0 9:-1.0 10:0.0 11:0.5475409836065573 12:0.4524590163934426 13:0.655273790014706 
1.0 1:1.0 2:-1.0 3:-1.0 4:-1.0 5:0.64771277565154 6:0.012344928241303819 7:0.013804427146679638 8:1.0 9:-1.0 10:0.0 11:0.7302631578947368 12:0.26973684210526316 13:0.7949586698306894 
1.0 1:1.0 2:-1.0 3:-1.0 4:-1.0 5:0.64771277565154 6:0.007662369253223059 7:0.0023108732668450497 8:1.0 9:-1.0 10:0.0 11:0.1875 12:0.8125 13:0.9001227092902668 
1.0 1:1.0 2:-1.0 3:-1.0 4:-1.0 5:0.64771277565154 6:0.0031014351739236195 7:0.024993918754560935 8:-1.0 9:-1.0 10:0.0 11:0.36363636363636365 12:0.6363636363636364 13:0.7032398736607062 
1.0 1:1.0 2:-1.0 3:-1.0 4:-1.0 5:0.64771277565154 6:0.0019459985405010946 7:6.081245439065921E-5 8:1.0 9:-1.0 10:0.0 11:0.28431372549019607 12:0.7156862745098039 13:0.7782145632140087 
1.0 1:1.0 2:-1.0 3:-1.0 4:-1.0 5:0.64771277565154 6:0.012040865969350525 7:0.009547555339333495 8:1.0 9:-1.0 10:0.0 11:0.6728820429671666 12:0.3271179570328334 13:0.7343846275150894 
1.0 1:1.0 2:-1.0 3:-1.0 4:-1.0 5:0.64771277565154 6:8.513743614692289E-4 7:0.0010338117246412066 8:1.0 9:-1.0 10:0.0 11:0.7318235995232419 12:0.26817640047675806 13:0.7965565632965793 
1.0 1:1.0 2:-1.0 3:-1.0 4:-1.0 5:0.005528218212745277 6:3.6487472634395525E-4 7:0.009425930430552176 8:-1.0 9:-1.0 10:0.0 11:0.5 12:0.5 13:0.010933549042066016 
1.0 1:1.0 2:-1.0 3:-1.0 4:-1.0 5:0.64771277565154 6:0.0037095597178302114 7:0.009243493067380199 8:1.0 9:-1.0 10:0.0 11:0.12424409015942826 12:0.8757559098405717 13:0.9921698734894506 
1.0 1:1.0 2:-1.0 3:-1.0 4:-1.0 5:0.023084867262013243 6:0.0 7:5.473120895159329E-4 8:1.0 9:-1.0 10:0.0 11:0.0 12:0.0 13:0.02309135437838372 
1.0 1:1.0 2:-1.0 3:-1.0 4:-1.0 5:0.023084867262013243 6:0.0 7:6.081245439065921E-5 8:1.0 9:-1.0 10:0.0 11:0.0 12:0.0 13:0.02308494736098352 
1.0 1:1.0 2:-1.0 3:-1.0 4:-1.0 5:0.64771277565154 6:0.0013378739965945025 7:0.0015811238141571393 8:-1.0 9:-1.0 10:0.0 11:0.5610932475884244 12:0.43890675241157556 13:0.659140098313834 
1.0 1:1.0 2:-1.0 3:-1.0 4:-1.0 5:0.03450580159164085 6:0.0022500608124543906 7:0.007540744344441742 8:1.0 9:-1.0 10:0.0 11:0.7534246575342466 12:0.2465753424657534 13:0.5080834617735657 
1.0 1:1.0 2:-1.0 3:-1.0 4:-1.0 5:0.64771277565154 6:0.002736560447579664 7:0.016480175139868644 8:-1.0 9:-1.0 10:0.0 11:0.3 12:0.7 13:0.7614531664376649 
1.0 1:1.0 2:-1.0 3:-1.0 4:-1.0 5:0.64771277565154 6:0.0013378739965945025 7:0.0037703721722208705 8:-1.0 9:-1.0 10:0.0 11:0.5574803149606299 12:0.44251968503937006 13:0.6578478485085003 
1.0 1:1.0 2:-1.0 3:-1.0 4:-1.0 5:0.64771277565154 6:0.0034054974458769156 7:3.0406227195329605E-4 8:1.0 9:-1.0 10:0.0 11:0.5714285714285714 12:0.42857142857142855 13:0.6632885442054969 
1.0 1:1.0 2:-1.0 3:-1.0 4:-1.0 5:0.64771277565154 6:0.009790805156896133 7:0.012040865969350521 8:1.0 9:-1.0 10:0.0 11:0.671583087512291 12:0.32841691248770893 13:0.7331682656403893 
1.0 1:1.0 2:-1.0 3:-1.0 4:-1.0 5:0.64771277565154 6:0.004196059352955485 7:0.0077839941620043785 8:1.0 9:-1.0 10:0.0 11:0.6244444444444445 12:0.37555555555555553 13:0.6939421562592775 
1.0 1:1.0 2:-1.0 3:-1.0 4:-1.0 5:0.64771277565154 6:0.006142057893456581 7:0.012162490878131841 8:1.0 9:-1.0 10:0.0 11:0.7348242811501597 12:0.26517571884984026 13:0.8001795191533625 
1.0 1:1.0 2:-1.0 3:-1.0 4:-1.0 5:0.64771277565154 6:0.0033446849914862565 7:0.00687180734614449 8:1.0 9:-1.0 10:0.0 11:0.5389809699201964 12:0.46101903007980355 13:0.6524326114318582 
1.0 1:1.0 2:-1.0 3:-1.0 4:-1.0 5:0.64771277565154 6:0.0025541230844076867 7:0.007540744344441741 8:1.0 9:-1.0 10:0.0 11:0.6529411764705882 12:0.34705882352941175 13:0.7163513383480561 
1.0 1:1.0 2:-1.0 3:-1.0 4:-1.0 5:0.64771277565154 6:0.01532473850644612 7:0.01447336414497689 8:1.0 9:-1.0 10:0.0 11:0.5532544378698225 12:0.4467455621301775 13:0.6567498048979606 
1.0 1:1.0 2:-1.0 3:-1.0 4:-1.0 5:0.64771277565154 6:0.044149841887618585 7:0.00310143517392362 8:1.0 9:-1.0 10:0.0 11:0.2388245033112583 12:0.7611754966887417 13:0.8332714008433901 
1.0 1:1.0 2:-1.0 3:-1.0 4:-1.0 5:0.64771277565154 6:0.0024933106300170276 7:0.004074434444174167 8:-1.0 9:-1.0 10:0.0 11:0.4961832061068702 12:0.5038167938931297 13:0.6477753692590127 
1.0 1:1.0 2:-1.0 3:-1.0 4:-1.0 5:6.074965068950854E-4 6:5.473120895159329E-4 7:0.0018851860861104355 8:1.0 9:-1.0 10:0.0 11:0.7068403908794788 12:0.2931596091205212 13:0.41368588533549316 
1.0 1:1.0 2:-1.0 3:-1.0 4:-1.0 5:0.64771277565154 6:0.02067623449282413 7:0.0037095597178302114 8:1.0 9:-1.0 10:0.0 11:0.7470023980815348 12:0.2529976019184652 13:0.8148704472984896 
1.0 1:1.0 2:-1.0 3:-1.0 4:-1.0 5:0.64771277565154 6:0.002614935538798346 7:0.01070299197275602 8:-1.0 9:-1.0 10:0.0 11:0.5299145299145299 12:0.4700854700854701 13:0.6505634081834701 
1.0 1:1.0 2:-1.0 3:-1.0 4:-1.0 5:0.64771277565154 6:0.008513743614692289 7:0.0010946241790318657 8:1.0 9:-1.0 10:0.0 11:0.21086780210867803 12:0.7891321978913219 13:0.8683289890384395 
1.0 1:1.0 2:-1.0 3:-1.0 4:-1.0 5:0.64771277565154 6:0.002979810265142301 7:0.010155679883240088 8:1.0 9:-1.0 10:0.0 11:0.35376044568245124 12:0.6462395543175488 13:0.7107657038949687 
1.0 1:1.0 2:-1.0 3:-1.0 4:-1.0 5:0.64771277565154 6:0.008817805886645585 7:0.015020676234492825 8:1.0 9:-1.0 10:0.0 11:0.6982456140350877 12:0.3017543859649123 13:0.759631824039787 
1.0 1:1.0 2:-1.0 3:-1.0 4:-1.0 5:0.03450580159164085 6:0.005229871077596692 7:0.01295305278521041 8:1.0 9:-1.0 10:0.0 11:0.48586572438162545 12:0.5141342756183745 13:0.046742854645936235 
1.0 1:1.0 2:-1.0 3:-1.0 4:-1.0 5:0.64771277565154 6:0.024689856482607637 7:0.004500121624908782 8:1.0 9:-1.0 10:0.0 11:0.6756756756756757 12:0.32432432432432434 13:0.7372987535228943 
1.0 1:1.0 2:-1.0 3:-1.0 4:-1.0 5:0.64771277565154 6:0.009486742884942837 7:0.011371928971053272 8:1.0 9:-1.0 10:0.0 11:0.6619897959183674 12:0.3380102040816326 13:0.7243714066195649 
1.0 1:1.0 2:-1.0 3:-1.0 4:-1.0 5:0.64771277565154 6:0.001459498905375821 7:0.004074434444174167 8:-1.0 9:-1.0 10:0.0 11:0.3157894736842105 12:0.6842105263157895 13:0.7451742366168315 
1.0 1:1.0 2:-1.0 3:-1.0 4:-1.0 5:0.64771277565154 6:0.0021284359036730723 7:0.0010946241790318657 8:1.0 9:-1.0 10:0.0 11:0.6252821670428894 12:0.3747178329571106 13:0.6944926592121484 
1.0 1:1.0 2:-1.0 3:-1.0 4:-1.0 5:0.64771277565154 6:0.0023716857212357093 7:0.011858428606178546 8:1.0 9:-1.0 10:0.0 11:0.35802469135802467 12:0.6419753086419753 13:0.7073231510563802 
1.0 1:1.0 2:-1.0 3:-1.0 4:-1.0 5:0.64771277565154 6:0.018304548771588422 7:0.005837995621503283 8:1.0 9:-1.0 10:0.0 11:0.7058823529411765 12:0.29411764705882354 13:0.7677572216861337 
1.0 1:1.0 2:-1.0 3:-1.0 4:-1.0 5:0.64771277565154 6:0.0 7:0.01003405497445877 8:1.0 9:-1.0 10:0.0 11:0.4411764705882353 12:0.5588235294117647 13:0.6583869321692826 
1.0 1:1.0 2:-1.0 3:-1.0 4:-1.0 5:0.64771277565154 6:0.0055339333495499875 7:0.006446120165409876 8:-1.0 9:-1.0 10:0.0 11:0.275 12:0.725 13:0.788735707715662 
1.0 1:1.0 2:-1.0 3:-1.0 4:-1.0 5:0.64771277565154 6:0.0034054974458769156 7:0.021649233763074677 8:1.0 9:-1.0 10:0.0 11:0.5790575916230366 12:0.42094240837696334 13:0.6670926005065141 
1.0 1:1.0 2:-1.0 3:-1.0 4:-1.0 5:0.64771277565154 6:0.015811238141571392 7:0.011615178788615907 8:-1.0 9:-1.0 10:0.0 11:0.16666666666666666 12:0.8333333333333334 13:0.92971027305098 
1.0 1:1.0 2:-1.0 3:-1.0 4:-1.0 5:0.64771277565154 6:0.023960107029919728 7:0.014777426416930186 8:1.0 9:-1.0 10:0.0 11:0.6945975744211687 12:0.3054024255788313 13:0.7561727069162337 
1.0 1:1.0 2:-1.0 3:-1.0 4:-1.0 5:0.64771277565154 6:0.008756993432254926 7:0.0036487472634395522 8:1.0 9:-1.0 10:0.0 11:0.2066175408178009 12:0.7933824591821991 13:0.8740222579865835 
1.0 1:1.0 2:-1.0 3:-1.0 4:-1.0 5:0.64771277565154 6:0.008878618341036244 7:6.081245439065921E-4 8:1.0 9:-1.0 10:0.0 11:0.17424242424242425 12:0.8257575757575758 13:0.9187399153596951 
1.0 1:1.0 2:-1.0 3:-1.0 4:-1.0 5:0.64771277565154 6:1.8243736317197763E-4 7:0.0015203113597664802 8:1.0 9:-1.0 10:0.0 11:0.07067669172932331 12:0.9293233082706767 13:1.0755501831482146 
1.0 1:1.0 2:-1.0 3:-1.0 4:-1.0 5:0.64771277565154 6:2.4324981756263683E-4 7:1.8243736317197763E-4 8:1.0 9:-1.0 10:0.0 11:0.6666666666666666 12:0.3333333333333333 13:0.7284524990053906 
1.0 1:1.0 2:-1.0 3:-1.0 4:-1.0 5:0.64771277565154 6:0.0021284359036730723 7:3.6487472634395525E-4 8:1.0 9:-1.0 10:0.0 11:0.6939655172413793 12:0.30603448275862066 13:0.7550013182968938 
1.0 1:1.0 2:-1.0 3:-1.0 4:-1.0 5:0.64771277565154 6:0.0032230600827049378 7:0.03241303819022136 8:-1.0 9:-1.0 10:0.0 11:0.3699421965317919 12:0.630057803468208 13:0.6987510013410642 
1.0 1:1.0 2:-1.0 3:-1.0 4:-1.0 5:0.03450580159164085 6:0.011067866699099975 7:0.013865239601070299 8:1.0 9:-1.0 10:0.0 11:0.41805401405845355 12:0.5819459859415465 13:0.16842200370994975 
1.0 1:1.0 2:-1.0 3:-1.0 4:-1.0 5:0.64771277565154 6:0.04530527852104111 7:0.01295305278521041 8:-1.0 9:-1.0 10:0.0 11:0.5684399282725643 12:0.43156007172743577 13:0.6636929144629786 
1.0 1:1.0 2:-1.0 3:-1.0 4:-1.0 5:0.64771277565154 6:0.0037703721722208705 7:0.017939674045244464 8:1.0 9:-1.0 10:0.0 11:0.6672413793103448 12:0.33275862068965517 13:0.7292095742431632 
1.0 1:1.0 2:-1.0 3:-1.0 4:-1.0 5:0.64771277565154 6:0.008574556069082948 7:0.015507175869618098 8:-1.0 9:-1.0 10:0.0 11:0.29936305732484075 12:0.7006369426751592 13:0.7621460269014041 
1.0 1:1.0 2:-1.0 3:-1.0 4:-1.0 5:0.64771277565154 6:0.0025541230844076867 7:0.011007054244709316 8:1.0 9:-1.0 10:0.0 11:0.35697940503432496 12:0.6430205949656751 13:0.7081518769779835 
1.0 1:1.0 2:-1.0 3:-1.0 4:-1.0 5:0.64771277565154 6:0.0018243736317197761 7:0.013317927511554367 8:1.0 9:-1.0 10:0.0 11:0.42391304347826086 12:0.5760869565217391 13:0.6654843612629355 
1.0 1:1.0 2:-1.0 3:-1.0 4:-1.0 5:0.64771277565154 6:0.04682558988080759 7:0.013074677693991728 8:-1.0 9:-1.0 10:0.0 11:0.5699760765550239 12:0.4300239234449761 13:0.6644411395803602 
1.0 1:1.0 2:-1.0 3:-1.0 4:-1.0 5:0.64771277565154 6:0.005655558258331306 7:7.297494526879105E-4 8:1.0 9:-1.0 10:0.0 11:0.13542600896860987 12:0.8645739910313901 13:0.9753056635547256 
1.0 1:1.0 2:-1.0 3:-1.0 4:-1.0 5:0.64771277565154 6:0.006810994891753831 7:0.007175869618097786 8:1.0 9:-1.0 10:0.0 11:0.5928571428571429 12:0.40714285714285714 13:0.6738839057410266 
1.0 1:1.0 2:-1.0 3:-1.0 4:-1.0 5:0.64771277565154 6:1.8243736317197763E-4 7:0.004196059352955485 8:-1.0 9:-1.0 10:0.0 11:0.4 12:0.6 13:0.6779007891570176 
1.0 1:1.0 2:-1.0 3:-1.0 4:-1.0 5:0.64771277565154 6:0.003952809535392849 7:0.011189491607881293 8:1.0 9:-1.0 10:0.0 11:0.35294117647058826 12:0.6470588235294118 13:0.7114617765413029 
1.0 1:1.0 2:-1.0 3:-1.0 4:-1.0 5:0.64771277565154 6:0.008696180977864267 7:0.0036487472634395522 8:-1.0 9:-1.0 10:0.0 11:0.5714285714285714 12:0.42857142857142855 13:0.6633467720036937 
1.0 1:1.0 2:-1.0 3:-1.0 4:-1.0 5:0.64771277565154 6:0.009486742884942837 7:0.0024933106300170276 8:1.0 9:-1.0 10:0.0 11:0.7125748502994012 12:0.2874251497005988 13:0.7748421275007807 
1.0 1:1.0 2:-1.0 3:-1.0 4:-1.0 5:0.64771277565154 6:0.007175869618097786 7:0.00839211870591097 8:-1.0 9:-1.0 10:0.0 11:0.5487465181058496 12:0.45125348189415043 13:0.6551020169509081 
1.0 1:1.0 2:-1.0 3:-1.0 4:-1.0 5:0.64771277565154 6:0.007540744344441742 7:0.02596691802481148 8:-1.0 9:-1.0 10:0.0 11:0.3959731543624161 12:0.6040268456375839 13:0.6808445651192498 
1.0 1:1.0 2:-1.0 3:-1.0 4:-1.0 5:0.64771277565154 6:0.0042568718073461445 7:0.0013378739965945025 8:1.0 9:-1.0 10:0.0 11:0.6210526315789474 12:0.37894736842105264 13:0.6914959935208522 
1.0 1:1.0 2:-1.0 3:-1.0 4:-1.0 5:0.64771277565154 6:0.018912673315495013 7:0.01313549014838239 8:1.0 9:-1.0 10:0.0 11:0.6949152542372882 12:0.3050847457627119 13:0.7563265798536672 
1.0 1:1.0 2:-1.0 3:-1.0 4:-1.0 5:0.64771277565154 6:0.009425930430552176 7:0.013439552420335685 8:1.0 9:-1.0 10:0.0 11:0.23125755743651755 12:0.7687424425634825 13:0.8418380552195948 
1.0 1:1.0 2:-1.0 3:-1.0 4:-1.0 5:0.64771277565154 6:0.0077839941620043785 7:0.0010338117246412066 8:-1.0 9:-1.0 10:0.0 11:0.358695652173913 12:0.6413043478260869 13:0.7067256709164039 
1.0 1:1.0 2:-1.0 3:-1.0 4:-1.0 5:0.64771277565154 6:0.0065069326198005355 7:0.009121868158598882 8:1.0 9:-1.0 10:0.0 11:0.2003577817531306 12:0.7996422182468694 13:0.8824960193772331 
1.0 1:1.0 2:-1.0 3:-1.0 4:-1.0 5:0.64771277565154 6:0.002614935538798346 7:0.002918997810751642 8:1.0 9:-1.0 10:0.0 11:0.25048923679060664 12:0.7495107632093934 13:0.8176611046195418 
1.0 1:1.0 2:-1.0 3:-1.0 4:-1.0 5:0.64771277565154 6:0.044332279250790564 7:0.013500364874726343 8:-1.0 9:-1.0 10:0.0 11:0.5677267373380448 12:0.43227326266195526 13:0.6633453809135698 
1.0 1:1.0 2:-1.0 3:-1.0 4:-1.0 5:0.64771277565154 6:0.0072974945268791044 7:0.005898808075893943 8:-1.0 9:-1.0 10:0.0 11:0.5555555555555556 12:0.4444444444444444 13:0.6572408752638973 
1.0 1:1.0 2:-1.0 3:-1.0 4:-1.0 5:0.64771277565154 6:0.0069326198005351496 7:6.081245439065921E-4 8:1.0 9:-1.0 10:0.0 11:0.683206106870229 12:0.31679389312977096 13:0.7442030510238217 
1.0 1:1.0 2:-1.0 3:-1.0 4:-1.0 5:0.64771277565154 6:5.473120895159329E-4 7:0.0019459985405010944 8:1.0 9:-1.0 10:0.0 11:0.21756487025948104 12:0.782435129740519 13:0.8594267486233136 
1.0 1:1.0 2:-1.0 3:-1.0 4:-1.0 5:0.023084867262013243 6:0.0 7:6.081245439065921E-5 8:1.0 9:-1.0 10:0.0 11:0.0 12:0.0 13:0.02308494736098352 
1.0 1:1.0 2:-1.0 3:-1.0 4:-1.0 5:0.64771277565154 6:0.00687180734614449 7:0.00912186815859888 8:1.0 9:-1.0 10:0.0 11:0.3241542092840283 12:0.6758457907159717 13:0.7371222682888021 
1.0 1:1.0 2:-1.0 3:-1.0 4:-1.0 5:0.64771277565154 6:0.001763561177329117 7:0.0018243736317197763 8:1.0 9:-1.0 10:0.0 11:0.28488372093023256 12:0.7151162790697675 13:0.7775849357547282 
1.0 1:1.0 2:-1.0 3:-1.0 4:-1.0 5:0.64771277565154 6:0.013621989783507663 7:0.008696180977864267 8:1.0 9:-1.0 10:0.0 11:0.740498497436804 12:0.25950150256319604 13:0.8069393601683621 
1.0 1:1.0 2:-1.0 3:-1.0 4:-1.0 5:0.03450580159164085 6:0.017574799318900512 7:0.04226465580150815 8:1.0 9:-1.0 10:0.0 11:0.7662248628884827 12:0.23377513711151737 13:0.5355264097358475 
1.0 1:1.0 2:-1.0 3:-1.0 4:-1.0 5:0.64771277565154 6:0.009182680612989541 7:0.007054244709316468 8:1.0 9:-1.0 10:0.0 11:0.6712718407151564 12:0.32872815928484356 13:0.7328042695165694 
1.0 1:1.0 2:-1.0 3:-1.0 4:-1.0 5:0.64771277565154 6:0.0036487472634395522 7:0.0022500608124543906 8:-1.0 9:-1.0 10:0.0 11:0.37176470588235294 12:0.6282352941176471 13:0.6966544182751101 
1.0 1:1.0 2:-1.0 3:-1.0 4:-1.0 5:0.64771277565154 6:0.018000486499635125 7:0.0013986864509851619 8:1.0 9:-1.0 10:0.0 11:0.42857142857142855 12:0.5714285714285714 13:0.6635254153727196 
1.0 1:1.0 2:-1.0 3:-1.0 4:-1.0 5:0.64771277565154 6:0.015750425687180734 7:0.007358306981269764 8:1.0 9:-1.0 10:0.0 11:0.375 12:0.625 13:0.6945027432150144 
1.0 1:1.0 2:-1.0 3:-1.0 4:-1.0 5:0.64771277565154 6:0.004135246898564826 7:0.0027973729019703233 8:1.0 9:-1.0 10:0.0 11:0.4449760765550239 12:0.5550239234449761 13:0.6570139221579717 
1.0 1:1.0 2:-1.0 3:-1.0 4:-1.0 5:0.64771277565154 6:5.473120895159329E-4 7:3.0406227195329605E-4 8:1.0 9:-1.0 10:0.0 11:0.1076923076923077 12:0.8923076923076924 13:1.017424952279901 
1.0 1:1.0 2:-1.0 3:-1.0 4:-1.0 5:0.64771277565154 6:5.473120895159329E-4 7:7.905619070785697E-4 8:1.0 9:-1.0 10:0.0 11:0.12539184952978055 12:0.8746081504702194 13:0.9903826684043641 
1.0 1:1.0 2:-1.0 3:-1.0 4:-1.0 5:0.64771277565154 6:0.005959620530284603 7:0.004196059352955485 8:1.0 9:-1.0 10:0.0 11:0.47719298245614034 12:0.5228070175438596 13:0.6493578396617418 
1.0 1:1.0 2:-1.0 3:-1.0 4:-1.0 5:0.64771277565154 6:3.0406227195329605E-4 7:0.0010338117246412066 8:-1.0 9:-1.0 10:0.0 11:0.5686274509803921 12:0.43137254901960786 13:0.6620966010145604 
1.0 1:1.0 2:-1.0 3:-1.0 4:-1.0 5:0.64771277565154 6:0.005290683531987351 7:0.025297981026514232 8:1.0 9:-1.0 10:0.0 11:0.7007389162561576 12:0.29926108374384236 13:0.7624855860390164 
1.0 1:1.0 2:-1.0 3:-1.0 4:-1.0 5:0.64771277565154 6:0.008209681342738993 7:0.008756993432254926 8:1.0 9:-1.0 10:0.0 11:0.724709784411277 12:0.2752902155887231 13:0.7884502979799007 
1.0 1:1.0 2:-1.0 3:-1.0 4:-1.0 5:0.64771277565154 6:0.0015203113597664802 7:0.0038311846266115297 8:1.0 9:-1.0 10:0.0 11:0.23880597014925373 12:0.7611940298507462 13:0.8321286643201194 
1.0 1:1.0 2:-1.0 3:-1.0 4:-1.0 5:0.64771277565154 6:0.01380442714667964 7:0.01447336414497689 8:1.0 9:-1.0 10:0.0 11:0.6293279022403259 12:0.37067209775967414 13:0.6977354121816352 
1.0 1:1.0 2:-1.0 3:-1.0 4:-1.0 5:0.64771277565154 6:0.017939674045244467 7:0.00918268061298954 8:1.0 9:-1.0 10:0.0 11:0.2508833922261484 12:0.7491166077738516 13:0.8174193112138446 
1.0 1:1.0 2:-1.0 3:-1.0 4:-1.0 5:0.64771277565154 6:0.0025541230844076867 7:0.0019459985405010944 8:1.0 9:-1.0 10:0.0 11:0.37305699481865284 12:0.6269430051813472 13:0.6957012695512048 
1.0 1:1.0 2:-1.0 3:-1.0 4:-1.0 5:0.64771277565154 6:0.022500608124543908 7:0.011311116516662613 8:1.0 9:-1.0 10:0.0 11:0.635593220338983 12:0.3644067796610169 13:0.7026436821552116 
1.0 1:1.0 2:-1.0 3:-1.0 4:-1.0 5:0.64771277565154 6:0.011675991243006568 7:0.0013986864509851619 8:-1.0 9:-1.0 10:0.0 11:0.546875 12:0.453125 13:0.65456793943602 
1.0 1:1.0 2:-1.0 3:-1.0 4:-1.0 5:0.64771277565154 6:0.0012162490878131842 7:5.473120895159329E-4 8:-1.0 9:-1.0 10:0.0 11:0.5714285714285714 12:0.42857142857142855 13:0.663281073014974 
1.0 1:1.0 2:-1.0 3:-1.0 4:-1.0 5:0.64771277565154 6:0.017149112138165896 7:0.00687180734614449 8:1.0 9:-1.0 10:0.0 11:0.7015945330296127 12:0.2984054669703872 13:0.7631740145702437 
1.0 1:1.0 2:-1.0 3:-1.0 4:-1.0 5:0.64771277565154 6:0.0026149355387983463 7:0.010155679883240088 8:1.0 9:-1.0 10:0.0 11:0.13384994716449455 12:0.8661500528355055 13:0.9777040760014039 
1.0 1:1.0 2:-1.0 3:-1.0 4:-1.0 5:0.64771277565154 6:0.009729992702505474 7:0.011250304062271952 8:1.0 9:-1.0 10:0.0 11:0.6666666666666666 12:0.3333333333333333 13:0.728604277336345 
1.0 1:1.0 2:-1.0 3:-1.0 4:-1.0 5:0.64771277565154 6:0.0023716857212357093 7:0.010277304792021406 8:1.0 9:-1.0 10:0.0 11:0.3565536205316224 12:0.6434463794683777 13:0.7084846806808978 
1.0 1:1.0 2:-1.0 3:-1.0 4:-1.0 5:0.03450580159164085 6:0.010459742155193383 7:0.005959620530284603 8:1.0 9:-1.0 10:0.0 11:0.6509028374892519 12:0.34909716251074807 13:0.30401026146419813 
1.0 1:1.0 2:-1.0 3:-1.0 4:-1.0 5:0.64771277565154 6:0.003770372172220871 7:0.0010946241790318657 8:1.0 9:-1.0 10:0.0 11:0.4830508474576271 12:0.5169491525423728 13:0.6486110920561342 
1.0 1:1.0 2:-1.0 3:-1.0 4:-1.0 5:0.64771277565154 6:0.013621989783507663 7:0.00383118462661153 8:1.0 9:-1.0 10:0.0 11:0.591743119266055 12:0.40825688073394495 13:0.6733492972107342 
1.0 1:1.0 2:-1.0 3:-1.0 4:-1.0 5:0.64771277565154 6:0.0064461201654098755 7:0.003527122354658234 8:1.0 9:-1.0 10:0.0 11:0.6772009029345373 12:0.3227990970654628 13:0.7383674375287516 
1.0 1:1.0 2:-1.0 3:-1.0 4:-1.0 5:0.64771277565154 6:0.006689369982972513 7:0.013257115057163706 8:1.0 9:-1.0 10:0.0 11:0.6403508771929824 12:0.35964912280701755 13:0.7060777672664595 
1.0 1:1.0 2:-1.0 3:-1.0 4:-1.0 5:0.64771277565154 6:0.0030406227195329603 7:0.017453174410119194 8:1.0 9:-1.0 10:0.0 11:0.606312292358804 12:0.39368770764119604 13:0.681949347424037 
1.0 1:1.0 2:-1.0 3:-1.0 4:-1.0 5:0.03450580159164085 6:0.0065069326198005355 7:0.024324981756263683 8:1.0 9:-1.0 10:0.0 11:0.2680722891566265 12:0.7319277108433735 13:0.4658181485099445 
1.0 1:1.0 2:-1.0 3:-1.0 4:-1.0 5:0.64771277565154 6:1.8243736317197763E-4 7:0.0010946241790318657 8:1.0 9:-1.0 10:0.0 11:0.228287841191067 12:0.771712158808933 13:0.8454839207259652 
1.0 1:1.0 2:-1.0 3:-1.0 4:-1.0 5:0.64771277565154 6:0.0034663099002675748 7:0.006750182437363172 8:1.0 9:-1.0 10:0.0 11:0.33819628647214856 12:0.6618037135278515 13:0.7240933550690108 
1.0 1:1.0 2:-1.0 3:-1.0 4:-1.0 5:0.64771277565154 6:6.081245439065921E-4 7:0.0023716857212357093 8:-1.0 9:-1.0 10:0.0 11:0.42857142857142855 12:0.5714285714285714 13:0.6632842510689889 
1.0 1:1.0 2:-1.0 3:-1.0 4:-1.0 5:0.64771277565154 6:0.003952809535392849 7:0.003527122354658234 8:1.0 9:-1.0 10:0.0 11:0.5704416998115972 12:0.42955830018840274 13:0.6628785992374009 
1.0 1:1.0 2:-1.0 3:-1.0 4:-1.0 5:0.64771277565154 6:0.012892240330819751 7:0.009365117976161519 8:1.0 9:-1.0 10:0.0 11:0.6917795509370941 12:0.3082204490629059 13:0.7529298371483302 
1.0 1:1.0 2:-1.0 3:-1.0 4:-1.0 5:0.64771277565154 6:0.00383118462661153 7:0.01690586232060326 8:1.0 9:-1.0 10:0.0 11:0.4606741573033708 12:0.5393258426966292 13:0.6527008606657944 
1.0 1:1.0 2:-1.0 3:-1.0 4:-1.0 5:0.64771277565154 6:0.002067623449282413 7:0.0011554366334225249 8:1.0 9:-1.0 10:0.0 11:0.5757575757575758 12:0.42424242424242425 13:0.6652024436075256 
1.0 1:1.0 2:-1.0 3:-1.0 4:-1.0 5:0.64771277565154 6:0.0055339333495499875 7:0.0012770615422038434 8:-1.0 9:-1.0 10:0.0 11:0.43478260869565216 12:0.5652173913043478 13:0.6607399848358654 
1.0 1:1.0 2:-1.0 3:-1.0 4:-1.0 5:0.64771277565154 6:0.007905619070785698 7:0.005473120895159329 8:1.0 9:-1.0 10:0.0 11:0.5734870317002881 12:0.4265129682997118 13:0.6642481982812781 
1.0 1:1.0 2:-1.0 3:-1.0 4:-1.0 5:0.64771277565154 6:0.009912430065677451 7:0.01155436633422525 8:1.0 9:-1.0 10:0.0 11:0.4958924570575056 12:0.5041075429424944 13:0.6479437375494205 
1.0 1:1.0 2:-1.0 3:-1.0 4:-1.0 5:0.64771277565154 6:0.006993432254925809 7:0.018182923862807104 8:1.0 9:-1.0 10:0.0 11:0.7242798353909465 12:0.2757201646090535 13:0.7881098557999939 
1.0 1:1.0 2:-1.0 3:-1.0 4:-1.0 5:0.64771277565154 6:0.012588178058866455 7:0.022683045487715884 8:1.0 9:-1.0 10:0.0 11:0.6833046471600689 12:0.31669535283993117 13:0.744719542649158 
1.0 1:1.0 2:-1.0 3:-1.0 4:-1.0 5:0.64771277565154 6:0.005229871077596692 7:0.0018243736317197761 8:1.0 9:-1.0 10:0.0 11:0.2975206611570248 12:0.7024793388429752 13:0.7639070953106877 
1.0 1:1.0 2:-1.0 3:-1.0 4:-1.0 5:0.64771277565154 6:9.729992702505473E-4 7:0.0 8:-1.0 9:-1.0 10:0.0 11:0.0975609756097561 12:0.9024390243902439 13:1.0331318695493268 
1.0 1:1.0 2:-1.0 3:-1.0 4:-1.0 5:0.64771277565154 6:0.009121868158598882 7:0.0028581853563609825 8:1.0 9:-1.0 10:0.0 11:0.7016260162601626 12:0.2983739837398374 13:0.7630435237758262 
1.0 1:1.0 2:-1.0 3:-1.0 4:-1.0 5:0.03450580159164085 6:0.002432498175626368 7:0.03223060082704938 8:1.0 9:-1.0 10:0.0 11:0.08391608391608392 12:0.916083916083916 13:0.8335098559197953 
1.0 1:1.0 2:-1.0 3:-1.0 4:-1.0 5:0.64771277565154 6:0.008209681342738993 7:0.0055339333495499875 8:-1.0 9:-1.0 10:0.0 11:0.15456674473067916 12:0.8454332552693209 13:0.9470619823496919 
1.0 1:1.0 2:-1.0 3:-1.0 4:-1.0 5:0.64771277565154 6:0.007966431525176357 7:0.0016419362685477987 8:1.0 9:-1.0 10:0.0 11:0.7190721649484536 12:0.2809278350515464 13:0.7820284224687664 
1.0 1:1.0 2:-1.0 3:-1.0 4:-1.0 5:0.64771277565154 6:0.0024324981756263684 7:0.0030406227195329603 8:1.0 9:-1.0 10:0.0 11:0.6947791164658634 12:0.30522088353413657 13:0.7558456317403763 
1.0 1:1.0 2:-1.0 3:-1.0 4:-1.0 5:0.64771277565154 6:9.729992702505473E-4 7:6.081245439065921E-5 8:1.0 9:-1.0 10:0.0 11:0.12790697674418605 12:0.872093023255814 13:0.9865828206443509 
1.0 1:1.0 2:-1.0 3:-1.0 4:-1.0 5:0.64771277565154 6:0.020250547312089515 7:0.01380442714667964 8:1.0 9:-1.0 10:0.0 11:0.37533274179236914 12:0.6246672582076309 13:0.6944783565335508 
1.0 1:1.0 2:-1.0 3:-1.0 4:-1.0 5:0.64771277565154 6:0.004378496716127463 7:0.01629773777669667 8:-1.0 9:-1.0 10:0.0 11:0.10792741165234002 12:0.89207258834766 13:1.0172021850973816 
1.0 1:1.0 2:-1.0 3:-1.0 4:-1.0 5:0.64771277565154 6:0.014047676964242277 7:0.005777183167112624 8:-1.0 9:-1.0 10:0.0 11:0.2962962962962963 12:0.7037037037037037 13:0.7653387148355201 
1.0 1:1.0 2:-1.0 3:-1.0 4:-1.0 5:0.64771277565154 6:0.0025541230844076867 7:0.006263682802237899 8:1.0 9:-1.0 10:0.0 11:0.7366310160427807 12:0.26336898395721925 13:0.8022185163800163 
1.0 1:1.0 2:-1.0 3:-1.0 4:-1.0 5:0.64771277565154 6:0.007175869618097786 7:0.008148868888348334 8:1.0 9:-1.0 10:0.0 11:0.4083438685208597 12:0.5916561314791403 13:0.6732407612897806 
1.0 1:1.0 2:-1.0 3:-1.0 4:-1.0 5:0.64771277565154 6:0.012466553150085137 7:0.002918997810751642 8:1.0 9:-1.0 10:0.0 11:0.742437337942956 12:0.2575626620570441 13:0.8091966550557123 
1.0 1:1.0 2:-1.0 3:-1.0 4:-1.0 5:0.64771277565154 6:0.004378496716127463 7:0.002675747993189005 8:1.0 9:-1.0 10:0.0 11:0.6129032258064516 12:0.3870967741935484 13:0.6859640837485945 
1.0 1:1.0 2:-1.0 3:-1.0 4:-1.0 5:0.64771277565154 6:0.0025541230844076867 7:0.010581367063974702 8:1.0 9:-1.0 10:0.0 11:0.35678391959798994 12:0.6432160804020101 13:0.7083034034640487 
1.0 1:1.0 2:-1.0 3:-1.0 4:-1.0 5:0.64771277565154 6:0.007540744344441741 7:0.00614205789345658 8:1.0 9:-1.0 10:0.0 11:0.5472906403940887 12:0.45270935960591135 13:0.6546541423669364 
1.0 1:1.0 2:-1.0 3:-1.0 4:-1.0 5:0.64771277565154 6:0.0015203113597664802 7:0.0010946241790318657 8:1.0 9:-1.0 10:0.0 11:0.5671641791044776 12:0.43283582089552236 13:0.6614978889687098 
1.0 1:1.0 2:-1.0 3:-1.0 4:-1.0 5:0.64771277565154 6:3.0406227195329605E-4 7:4.2568718073461445E-4 8:-1.0 9:-1.0 10:0.0 11:0.23076923076923078 12:0.7692307692307693 13:0.842302167756934 
1.0 1:1.0 2:-1.0 3:-1.0 4:-1.0 5:0.023084867262013243 6:6.081245439065921E-5 7:6.081245439065921E-5 8:-1.0 9:-1.0 10:0.0 11:0.0 12:0.0 13:0.023085027459675868 
1.0 1:1.0 2:-1.0 3:-1.0 4:-1.0 5:0.64771277565154 6:0.0019459985405010946 7:0.002736560447579664 8:-1.0 9:-1.0 10:0.0 11:0.06666666666666667 12:0.9333333333333333 13:1.081967756694596 
1.0 1:1.0 2:-1.0 3:-1.0 4:-1.0 5:0.64771277565154 6:6.081245439065921E-5 7:5.473120895159329E-4 8:-1.0 9:-1.0 10:0.0 11:0.5664335664335665 12:0.43356643356643354 13:0.6612002858342035 
1.0 1:1.0 2:-1.0 3:-1.0 4:-1.0 5:0.64771277565154 6:0.002979810265142301 7:0.02596691802481148 8:1.0 9:-1.0 10:0.0 11:0.6238273921200751 12:0.37617260787992496 13:0.6939365187105957 
1.0 1:1.0 2:-1.0 3:-1.0 4:-1.0 5:0.64771277565154 6:0.012040865969350523 7:9.729992702505474E-4 8:1.0 9:-1.0 10:0.0 11:0.6028708133971292 12:0.39712918660287083 13:0.6797112518702643 
1.0 1:1.0 2:-1.0 3:-1.0 4:-1.0 5:0.64771277565154 6:0.0038919970810021892 7:0.013196302602773047 8:-1.0 9:-1.0 10:0.0 11:0.4122137404580153 12:0.5877862595419847 13:0.6712278594064578 
1.0 1:1.0 2:-1.0 3:-1.0 4:-1.0 5:0.64771277565154 6:0.005412308440768669 7:0.007540744344441741 8:1.0 9:-1.0 10:0.0 11:0.29077770130763936 12:0.7092222986923606 13:0.7711769425563824 
1.0 1:1.0 2:-1.0 3:-1.0 4:-1.0 5:0.64771277565154 6:0.005290683531987351 7:0.0033446849914862565 8:1.0 9:-1.0 10:0.0 11:0.3651642475171887 12:0.6348357524828113 13:0.7016364718161207 
1.0 1:1.0 2:-1.0 3:-1.0 4:-1.0 5:0.64771277565154 6:0.007054244709316468 7:0.005837995621503284 8:1.0 9:-1.0 10:0.0 11:0.6230366492146597 12:0.3769633507853403 13:0.6929413773930683 
1.0 1:1.0 2:-1.0 3:-1.0 4:-1.0 5:0.64771277565154 6:0.0022500608124543906 7:1.2162490878131841E-4 8:1.0 9:-1.0 10:0.0 11:0.45806451612903226 12:0.5419354838709678 13:0.6531242274931081 
1.0 1:1.0 2:-1.0 3:-1.0 4:-1.0 5:0.64771277565154 6:0.007540744344441742 7:0.02779129165653126 8:-1.0 9:-1.0 10:0.0 11:0.5504201680672269 12:0.4495798319327731 13:0.656147721059167 
1.0 1:1.0 2:-1.0 3:-1.0 4:-1.0 5:0.64771277565154 6:0.022683045487715884 7:0.0018851860861104355 8:1.0 9:-1.0 10:0.0 11:0.41021897810218977 12:0.5897810218978102 13:0.6725269078583097 
1.0 1:1.0 2:-1.0 3:-1.0 4:-1.0 5:0.64771277565154 6:0.008939430795426905 7:0.0021284359036730723 8:1.0 9:-1.0 10:0.0 11:0.6363636363636364 12:0.36363636363636365 13:0.7028488092711125 
1.0 1:1.0 2:-1.0 3:-1.0 4:-1.0 5:0.64771277565154 6:0.01599367550474337 7:0.014351739236195574 8:1.0 9:-1.0 10:0.0 11:0.5591703056768559 12:0.4408296943231441 13:0.6587853293092122 
1.0 1:1.0 2:-1.0 3:-1.0 4:-1.0 5:0.023084867262013243 6:1.2162490878131841E-4 7:2.4324981756263683E-4 8:-1.0 9:-1.0 10:0.0 11:0.0 12:1.0 13:1.000266457030124 
1.0 1:1.0 2:-1.0 3:-1.0 4:-1.0 5:0.64771277565154 6:0.006567745074191195 7:0.00310143517392362 8:1.0 9:-1.0 10:0.0 11:0.32918739635157546 12:0.6708126036484245 13:0.7323198591997453 
1.0 1:1.0 2:-1.0 3:-1.0 4:-1.0 5:0.64771277565154 6:0.04597421551933836 7:0.0015203113597664802 8:1.0 9:-1.0 10:0.0 11:0.42718446601941745 12:0.5728155339805825 13:0.6654744078752998 
1.0 1:1.0 2:-1.0 3:-1.0 4:-1.0 5:0.64771277565154 6:0.011067866699099975 7:1.2162490878131841E-4 8:-1.0 9:-1.0 10:0.0 11:0.1686746987951807 12:0.8313253012048193 13:0.9266931385749905 
1.0 1:1.0 2:-1.0 3:-1.0 4:-1.0 5:0.64771277565154 6:0.004864996351252737 7:0.040379469715397714 8:1.0 9:-1.0 10:0.0 11:0.704438149197356 12:0.295561850802644 13:0.7670500876052216 
1.0 1:1.0 2:-1.0 3:-1.0 4:-1.0 5:0.64771277565154 6:0.018122111408416443 7:0.009669180248114813 8:1.0 9:-1.0 10:0.0 11:0.0558810274898603 12:0.9441189725101397 13:1.0995091589816979 
1.0 1:1.0 2:-1.0 3:-1.0 4:-1.0 5:0.64771277565154 6:2.4324981756263683E-4 7:0.0020068109948917535 8:-1.0 9:-1.0 10:0.0 11:0.5338983050847458 12:0.4661016949152542 13:0.6512544100069796 
1.0 1:1.0 2:-1.0 3:-1.0 4:-1.0 5:0.005528218212745277 6:3.6487472634395525E-4 7:6.081245439065921E-4 8:1.0 9:-1.0 10:0.0 11:0.4925 12:0.5075 13:0.016002004425525993 
1.0 1:1.0 2:-1.0 3:-1.0 4:-1.0 5:0.64771277565154 6:0.004500121624908781 7:0.0021892483580637314 8:1.0 9:-1.0 10:0.0 11:0.7084148727984344 12:0.29158512720156554 13:0.7702622413565297 
1.0 1:1.0 2:-1.0 3:-1.0 4:-1.0 5:0.023084867262013243 6:0.0 7:6.081245439065921E-5 8:-1.0 9:-1.0 10:0.0 11:0.0 12:0.0 13:0.02308494736098352 
1.0 1:1.0 2:-1.0 3:-1.0 4:-1.0 5:0.023084867262013243 6:2.4324981756263683E-4 7:1.2162490878131841E-4 8:-1.0 9:-1.0 10:0.0 11:0.0 12:0.0 13:0.023086469188616763 
1.0 1:1.0 2:-1.0 3:-1.0 4:-1.0 5:0.64771277565154 6:0.008148868888348334 7:0.018061298954025785 8:-1.0 9:-1.0 10:0.0 11:0.5333333333333333 12:0.4666666666666667 13:0.6514360281491443 
1.0 1:1.0 2:-1.0 3:-1.0 4:-1.0 5:0.64771277565154 6:0.003709559717830212 7:0.013196302602773047 8:1.0 9:-1.0 10:0.0 11:0.7144827586206897 12:0.28551724137931034 13:0.777001388647453 
1.0 1:1.0 2:-1.0 3:-1.0 4:-1.0 5:0.023084867262013243 6:1.2162490878131841E-4 7:9.729992702505473E-4 8:1.0 9:-1.0 10:0.0 11:0.40625 12:0.59375 13:0.18891829614069441 
1.0 1:1.0 2:-1.0 3:-1.0 4:-1.0 5:0.64771277565154 6:0.0015811238141571393 7:0.01824373631719776 8:1.0 9:-1.0 10:0.0 11:0.5803571428571429 12:0.41964285714285715 13:0.6676048646034587 
1.0 1:1.0 2:-1.0 3:-1.0 4:-1.0 5:0.64771277565154 6:3.0406227195329605E-4 7:9.121868158598882E-4 8:-1.0 9:-1.0 10:0.0 11:0.5 12:0.5 13:0.6477134893460799 
1.0 1:1.0 2:-1.0 3:-1.0 4:-1.0 5:0.03450580159164085 6:0.013378739965945026 7:0.011311116516662612 8:1.0 9:-1.0 10:0.0 11:0.4894419306184012 12:0.5105580693815988 13:0.04408484659923625 
1.0 1:1.0 2:-1.0 3:-1.0 4:-1.0 5:0.023084867262013243 6:1.2162490878131841E-4 7:0.0 8:-1.0 9:-1.0 10:0.0 11:0.0 12:0.0 13:0.023085187656226813 
1.0 1:1.0 2:-1.0 3:-1.0 4:-1.0 5:0.64771277565154 6:0.0013378739965945027 7:0.004378496716127463 8:1.0 9:-1.0 10:0.0 11:0.5 12:0.5 13:0.6477289563409575 
1.0 1:1.0 2:-1.0 3:-1.0 4:-1.0 5:0.64771277565154 6:0.006810994891753831 7:0.0022500608124543906 8:1.0 9:-1.0 10:0.0 11:0.11363636363636363 12:0.8863636363636364 13:1.0083108301430797 
1.0 1:1.0 2:-1.0 3:-1.0 4:-1.0 5:0.64771277565154 6:0.012648990513257114 7:0.008270493797129653 8:1.0 9:-1.0 10:0.0 11:0.5663881151346333 12:0.4336118848653668 13:0.661354492761176 
1.0 1:1.0 2:-1.0 3:-1.0 4:-1.0 5:0.64771277565154 6:0.005716370712721965 7:0.026331792751155436 8:-1.0 9:-1.0 10:0.0 11:0.3212121212121212 12:0.6787878787878788 13:0.7403501214639694 
1.0 1:1.0 2:-1.0 3:-1.0 4:-1.0 5:0.64771277565154 6:0.011189491607881295 7:0.017209924592556554 8:-1.0 9:-1.0 10:0.0 11:0.5420560747663551 12:0.45794392523364486 13:0.6534738553822635 
1.0 1:1.0 2:-1.0 3:-1.0 4:-1.0 5:0.64771277565154 6:0.0021892483580637314 7:0.005594745803940647 8:1.0 9:-1.0 10:0.0 11:0.018360830228845132 12:0.9816391697711548 13:1.160807086971214 
1.0 1:1.0 2:-1.0 3:-1.0 4:-1.0 5:0.64771277565154 6:0.024324981756263686 7:0.005169058623206033 8:1.0 9:-1.0 10:0.0 11:0.7402777777777778 12:0.25972222222222224 13:0.8068977045586532 
1.0 1:1.0 2:-1.0 3:-1.0 4:-1.0 5:0.64771277565154 6:0.004317684261736804 7:0.01532473850644612 8:1.0 9:-1.0 10:0.0 11:0.5555555555555556 12:0.4444444444444444 13:0.6573667231935633 
1.0 1:1.0 2:-1.0 3:-1.0 4:-1.0 5:0.64771277565154 6:0.009790805156896133 7:0.01003405497445877 8:1.0 9:-1.0 10:0.0 11:0.38150807899461403 12:0.618491921005386 13:0.6898476087088071 
1.0 1:1.0 2:-1.0 3:-1.0 4:-1.0 5:0.03450580159164085 6:0.0021284359036730723 7:0.001459498905375821 8:1.0 9:-1.0 10:0.0 11:0.7591397849462366 12:0.24086021505376345 13:0.5194333675148907 
1.0 1:1.0 2:-1.0 3:-1.0 4:-1.0 5:0.64771277565154 6:0.011067866699099975 7:0.01909511067866699 8:1.0 9:-1.0 10:0.0 11:0.3293237971391417 12:0.6706762028608583 13:0.7324891982543669 
1.0 1:1.0 2:-1.0 3:-1.0 4:-1.0 5:0.64771277565154 6:0.0034054974458769156 7:0.007054244709316468 8:-1.0 9:-1.0 10:0.0 11:0.375 12:0.625 13:0.694329316335912 
1.0 1:1.0 2:-1.0 3:-1.0 4:-1.0 5:0.64771277565154 6:0.0168450498662126 7:0.0017027487229384578 8:1.0 9:-1.0 10:0.0 11:0.6915887850467289 12:0.308411214953271 13:0.7527572948986663 
1.0 1:1.0 2:-1.0 3:-1.0 4:-1.0 5:0.0027944839317173924 6:0.0030406227195329603 7:0.0028581853563609825 8:1.0 9:-1.0 10:0.0 11:0.23243243243243245 12:0.7675675675675676 13:0.5351587022618598 
1.0 1:1.0 2:-1.0 3:-1.0 4:-1.0 5:0.64771277565154 6:0.004743371442471419 7:0.005594745803940647 8:-1.0 9:-1.0 10:0.0 11:0.5 12:0.5 13:0.6477543056556816 
1.0 1:1.0 2:-1.0 3:-1.0 4:-1.0 5:0.64771277565154 6:7.297494526879105E-4 7:0.0051082461688153735 8:1.0 9:-1.0 10:0.0 11:0.2165991902834008 12:0.7834008097165992 13:0.8607104868929525 
1.0 1:1.0 2:-1.0 3:-1.0 4:-1.0 5:0.64771277565154 6:0.010642179518365361 7:0.01149355387983459 8:1.0 9:-1.0 10:0.0 11:0.17866323907455012 12:0.8213367609254498 13:0.9125822994098399 
1.0 1:1.0 2:-1.0 3:-1.0 4:-1.0 5:0.64771277565154 6:0.002371685721235709 7:0.004621746533690099 8:1.0 9:-1.0 10:0.0 11:0.6571428571428571 12:0.34285714285714286 13:0.7199543981256631 
1.0 1:1.0 2:-1.0 3:-1.0 4:-1.0 5:0.64771277565154 6:0.002918997810751642 7:0.002979810265142301 8:1.0 9:-1.0 10:0.0 11:0.5883777239709443 12:0.4116222760290557 13:0.6714102530769062 
1.0 1:1.0 2:-1.0 3:-1.0 4:-1.0 5:0.64771277565154 6:0.0027973729019703237 7:0.003952809535392848 8:1.0 9:-1.0 10:0.0 11:0.6029411764705882 12:0.39705882352941174 13:0.679663764661022 
1.0 1:1.0 2:-1.0 3:-1.0 4:-1.0 5:0.03450580159164085 6:0.0022500608124543906 7:0.0010946241790318657 8:1.0 9:-1.0 10:0.0 11:0.1013215859030837 12:0.8986784140969163 13:0.7981070246442915 
1.0 1:1.0 2:-1.0 3:-1.0 4:-1.0 5:0.64771277565154 6:0.012162490878131843 7:0.0055339333495499875 8:1.0 9:-1.0 10:0.0 11:0.5465313028764806 12:0.45346869712351945 13:0.6545006026998227 
1.0 1:1.0 2:-1.0 3:-1.0 4:-1.0 5:0.64771277565154 6:0.0023716857212357093 7:0.0018851860861104353 8:1.0 9:-1.0 10:0.0 11:0.36272040302267 12:0.6372795969773299 13:0.7035081872636553 
1.0 1:1.0 2:-1.0 3:-1.0 4:-1.0 5:0.017192151145130917 6:1.2162490878131841E-4 7:3.6487472634395525E-4 8:1.0 9:-1.0 10:0.0 11:0.06956521739130435 12:0.9304347826086956 13:0.8610413034836143 
1.0 1:1.0 2:-1.0 3:-1.0 4:-1.0 5:0.64771277565154 6:0.004560934079299441 7:0.0055339333495499875 8:-1.0 9:-1.0 10:0.0 11:0.10809476801579466 12:0.8919052319842053 13:1.0168294398307862 
1.0 1:1.0 2:-1.0 3:-1.0 4:-1.0 5:0.023084867262013243 6:0.0 7:6.081245439065921E-5 8:1.0 9:-1.0 10:0.0 11:0.0 12:1.0 13:1.0002664219070134 
1.0 1:1.0 2:-1.0 3:-1.0 4:-1.0 5:0.64771277565154 6:0.006202870347847239 7:0.013196302602773047 8:1.0 9:-1.0 10:0.0 11:0.484375 12:0.515625 13:0.6486301104983936 
1.0 1:1.0 2:-1.0 3:-1.0 4:-1.0 5:0.023084867262013243 6:2.4324981756263683E-4 7:0.001155436633422525 8:1.0 9:-1.0 10:0.0 11:0.6 12:0.4 13:0.20133133213882123 
1.0 1:1.0 2:-1.0 3:-1.0 4:-1.0 5:0.64771277565154 6:0.005473120895159328 7:0.018973485769885674 8:1.0 9:-1.0 10:0.0 11:0.6168539325842697 12:0.3831460674157303 13:0.6888694754439707 
1.0 1:1.0 2:-1.0 3:-1.0 4:-1.0 5:0.64771277565154 6:7.905619070785698E-4 7:0.0024933106300170276 8:-1.0 9:-1.0 10:0.0 11:0.25 12:0.75 13:0.8182534334350506 
1.0 1:1.0 2:-1.0 3:-1.0 4:-1.0 5:0.64771277565154 6:0.018122111408416443 7:0.005898808075893943 8:1.0 9:-1.0 10:0.0 11:0.5371024734982333 12:0.4628975265017668 13:0.652228043524338 
1.0 1:1.0 2:-1.0 3:-1.0 4:-1.0 5:0.64771277565154 6:1.8243736317197763E-4 7:0.013439552420335685 8:1.0 9:-1.0 10:0.0 11:0.05226480836236934 12:0.9477351916376306 13:1.1052509678430578 
1.0 1:1.0 2:-1.0 3:-1.0 4:-1.0 5:0.03450580159164085 6:0.005533933349549988 7:0.013500364874726344 8:1.0 9:-1.0 10:0.0 11:0.5447604504676465 12:0.4552395495323535 13:0.09704394013958954 
0.17791846824123408 1:1.0 2:-1.0 3:-1.0 4:-1.0 5:0.64771277565154 6:0.010277304792021406 7:0.0077839941620043785 8:-1.0 9:-1.0 10:0.0 11:0.5712656784492588 12:0.42873432155074115 13:0.663334938775621 
1.0 1:1.0 2:-1.0 3:-1.0 4:-1.0 5:0.64771277565154 6:0.0026149355387983463 7:2.4324981756263683E-4 8:1.0 9:-1.0 10:0.0 11:0.6869158878504673 12:0.3130841121495327 13:0.7478562250354555 
1.0 1:1.0 2:-1.0 3:-1.0 4:-1.0 5:0.64771277565154 6:0.010277304792021408 7:0.018122111408416443 8:1.0 9:-1.0 10:0.0 11:0.700341933478396 12:0.299658066521604 13:0.7619143225437868 
1.0 1:1.0 2:-1.0 3:-1.0 4:-1.0 5:0.64771277565154 6:0.004439309170518122 7:0.004013621989783508 8:1.0 9:-1.0 10:0.0 11:0.2728603753493944 12:0.7271396246506057 13:0.7911619889221692 
1.0 1:1.0 2:-1.0 3:-1.0 4:-1.0 5:0.64771277565154 6:0.0042568718073461445 7:0.006689369982972513 8:1.0 9:-1.0 10:0.0 11:0.3740648379052369 12:0.6259351620947631 13:0.6950060205335724 
1.0 1:1.0 2:-1.0 3:-1.0 4:-1.0 5:0.64771277565154 6:0.004013621989783507 7:0.0046825589880807586 8:1.0 9:-1.0 10:0.0 11:0.1154338776817163 12:0.8845661223182837 13:1.0055517316389349 
1.0 1:1.0 2:-1.0 3:-1.0 4:-1.0 5:0.64771277565154 6:0.00845293116030163 7:0.010642179518365361 8:1.0 9:-1.0 10:0.0 11:0.6786188579017264 12:0.32138114209827356 13:0.73982114957927 
1.0 1:1.0 2:-1.0 3:-1.0 4:-1.0 5:0.64771277565154 6:0.0060812454390659215 7:0.01678423741182194 8:1.0 9:-1.0 10:0.0 11:0.7029702970297029 12:0.297029702970297 13:0.7646164383657418 
1.0 1:1.0 2:-1.0 3:-1.0 4:-1.0 5:0.64771277565154 6:0.008331306251520312 7:0.0122233033325225 8:1.0 9:-1.0 10:0.0 11:0.2448499117127722 12:0.7551500882872277 13:0.8247162722793566 
1.0 1:1.0 2:-1.0 3:-1.0 4:-1.0 5:0.64771277565154 6:0.006263682802237899 7:9.729992702505473E-4 8:-1.0 9:-1.0 10:0.0 11:0.5126353790613718 12:0.48736462093862815 13:0.6482365551310318 
1.0 1:1.0 2:-1.0 3:-1.0 4:-1.0 5:0.64771277565154 6:0.00620287034784724 7:0.003952809535392848 8:1.0 9:-1.0 10:0.0 11:0.4861111111111111 12:0.5138888888888888 13:0.6483498631019128 
1.0 1:1.0 2:-1.0 3:-1.0 4:-1.0 5:0.64771277565154 6:0.001763561177329117 7:0.0019459985405010948 8:1.0 9:-1.0 10:0.0 11:0.13630573248407643 12:0.8636942675159236 13:0.9739778322407265 
1.0 1:1.0 2:-1.0 3:-1.0 4:-1.0 5:0.023084867262013243 6:4.864996351252737E-4 7:6.081245439065921E-5 8:-1.0 9:-1.0 10:0.0 11:0.0 12:0.0 13:0.02309007311712886 
1.0 1:1.0 2:-1.0 3:-1.0 4:-1.0 5:0.64771277565154 6:0.0 7:0.010277304792021406 8:-1.0 9:-1.0 10:0.0 11:0.5714285714285714 12:0.42857142857142855 13:0.663359349072067 
1.0 1:1.0 2:-1.0 3:-1.0 4:-1.0 5:0.64771277565154 6:0.0072974945268791044 7:0.011980053514959864 8:1.0 9:-1.0 10:0.0 11:0.6744186046511628 12:0.32558139534883723 13:0.7358097671576858 
1.0 1:1.0 2:-1.0 3:-1.0 4:-1.0 5:0.023084867262013243 6:1.8243736317197763E-4 7:3.6487472634395525E-4 8:-1.0 9:-1.0 10:0.0 11:0.058823529411764705 12:0.9411764705882353 13:0.8826549667430815 
1.0 1:1.0 2:-1.0 3:-1.0 4:-1.0 5:0.023084867262013243 6:3.0406227195329605E-4 7:0.0010338117246412066 8:-1.0 9:-1.0 10:0.0 11:0.0 12:0.0 13:0.023110004696061875 
1.0 1:1.0 2:-1.0 3:-1.0 4:-1.0 5:0.64771277565154 6:6.081245439065921E-5 7:0.0 8:1.0 9:-1.0 10:0.0 11:0.010723860589812333 12:0.9892761394101877 13:1.1734975099355458 
1.0 1:1.0 2:-1.0 3:-1.0 4:-1.0 5:0.03450580159164085 6:0.003587934809048893 7:0.005290683531987351 8:1.0 9:-1.0 10:0.0 11:0.6714905933429812 12:0.32850940665701883 13:0.34477182218450264 
1.0 1:1.0 2:-1.0 3:-1.0 4:-1.0 5:0.64771277565154 6:0.0023108732668450497 7:0.00918268061298954 8:1.0 9:-1.0 10:0.0 11:0.2848020434227331 12:0.7151979565772669 13:0.7777288367810742 
1.0 1:1.0 2:-1.0 3:-1.0 4:-1.0 5:0.64771277565154 6:0.0020068109948917535 7:0.00997324252006811 8:1.0 9:-1.0 10:0.0 11:0.665929203539823 12:0.334070796460177 13:0.7278498024650384 
1.0 1:1.0 2:-1.0 3:-1.0 4:-1.0 5:0.64771277565154 6:0.004378496716127463 7:0.0012770615422038434 8:-1.0 9:-1.0 10:0.0 11:0.3793103448275862 12:0.6206896551724138 13:0.6912428034521897 
1.0 1:1.0 2:-1.0 3:-1.0 4:-1.0 5:0.64771277565154 6:0.003952809535392849 7:0.014838238871320847 8:-1.0 9:-1.0 10:0.0 11:0.5636363636363636 12:0.43636363636363634 13:0.6602772030637478 
1.0 1:1.0 2:-1.0 3:-1.0 4:-1.0 5:0.023084867262013243 6:0.0 7:1.8243736317197763E-4 8:-1.0 9:-1.0 10:0.0 11:0.0 12:0.0 13:0.023085588142740743 
1.0 1:1.0 2:-1.0 3:-1.0 4:-1.0 5:0.64771277565154 6:0.005229871077596692 7:0.011675991243006566 8:1.0 9:-1.0 10:0.0 11:0.717948717948718 12:0.28205128205128205 13:0.7808342299663716 
1.0 1:1.0 2:-1.0 3:-1.0 4:-1.0 5:0.64771277565154 6:0.005716370712721966 7:0.002736560447579664 8:1.0 9:-1.0 10:0.0 11:0.4727272727272727 12:0.5272727272727272 13:0.6500363159170424 
1.0 1:1.0 2:-1.0 3:-1.0 4:-1.0 5:0.64771277565154 6:1.8243736317197763E-4 7:0.011311116516662612 8:-1.0 9:-1.0 10:0.0 11:0.4225352112676056 12:0.5774647887323944 13:0.6660803167455747 
1.0 1:1.0 2:-1.0 3:-1.0 4:-1.0 5:0.64771277565154 6:0.0 7:1.2162490878131841E-4 8:1.0 9:-1.0 10:0.0 11:0.17567567567567569 12:0.8243243243243243 13:0.9166662009306107 
1.0 1:1.0 2:-1.0 3:-1.0 4:-1.0 5:0.017192151145130917 6:1.8243736317197763E-4 7:0.0013986864509851617 8:1.0 9:-1.0 10:0.0 11:0.07692307692307693 12:0.9230769230769231 13:0.8463296586018498 
1.0 1:1.0 2:-1.0 3:-1.0 4:-1.0 5:0.64771277565154 6:0.006385307711019217 7:0.0021284359036730723 8:1.0 9:-1.0 10:0.0 11:0.47802197802197804 12:0.521978021978022 13:0.6492374572808074 
1.0 1:1.0 2:-1.0 3:-1.0 4:-1.0 5:0.64771277565154 6:0.004439309170518122 7:0.006081245439065921 8:1.0 9:-1.0 10:0.0 11:0.1617842876165113 12:0.8382157123834887 13:0.936561797836377 
1.0 1:1.0 2:-1.0 3:-1.0 4:-1.0 5:0.64771277565154 6:0.004621746533690099 7:0.00997324252006811 8:1.0 9:-1.0 10:0.0 11:0.26962699822380104 12:0.7303730017761989 13:0.7949462533021425 
1.0 1:1.0 2:-1.0 3:-1.0 4:-1.0 5:0.64771277565154 6:0.0032838725370955973 7:0.014899051325711506 8:1.0 9:-1.0 10:0.0 11:0.6 12:0.4 13:0.678059440824673 
1.0 1:1.0 2:-1.0 3:-1.0 4:-1.0 5:0.64771277565154 6:0.013621989783507663 7:0.014838238871320847 8:1.0 9:-1.0 10:0.0 11:0.5359003397508494 12:0.4640996602491506 13:0.6519914947739672 
1.0 1:1.0 2:-1.0 3:-1.0 4:-1.0 5:0.64771277565154 6:0.0065069326198005355 7:0.0027365604475796646 8:-1.0 9:-1.0 10:0.0 11:0.5364963503649635 12:0.4635036496350365 13:0.6518509055276925 
1.0 1:1.0 2:-1.0 3:-1.0 4:-1.0 5:0.64771277565154 6:0.006750182437363172 7:0.006324495256628558 8:1.0 9:-1.0 10:0.0 11:0.656984785615491 12:0.343015214384509 13:0.719857135551477 
1.0 1:1.0 2:-1.0 3:-1.0 4:-1.0 5:0.64771277565154 6:0.005594745803940647 7:0.0023716857212357093 8:1.0 9:-1.0 10:0.0 11:0.7338709677419355 12:0.2661290322580645 13:0.7989688880214241 
1.0 1:1.0 2:-1.0 3:-1.0 4:-1.0 5:0.64771277565154 6:0.002675747993189005 7:0.0035879348090488935 8:-1.0 9:-1.0 10:0.0 11:0.5031446540880503 12:0.4968553459119497 13:0.6477587730344323 
1.0 1:1.0 2:-1.0 3:-1.0 4:-1.0 5:0.64771277565154 6:0.0031622476283142786 7:0.002918997810751642 8:1.0 9:-1.0 10:0.0 11:0.22911877394636015 12:0.7708812260536398 13:0.8444269741154629 
1.0 1:1.0 2:-1.0 3:-1.0 4:-1.0 5:0.64771277565154 6:0.003952809535392849 7:0.00912186815859888 8:1.0 9:-1.0 10:0.0 11:0.48743424897720633 12:0.5125657510227937 13:0.648276380349628 
1.0 1:1.0 2:-1.0 3:-1.0 4:-1.0 5:0.023084867262013243 6:6.081245439065921E-5 7:6.081245439065921E-4 8:-1.0 9:-1.0 10:0.0 11:0.0 12:0.0 13:0.0230929558549849 
1.0 1:1.0 2:-1.0 3:-1.0 4:-1.0 5:0.64771277565154 6:0.006446120165409876 7:0.0055339333495499875 8:1.0 9:-1.0 10:0.0 11:0.6788321167883211 12:0.32116788321167883 13:0.7399511609597577 
1.0 1:1.0 2:-1.0 3:-1.0 4:-1.0 5:0.64771277565154 6:8.513743614692289E-4 7:0.015811238141571395 8:-1.0 9:-1.0 10:0.0 11:0.47619047619047616 12:0.5238095238095238 13:0.649653856702352 
1.0 1:1.0 2:-1.0 3:-1.0 4:-1.0 5:0.64771277565154 6:0.0037095597178302114 7:0.0021284359036730723 8:-1.0 9:-1.0 10:0.0 11:0.5588235294117647 12:0.4411764705882353 13:0.6583243587053006 
1.0 1:1.0 2:-1.0 3:-1.0 4:-1.0 5:0.64771277565154 6:0.00231087326684505 7:0.008331306251520312 8:-1.0 9:-1.0 10:0.0 11:0.49264705882352944 12:0.5073529411764706 13:0.6479373839477953 
1.0 1:1.0 2:-1.0 3:-1.0 4:-1.0 5:6.074965068950854E-4 6:0.01842617368036974 7:0.03806859644855266 8:1.0 9:-1.0 10:0.0 11:0.5339506172839507 12:0.4660493827160494 13:0.07999805385078405 
1.0 1:1.0 2:-1.0 3:-1.0 4:-1.0 5:0.64771277565154 6:0.016480175139868644 7:0.0247506689369983 8:1.0 9:1.0 10:0.0 11:0.3876040703052729 12:0.6123959296947271 13:0.6862560830881281 
1.0 1:1.0 2:-1.0 3:-1.0 4:-1.0 5:0.64771277565154 6:0.009486742884942837 7:0.006446120165409876 8:1.0 9:-1.0 10:0.0 11:0.20258064516129032 12:0.7974193548387096 13:0.8794864871211331 
1.0 1:1.0 2:-1.0 3:-1.0 4:-1.0 5:0.64771277565154 6:0.010946241790318657 7:0.00918268061298954 8:1.0 9:-1.0 10:0.0 11:0.7306397306397306 12:0.26936026936026936 13:0.7953079422293382 
1.0 1:1.0 2:-1.0 3:-1.0 4:-1.0 5:0.64771277565154 6:0.015567988324008757 7:0.010581367063974702 8:-1.0 9:-1.0 10:0.0 11:0.5691854759568205 12:0.4308145240431796 13:0.6625954177815512 
1.0 1:1.0 2:-1.0 3:-1.0 4:-1.0 5:0.64771277565154 6:0.007419119435660423 7:0.025419605935295547 8:1.0 9:-1.0 10:0.0 11:0.1328125 12:0.8671875 13:0.9795609629146766 
1.0 1:1.0 2:-1.0 3:-1.0 4:-1.0 5:0.64771277565154 6:5.473120895159329E-4 7:0.010277304792021406 8:1.0 9:-1.0 10:0.0 11:0.44871794871794873 12:0.5512820512820513 13:0.6558636728934705 
1.0 1:1.0 2:-1.0 3:-1.0 4:-1.0 5:0.64771277565154 6:0.004074434444174167 7:0.001763561177329117 8:1.0 9:-1.0 10:0.0 11:0.38461538461538464 12:0.6153846153846154 13:0.6876088923044195 
1.0 1:1.0 2:-1.0 3:-1.0 4:-1.0 5:0.64771277565154 6:0.008270493797129653 7:0.0012770615422038434 8:-1.0 9:-1.0 10:0.0 11:0.3171339563862928 12:0.6828660436137072 13:0.7438829419497225 
1.0 1:1.0 2:-1.0 3:-1.0 4:-1.0 5:0.64771277565154 6:0.009304305521770858 7:0.011615178788615907 8:1.0 9:-1.0 10:0.0 11:0.5989104528430371 12:0.4010895471569629 13:0.6774115683601918 
1.0 1:1.0 2:-1.0 3:-1.0 4:-1.0 5:0.64771277565154 6:0.0034054974458769156 7:0.020432984675261494 8:1.0 9:-1.0 10:0.0 11:0.22765110387260223 12:0.7723488961273978 13:0.8465557447121034 
1.0 1:1.0 2:-1.0 3:-1.0 4:-1.0 5:0.64771277565154 6:0.0034054974458769156 7:0.002979810265142301 8:1.0 9:-1.0 10:0.0 11:0.714828897338403 12:0.28517110266159695 13:0.7772761008488738 
1.0 1:1.0 2:-1.0 3:-1.0 4:-1.0 5:0.03450580159164085 6:0.003770372172220871 7:0.006810994891753831 8:1.0 9:-1.0 10:0.0 11:0.18839200761179828 12:0.8116079923882017 13:0.6242190475963038 
1.0 1:1.0 2:-1.0 3:-1.0 4:-1.0 5:0.64771277565154 6:0.0012770615422038434 7:0.0012770615422038434 8:1.0 9:-1.0 10:0.0 11:0.2711864406779661 12:0.7288135593220338 13:0.7930685224071492 
1.0 1:1.0 2:-1.0 3:-1.0 4:-1.0 5:0.64771277565154 6:0.004682558988080759 7:0.018791048406713695 8:1.0 9:-1.0 10:0.0 11:0.5489690721649485 12:0.45103092783505155 13:0.6553615412243124 
1.0 1:1.0 2:-1.0 3:-1.0 4:-1.0 5:0.64771277565154 6:0.0029189978107516416 7:5.473120895159329E-4 8:-1.0 9:-1.0 10:0.0 11:0.34831460674157305 12:0.651685393258427 13:0.7152443596092312 
1.0 1:1.0 2:-1.0 3:-1.0 4:-1.0 5:0.64771277565154 6:0.00456093407929944 7:0.009547555339333496 8:1.0 9:-1.0 10:0.0 11:0.6606060606060606 12:0.3393939393939394 13:0.7230636379243849 
1.0 1:1.0 2:-1.0 3:-1.0 4:-1.0 5:0.64771277565154 6:0.004986621260034055 7:0.005898808075893943 8:-1.0 9:-1.0 10:0.0 11:0.25 12:0.75 13:0.8182857093158412 
1.0 1:1.0 2:-1.0 3:-1.0 4:-1.0 5:0.023084867262013243 6:6.081245439065921E-5 7:0.0 8:-1.0 9:-1.0 10:0.0 11:0.0 12:0.0 13:0.02308494736098352 
1.0 1:1.0 2:-1.0 3:-1.0 4:-1.0 5:0.023084867262013243 6:0.0 7:1.2162490878131841E-4 8:-1.0 9:-1.0 10:0.0 11:0.0 12:0.0 13:0.023085187656226813 
1.0 1:1.0 2:-1.0 3:-1.0 4:-1.0 5:0.64771277565154 6:0.0032230600827049378 7:0.012892240330819751 8:-1.0 9:-1.0 10:0.0 11:0.45226130653266333 12:0.5477386934673367 13:0.6548468287585577 
1.0 1:1.0 2:-1.0 3:-1.0 4:-1.0 5:0.64771277565154 6:7.297494526879105E-4 7:0.006324495256628558 8:1.0 9:-1.0 10:0.0 11:0.6374269005847953 12:0.36257309941520466 13:0.7036454956397503 
1.0 1:1.0 2:-1.0 3:-1.0 4:-1.0 5:0.64771277565154 6:0.008635368523473607 7:0.026757479931890052 8:1.0 9:-1.0 10:0.0 11:0.714765100671141 12:0.28523489932885904 13:0.7777008203218029 
1.0 1:1.0 2:-1.0 3:-1.0 4:-1.0 5:0.64771277565154 6:0.0034663099002675748 7:6.689369982972513E-4 8:-1.0 9:-1.0 10:0.0 11:0.4961832061068702 12:0.5038167938931297 13:0.6477673765988412 
1.0 1:1.0 2:-1.0 3:-1.0 4:-1.0 5:0.64771277565154 6:0.004560934079299441 7:6.689369982972513E-4 8:-1.0 9:-1.0 10:0.0 11:0.5 12:0.5 13:0.6477291790081758 
1.0 1:1.0 2:-1.0 3:-1.0 4:-1.0 5:0.023084867262013243 6:4.2568718073461445E-4 7:6.081245439065921E-5 8:1.0 9:-1.0 10:0.0 11:0.0 12:0.0 13:0.023088871870128726 
1.0 1:1.0 2:-1.0 3:-1.0 4:-1.0 5:0.64771277565154 6:0.0012770615422038434 7:0.009608367793724154 8:1.0 9:-1.0 10:0.0 11:0.37789203084832906 12:0.622107969151671 13:0.6922912796514528 
1.0 1:1.0 2:-1.0 3:-1.0 4:-1.0 5:0.023084867262013243 6:6.081245439065921E-5 7:1.2162490878131841E-4 8:-1.0 9:-1.0 10:0.0 11:0.0 12:0.0 13:0.023085267754085415 
1.0 1:1.0 2:-1.0 3:-1.0 4:-1.0 5:0.64771277565154 6:0.0021284359036730723 7:4.8649963512527365E-4 8:1.0 9:-1.0 10:0.0 11:0.5515320334261838 12:0.44846796657381616 13:0.6558649316281993 
1.0 1:1.0 2:-1.0 3:-1.0 4:-1.0 5:0.64771277565154 6:0.00997324252006811 7:0.011128679153490636 8:1.0 9:-1.0 10:0.0 11:0.7143361581920904 12:0.2856638418079096 13:0.7768623479371791 
1.0 1:1.0 2:-1.0 3:-1.0 4:-1.0 5:0.64771277565154 6:0.008027243979567016 7:0.0042568718073461445 8:1.0 9:-1.0 10:0.0 11:0.6589403973509934 12:0.34105960264900664 13:0.7215695371799453 
1.0 1:1.0 2:-1.0 3:-1.0 4:-1.0 5:0.64771277565154 6:0.004135246898564826 7:0.028095353928484553 8:1.0 9:-1.0 10:0.0 11:0.6377473363774734 12:0.3622526636225266 13:0.7044399219506631 
1.0 1:1.0 2:-1.0 3:-1.0 4:-1.0 5:0.64771277565154 6:0.005229871077596692 7:0.004621746533690099 8:1.0 9:-1.0 10:0.0 11:0.6503531786074672 12:0.3496468213925328 13:0.7141462491004261 
1.0 1:1.0 2:-1.0 3:-1.0 4:-1.0 5:0.023084867262013243 6:4.2568718073461445E-4 7:0.0010946241790318657 8:-1.0 9:-1.0 10:0.0 11:0.5 12:0.5 13:0.023114724921009414 
1.0 1:1.0 2:-1.0 3:-1.0 4:-1.0 5:0.03450580159164085 6:0.027912916565312577 7:0.010094867428849429 8:1.0 9:-1.0 10:0.0 11:0.6568651881385497 12:0.3431348118614503 13:0.317014883880931 
1.0 1:1.0 2:-1.0 3:-1.0 4:-1.0 5:0.64771277565154 6:0.0 7:0.0 8:-1.0 9:-1.0 10:0.0 11:0.09302325581395349 12:0.9069767441860465 13:1.0402173431429227 
1.0 1:1.0 2:-1.0 3:-1.0 4:-1.0 5:0.64771277565154 6:0.0024933106300170276 7:0.0010946241790318657 8:-1.0 9:-1.0 10:0.0 11:0.3275862068965517 12:0.6724137931034483 13:0.7337883337526483 
1.0 1:1.0 2:-1.0 3:-1.0 4:-1.0 5:0.64771277565154 6:0.0038311846266115297 7:0.008088056433957675 8:-1.0 9:-1.0 10:0.0 11:0.5555555555555556 12:0.4444444444444444 13:0.6572348236262971 
1.0 1:1.0 2:-1.0 3:-1.0 4:-1.0 5:0.64771277565154 6:0.004500121624908781 7:0.005777183167112624 8:1.0 9:-1.0 10:0.0 11:0.09696969696969697 12:0.9030303030303031 13:1.0340788980174573 
1.0 1:1.0 2:-1.0 3:-1.0 4:-1.0 5:0.64771277565154 6:0.0021892483580637314 7:0.0015811238141571395 8:1.0 9:-1.0 10:0.0 11:0.7142857142857143 12:0.2857142857142857 13:0.7766676263955299 
1.0 1:1.0 2:-1.0 3:-1.0 4:-1.0 5:0.64771277565154 6:0.010581367063974702 7:0.006081245439065921 8:1.0 9:-1.0 10:0.0 11:0.5882352941176471 12:0.4117647058823529 13:0.6714332841983376 
1.0 1:1.0 2:-1.0 3:-1.0 4:-1.0 5:0.64771277565154 6:0.02304792021405984 7:0.025419605935295547 8:1.0 9:1.0 10:0.0 11:0.395979020979021 12:0.6040209790209791 13:0.6811685981020068 
1.0 1:1.0 2:-1.0 3:-1.0 4:-1.0 5:0.64771277565154 6:0.006263682802237898 7:0.01763561177329117 8:1.0 9:-1.0 10:0.0 11:0.014586709886547812 12:0.9854132901134521 13:1.167213064158448 
1.0 1:1.0 2:-1.0 3:-1.0 4:-1.0 5:0.64771277565154 6:0.0022500608124543906 7:0.004135246898564826 8:1.0 9:-1.0 10:0.0 11:0.27995642701525053 12:0.7200435729847494 13:0.783090479338354 
1.0 1:1.0 2:-1.0 3:-1.0 4:-1.0 5:0.64771277565154 6:0.010277304792021406 7:0.010946241790318658 8:1.0 9:-1.0 10:0.0 11:0.7065527065527065 12:0.2934472934472934 13:0.76838360555281 
1.0 1:1.0 2:-1.0 3:-1.0 4:-1.0 5:0.64771277565154 6:8.513743614692289E-4 7:1.8243736317197763E-4 8:-1.0 9:-1.0 10:0.0 11:0.3076923076923077 12:0.6923076923076923 13:0.753300465914337 
1.0 1:1.0 2:-1.0 3:-1.0 4:-1.0 5:0.64771277565154 6:0.0069326198005351496 7:0.008817805886645585 8:1.0 9:-1.0 10:0.0 11:0.5301204819277109 12:0.46987951807228917 13:0.650604817371041 
