svm_type c_svc
kernel_type rbf
gamma 0.0769231
nr_class 2
total_sv 1746
rho 2.0276
label 1 -1
nr_sv 873 873
SV
1 1:1 2:-1 3:-1 4:-1 5:0.64771278 6:0.0039528095 7:0.00036487473 8:1 9:-1 10:0 11:0.26143791 12:0.73856209 13:0.80448436 
1 1:1 2:-1 3:-1 4:-1 5:0.64771278 6:0.011797616 7:0.037703722 8:1 9:-1 10:0 11:0.56308101 12:0.43691899 13:0.6610669 
1 1:1 2:-1 3:-1 4:-1 5:0.64771278 6:0.024446607 7:0.025054731 8:-1 9:-1 10:0 11:0.55879968 12:0.44120032 13:0.659232 
1 1:1 2:-1 3:-1 4:-1 5:0.64771278 6:0.012648991 7:0.013074678 8:1 9:-1 10:0 11:0.65148515 12:0.34851485 13:0.71529979 
1 1:1 2:-1 3:-1 4:-1 5:0.64771278 6:0.0012770615 7:0.000668937 8:1 9:-1 10:0 11:0.075251509 12:0.92474849 13:1.0682598 
1 1:1 2:-1 3:-1 4:-1 5:0.64771278 6:0.011797616 7:0.0071150572 8:1 9:-1 10:0 11:0.63851351 12:0.36148649 13:0.70460317 
1 1:1 2:-1 3:-1 4:-1 5:0.64771278 6:0.019459985 7:0.0059596205 8:1 9:-1 10:0 11:0.55211268 12:0.44788732 13:0.6563604 
1 1:1 2:-1 3:-1 4:-1 5:0.034505802 6:0.0010338117 7:0.0030406227 8:1 9:-1 10:0 11:0.66477273 12:0.33522727 13:0.3313626 
1 1:1 2:-1 3:-1 4:-1 5:0.64771278 6:0.0093043055 7:0.012040866 8:1 9:-1 10:0 11:0.6107056 12:0.3892944 13:0.68467971 
1 1:1 2:-1 3:-1 4:-1 5:0.64771278 6:0.00030406227 7:0.00030406227 8:1 9:-1 10:0 11:0.51111111 12:0.48888889 13:0.64809401 
1 1:1 2:-1 3:-1 4:-1 5:0.64771278 6:0.0021892484 7:0.0040744344 8:1 9:-1 10:0 11:0.65346535 12:0.34653465 13:0.71677031 
1 1:1 2:-1 3:-1 4:-1 5:0.034505802 6:0.006020433 7:0.032169788 8:-1 9:-1 10:0 11:0.4076087 12:0.5923913 13:0.19080462 
1 1:1 2:-1 3:-1 4:-1 5:0.64771278 6:0.014655802 7:0.032656288 8:1 9:1 10:0 11:0.3869637 12:0.6130363 13:0.68696571 
1 1:1 2:-1 3:-1 4:-1 5:0.64771278 6:0.0043176843 7:0.021710046 8:1 9:-1 10:0 11:0.10650888 12:0.89349112 13:1.0194915 
1 1:1 2:-1 3:-1 4:-1 5:0.64771278 6:0.0032230601 7:0.00048649964 8:-1 9:-1 10:0 11:0.41509434 12:0.58490566 13:0.6696106 
1 1:1 2:-1 3:-1 4:-1 5:0.64771278 6:0.002006811 7:0.0032230601 8:-1 9:-1 10:0 11:0.43478261 12:0.56521739 13:0.66072648 
1 1:1 2:-1 3:-1 4:-1 5:0.64771278 6:0.0043176843 7:0.0029798103 8:-1 9:-1 10:0 11:0.48 12:0.52 13:0.64896792 
1 1:1 2:-1 3:-1 4:-1 5:0.64771278 6:0.002006811 7:0.0035879348 8:1 9:-1 10:0 11:0.48648649 12:0.51351351 13:0.64828944 
1 1:1 2:-1 3:-1 4:-1 5:0.64771278 6:0.0069934323 7:0.0028581854 8:1 9:-1 10:0 11:0.18972332 12:0.81027668 13:0.89703701 
1 1:1 2:-1 3:-1 4:-1 5:0.034505802 6:0.0016419363 7:0.015385551 8:1 9:-1 10:0 11:0.3627907 12:0.6372093 13:0.27701197 
1 1:1 2:-1 3:-1 4:-1 5:0.034505802 6:0.0041352469 7:0.037521284 8:1 9:-1 10:0 11:0.29036827 12:0.70963173 13:0.42237121 
1 1:1 2:-1 3:-1 4:-1 5:0.64771278 6:0.0022500608 7:0.011919241 8:-1 9:-1 10:0 11:0.3 12:0.7 13:0.76136652 
1 1:1 2:-1 3:-1 4:-1 5:0.64771278 6:0.01289224 7:0.0078448066 8:1 9:-1 10:0 11:0.71598639 12:0.28401361 13:0.77869126 
1 1:1 2:-1 3:-1 4:-1 5:0.64771278 6:0.0010946242 7:0.00054731209 8:1 9:-1 10:0 11:0.69642857 12:0.30357143 13:0.75754213 
1 1:1 2:-1 3:-1 4:-1 5:0.64771278 6:0.0024933106 7:0.031500851 8:-1 9:-1 10:0 11:0.52631579 12:0.47368421 13:0.65061543 
1 1:1 2:-1 3:-1 4:-1 5:0.64771278 6:0.044514717 7:0.022622233 8:-1 9:-1 10:0 11:0.56946108 12:0.43053892 13:0.66432261 
1 1:1 2:-1 3:-1 4:-1 5:0.64771278 6:0.0016419363 7:0.027912917 8:-1 9:-1 10:0 11:0.50509165 12:0.49490835 13:0.64839599 
1 1:1 2:-1 3:-1 4:-1 5:0.64771278 6:0.0041960594 7:0.014594989 8:1 9:-1 10:0 11:0.40811258 12:0.59188742 13:0.67345056 
1 1:1 2:-1 3:-1 4:-1 5:0.64771278 6:0.0027365604 7:0.0030406227 8:1 9:-1 10:0 11:0.22743682 12:0.77256318 13:0.84658804 
1 1:1 2:-1 3:-1 4:-1 5:0.64771278 6:0.0021892484 7:0.00072974945 8:1 9:-1 10:0 11:0.34228188 12:0.65771812 13:0.72044236 
1 1:1 2:-1 3:-1 4:-1 5:0.64771278 6:0.00091218682 7:0.00060812454 8:1 9:-1 10:0 11:0.36164384 12:0.63835616 13:0.70434562 
1 1:1 2:-1 3:-1 4:-1 5:0.64771278 6:0.0036487473 7:0.003344685 8:1 9:-1 10:0 11:0.20689655 12:0.79310345 13:0.87361025 
1 1:1 2:-1 3:-1 4:-1 5:0.64771278 6:0.0027973729 7:0.0089394308 8:1 9:-1 10:0 11:0.65291262 12:0.34708738 13:0.71634395 
1 1:1 2:-1 3:-1 4:-1 5:0.64771278 6:0.00030406227 7:0.029068353 8:1 9:-1 10:0 11:0.60162602 12:0.39837398 13:0.67947648 
1 1:1 2:-1 3:-1 4:-1 5:0.64771278 6:0.0035271224 7:0.035636098 8:1 9:-1 10:0 11:0.6619898 12:0.3380102 13:0.72510481 
1 1:1 2:-1 3:-1 4:-1 5:0.034505802 6:0.01015568 7:0.0086353685 8:1 9:-1 10:0 11:0.4087057 12:0.5912943 13:0.18629802 
1 1:1 2:-1 3:-1 4:-1 5:0.64771278 6:0.0029189978 7:0.0094259304 8:-1 9:-1 10:0 11:0.037030145 12:0.96296985 13:1.1300414 
1 1:1 2:-1 3:-1 4:-1 5:0.64771278 6:0.0046217465 7:0.0058379956 8:1 9:-1 10:0 11:0.06097561 12:0.93902439 13:1.0911265 
1 1:1 2:-1 3:-1 4:-1 5:0.64771278 6:0.00030406227 7:0.0015811238 8:-1 9:-1 10:0 11:0.1025641 12:0.8974359 13:1.0253563 
1 1:1 2:-1 3:-1 4:-1 5:0.64771278 6:0.002675748 7:0.0011554366 8:1 9:-1 10:0 11:0.62612613 12:0.37387387 13:0.69510541 
1 1:1 2:-1 3:-1 4:-1 5:0.64771278 6:0.0079056191 7:0.040257845 8:1 9:-1 10:0 11:0.475 12:0.525 13:0.65093397 
1 1:1 2:-1 3:-1 4:-1 5:0.64771278 6:0.0029798103 7:0.016480175 8:-1 9:-1 10:0 11:0.53307393 12:0.46692607 13:0.65129706 
1 1:1 2:-1 3:-1 4:-1 5:0.64771278 6:0.0030406227 7:0.013439552 8:1 9:-1 10:0 11:0.65370138 12:0.34629862 13:0.71709007 
1 1:1 2:-1 3:-1 4:-1 5:0.64771278 6:0.0069934323 7:0.0049258088 8:-1 9:-1 10:0 11:0.40106952 12:0.59893048 13:0.67731379 
1 1:1 2:-1 3:-1 4:-1 5:0.64771278 6:0.043298468 7:0.016540988 8:-1 9:-1 10:0 11:0.56883421 12:0.43116579 13:0.66380177 
1 1:1 2:-1 3:-1 4:-1 5:0.64771278 6:0.0037703722 7:0.0041352469 8:-1 9:-1 10:0 11:0.031484258 12:0.96851574 13:1.1391186 
1 1:1 2:-1 3:-1 4:-1 5:0.64771278 6:0.001337874 7:0.045244466 8:-1 9:-1 10:0 11:0.53061224 12:0.46938776 13:0.65217262 
1 1:1 2:-1 3:-1 4:-1 5:0.64771278 6:0.013196303 7:0.0042568718 8:-1 9:-1 10:0 11:0.12 12:0.88 13:0.99866116 
1 1:1 2:-1 3:-1 4:-1 5:0.64771278 6:0.0054123084 7:0.018304549 8:1 9:-1 10:0 11:0.59937888 12:0.40062112 13:0.67779115 
1 1:1 2:-1 3:-1 4:-1 5:0.64771278 6:0.014655802 7:0.0031622476 8:-1 9:-1 10:0 11:0.5439178 12:0.4560822 13:0.65381322 
1 1:1 2:-1 3:-1 4:-1 5:0.64771278 6:0.00072974945 7:0.025784481 8:-1 9:-1 10:0 11:0.16340721 12:0.83659279 13:0.93454589 
1 1:1 2:-1 3:-1 4:-1 5:0.64771278 6:0.058197519 7:0.011736804 8:-1 9:-1 10:0 11:0.56939676 12:0.43060324 13:0.66507156 
1 1:1 2:-1 3:-1 4:-1 5:0.034505802 6:0.0085745561 7:0.013500365 8:1 9:-1 10:0 11:0.28820375 12:0.71179625 13:0.42529641 
1 1:1 2:-1 3:-1 4:-1 5:0.64771278 6:0.0032838725 7:0.0036487473 8:1 9:-1 10:0 11:0.49394813 12:0.50605187 13:0.64784445 
1 1:1 2:-1 3:-1 4:-1 5:0.64771278 6:0.0029189978 7:0.0055947458 8:-1 9:-1 10:0 11:0.41304348 12:0.58695652 13:0.67068428 
1 1:1 2:-1 3:-1 4:-1 5:0.034505802 6:0.0010946242 7:0.0011554366 8:1 9:-1 10:0 11:0.37142857 12:0.62857143 13:0.25945256 
1 1:1 2:-1 3:-1 4:-1 5:0.64771278 6:0.0015203114 7:0.0095475553 8:1 9:-1 10:0 11:0.59776536 12:0.40223464 13:0.67665174 
1 1:1 2:-1 3:-1 4:-1 5:0.023084867 6:0.00042568718 7:6.0812454e-05 8:-1 9:-1 10:0 11:0 12:0 13:0.023088872 
1 1:1 2:-1 3:-1 4:-1 5:0.64771278 6:0.0090002432 7:0.010581367 8:1 9:-1 10:0 11:0.38799414 12:0.61200586 13:0.68549694 
1 1:1 2:-1 3:-1 4:-1 5:0.64771278 6:0.0011554366 7:0.024811481 8:1 9:-1 10:0 11:0.06372549 12:0.93627451 13:1.0869639 
1 1:1 2:-1 3:-1 4:-1 5:0.64771278 6:0.0020676234 7:0.016784237 8:1 9:-1 10:0 11:0.69662921 12:0.30337079 13:0.757938 
1 1:1 2:-1 3:-1 4:-1 5:0.64771278 6:0.0049866213 7:0.015872051 8:-1 9:-1 10:0 11:0.20833333 12:0.79166667 13:0.87182934 
1 1:1 2:-1 3:-1 4:-1 5:0.64771278 6:0.0038311846 7:0.002006811 8:-1 9:-1 10:0 11:0.52173913 12:0.47826087 13:0.6491848 
1 1:1 2:-1 3:-1 4:-1 5:0.64771278 6:0.0043784967 7:0.017392362 8:1 9:-1 10:0 11:0.03394222 12:0.96605778 13:1.1352061 
1 1:1 2:-1 3:-1 4:-1 5:0.64771278 6:0.00091218682 7:0.0028581854 8:1 9:-1 10:0 11:0.078571429 12:0.92142857 13:1.0629906 
1 1:1 2:-1 3:-1 4:-1 5:0.64771278 6:0.0023108733 7:0.0018243736 8:1 9:-1 10:0 11:0.57142857 12:0.42857143 13:0.66328627 
1 1:1 2:-1 3:-1 4:-1 5:0.64771278 6:0.011067867 7:0.0095475553 8:1 9:-1 10:0 11:0.73710277 12:0.26289723 13:0.80288005 
1 1:1 2:-1 3:-1 4:-1 5:0.64771278 6:0.003344685 7:0.022318171 8:-1 9:-1 10:0 11:0.49065421 12:0.50934579 13:0.64837528 
1 1:1 2:-1 3:-1 4:-1 5:0.64771278 6:0.0034054974 7:0.00036487473 8:1 9:-1 10:0 11:0.46892655 12:0.53107345 13:0.6506964 
1 1:1 2:-1 3:-1 4:-1 5:0.64771278 6:0.00024324982 7:0.02304792 8:-1 9:-1 10:0 11:0.5 12:0.5 13:0.64812275 
1 1:1 2:-1 3:-1 4:-1 5:0.64771278 6:0.0064461202 7:0.00036487473 8:-1 9:-1 10:0 11:0.33333333 12:0.66666667 13:0.72848105 
1 1:1 2:-1 3:-1 4:-1 5:0.64771278 6:0.0048649964 7:0.027608854 8:1 9:-1 10:0 11:0.50279018 12:0.49720982 13:0.64834319 
1 1:1 2:-1 3:-1 4:-1 5:0.64771278 6:0.014534177 7:0.012709803 8:1 9:-1 10:0 11:0.60762608 12:0.39237392 13:0.68281631 
1 1:1 2:-1 3:-1 4:-1 5:0.64771278 6:0.011858429 7:0.038980783 8:1 9:-1 10:0 11:0.63829787 12:0.36170213 13:0.70547655 
1 1:1 2:-1 3:-1 4:-1 5:0.034505802 6:0.0014594989 7:0.0051690586 8:1 9:-1 10:0 11:0.60891089 12:0.39108911 13:0.22060333 
1 1:1 2:-1 3:-1 4:-1 5:0.64771278 6:0.00030406227 7:0.00054731209 8:1 9:-1 10:0 11:0.66304348 12:0.33695652 13:0.72516545 
1 1:1 2:-1 3:-1 4:-1 5:0.64771278 6:0.0060812454 7:0.0092434931 8:-1 9:-1 10:0 11:0.4610951 12:0.5389049 13:0.65246351 
1 1:1 2:-1 3:-1 4:-1 5:0.034505802 6:0.0035879348 7:0.0014594989 8:1 9:-1 10:0 11:0.61381074 12:0.38618926 13:0.23025463 
1 1:1 2:-1 3:-1 4:-1 5:0.64771278 6:0.0083921187 7:0.0052906835 8:1 9:-1 10:0 11:0.025666478 12:0.97433352 13:1.1487382 
1 1:1 2:-1 3:-1 4:-1 5:0.64771278 6:0.001337874 7:0.0021284359 8:1 9:-1 10:0 11:0.45390071 12:0.54609929 13:0.6542467 
1 1:1 2:-1 3:-1 4:-1 5:0.023084867 6:6.0812454e-05 7:0.00012162491 8:1 9:-1 10:0 11:0 12:1 13:1.0002664 
1 1:1 2:-1 3:-1 4:-1 5:0.0055282182 6:0.0018851861 7:0.0017027487 8:1 9:-1 10:0 11:0.75921909 12:0.24078091 13:0.51847387 
1 1:1 2:-1 3:-1 4:-1 5:0.023084867 6:0 7:0.00024324982 8:1 9:-1 10:0 11:0 12:0 13:0.023086149 
1 1:1 2:-1 3:-1 4:-1 5:0.023084867 6:0.00012162491 7:0.00042568718 8:-1 9:-1 10:0 11:0 12:0 13:0.023089112 
1 1:1 2:-1 3:-1 4:-1 5:0.023084867 6:0.00042568718 7:0 8:-1 9:-1 10:0 11:0 12:0 13:0.023088792 
1 1:1 2:-1 3:-1 4:-1 5:0.64771278 6:0.014594989 7:0.016236925 8:1 9:-1 10:0 11:0.6 12:0.4 13:0.67823926 
1 1:1 2:-1 3:-1 4:-1 5:0.64771278 6:0.0013986865 7:0.002675748 8:1 9:-1 10:0 11:0.32569975 12:0.67430025 13:0.73557003 
1 1:1 2:-1 3:-1 4:-1 5:0.64771278 6:0.043480905 7:0.018122111 8:-1 9:-1 10:0 11:0.5625 12:0.4375 13:0.66134396 
1 1:1 2:-1 3:-1 4:-1 5:0.64771278 6:0.0048649964 7:0.0035879348 8:1 9:-1 10:0 11:0.12437811 12:0.87562189 13:0.99193528 
1 1:1 2:-1 3:-1 4:-1 5:0.64771278 6:0.0066285575 7:0.0023108733 8:1 9:-1 10:0 11:0.73469388 12:0.26530612 13:0.79994124 
1 1:1 2:-1 3:-1 4:-1 5:0.64771278 6:0.0035271224 7:0.028521041 8:1 9:-1 10:0 11:0.21481481 12:0.78518519 13:0.8635277 
1 1:1 2:-1 3:-1 4:-1 5:0.64771278 6:0.0048041839 7:0.0070542447 8:1 9:-1 10:0 11:0.4260355 12:0.5739645 13:0.66444538 
1 1:1 2:-1 3:-1 4:-1 5:0.64771278 6:0.008027244 7:0.0022500608 8:-1 9:-1 10:0 11:0.35714286 12:0.64285714 13:0.70797881 
1 1:1 2:-1 3:-1 4:-1 5:0.64771278 6:0.0025541231 7:0.00012162491 8:1 9:1 10:0 11:0.0062841016 12:0.9937159 13:1.1809149 
1 1:1 2:-1 3:-1 4:-1 5:0.64771278 6:0.050778399 7:0.018000486 8:-1 9:-1 10:0 11:0.56946108 12:0.43053892 13:0.66463048 
1 1:1 2:-1 3:-1 4:-1 5:0.64771278 6:0.0015203114 7:0.00079056191 8:1 9:-1 10:0 11:0.2244898 12:0.7755102 13:0.85038713 
1 1:1 2:-1 3:-1 4:-1 5:0.64771278 6:0.028095354 7:0.047555339 8:1 9:1 10:0 11:0.63844937 12:0.36155063 13:0.70658022 
1 1:1 2:-1 3:-1 4:-1 5:0.034505802 6:0.047798589 7:0.034115787 8:1 9:-1 10:0 11:0.59556494 12:0.40443506 13:0.20290361 
1 1:1 2:-1 3:-1 4:-1 5:0.64771278 6:0.018730236 7:0.014412552 8:1 9:1 10:0 11:0.78676259 12:0.21323741 13:0.86546029 
1 1:1 2:-1 3:-1 4:-1 5:0.017192151 6:0.00042568718 7:0 8:1 9:-1 10:0 11:0.074074074 12:0.92592593 13:0.85202543 
1 1:1 2:-1 3:-1 4:-1 5:0.64771278 6:0.0015203114 7:0.003344685 8:-1 9:-1 10:0 11:0.35714286 12:0.64285714 13:0.70793926 
1 1:1 2:-1 3:-1 4:-1 5:0.64771278 6:0.0027973729 7:0.0025541231 8:1 9:-1 10:0 11:0.56811594 12:0.43188406 13:0.66189524 
1 1:1 2:-1 3:-1 4:-1 5:0.64771278 6:0.0088786183 7:0.0055339333 8:-1 9:-1 10:0 11:0.55882353 12:0.44117647 13:0.65839359 
1 1:1 2:-1 3:-1 4:-1 5:0.64771278 6:0.004682559 7:0.0039528095 8:1 9:-1 10:0 11:0.70598007 12:0.29401993 13:0.7676461 
1 1:1 2:-1 3:-1 4:-1 5:0.034505802 6:0.0062636828 7:0.0049866213 8:1 9:-1 10:0 11:0.64085882 12:0.35914118 13:0.28393586 
1 1:1 2:-1 3:-1 4:-1 5:0.034505802 6:0.033264413 7:0.045730966 8:1 9:-1 10:0 11:0.7493313 12:0.2506687 13:0.50304361 
1 1:1 2:-1 3:-1 4:-1 5:0.64771278 6:0.0027365604 7:0.0013986865 8:1 9:-1 10:0 11:0.010379652 12:0.98962035 13:1.1740756 
1 1:1 2:-1 3:-1 4:-1 5:0.034505802 6:0.0086353685 7:0.0031622476 8:1 9:-1 10:0 11:0.60477612 12:0.39522388 13:0.21257319 
1 1:1 2:-1 3:-1 4:-1 5:0.64771278 6:0.0028581854 7:0.011919241 8:1 9:-1 10:0 11:0.41666667 12:0.58333333 13:0.6689244 
1 1:1 2:-1 3:-1 4:-1 5:0.023084867 6:0.00018243736 7:0.00012162491 8:1 9:-1 10:0 11:0 12:0 13:0.023085909 
1 1:1 2:-1 3:-1 4:-1 5:0.023084867 6:0.00012162491 7:0 8:1 9:-1 10:0 11:0 12:0 13:0.023085188 
1 1:1 2:-1 3:-1 4:-1 5:0.023084867 6:0 7:6.0812454e-05 8:-1 9:-1 10:0 11:0 12:0 13:0.023084947 
1 1:1 2:-1 3:-1 4:-1 5:0.64771278 6:0.0072974945 7:0.0017635612 8:1 9:-1 10:0 11:0.094256259 12:0.90574374 13:1.038316 
1 1:1 2:-1 3:-1 4:-1 5:0.64771278 6:0.00072974945 7:0.00012162491 8:1 9:-1 10:0 11:0.11015326 12:0.88984674 13:1.0136342 
1 1:1 2:-1 3:-1 4:-1 5:0.64771278 6:0.0024933106 7:0.037825347 8:1 9:-1 10:0 11:0.45825243 12:0.54174757 13:0.65417142 
1 1:1 2:-1 3:-1 4:-1 5:0.64771278 6:0.0015811238 7:0.009365118 8:1 9:-1 10:0 11:0.60185185 12:0.39814815 13:0.67905614 
1 1:1 2:-1 3:-1 4:-1 5:0.64771278 6:0.0025541231 7:0.014047677 8:1 9:-1 10:0 11:0.63917526 12:0.36082474 13:0.70513453 
1 1:1 2:-1 3:-1 4:-1 5:0.64771278 6:0.0025541231 7:0.0024933106 8:1 9:-1 10:0 11:0.60117734 12:0.39882266 13:0.6785956 
1 1:1 2:-1 3:-1 4:-1 5:0.64771278 6:0.013500365 7:0.027912917 8:-1 9:-1 10:0 11:0.56896552 12:0.43103448 13:0.66296169 
1 1:1 2:-1 3:-1 4:-1 5:0.023084867 6:0.00042568718 7:0.00012162491 8:-1 9:-1 10:0 11:0 12:0 13:0.023089112 
1 1:1 2:-1 3:-1 4:-1 5:0.64771278 6:0.009365118 7:0.011189492 8:1 9:-1 10:0 11:0.47899618 12:0.52100382 13:0.64923755 
1 1:1 2:-1 3:-1 4:-1 5:0.64771278 6:0.0064461202 7:0.013439552 8:1 9:-1 10:0 11:0.56351792 12:0.43648208 13:0.66022126 
1 1:1 2:-1 3:-1 4:-1 5:0.64771278 6:0.0061420579 7:0.0045609341 8:-1 9:-1 10:0 11:0.37878788 12:0.62121212 13:0.69163566 
1 1:1 2:-1 3:-1 4:-1 5:0.64771278 6:0.00085137436 7:0.0041960594 8:1 9:-1 10:0 11:0.56578947 12:0.43421053 13:0.66095627 
1 1:1 2:-1 3:-1 4:-1 5:0.64771278 6:0.0010338117 7:0.026331793 8:1 9:-1 10:0 11:0.6 12:0.4 13:0.67839979 
1 1:1 2:-1 3:-1 4:-1 5:0.64771278 6:0.0076015568 7:0.010277305 8:1 9:-1 10:0 11:0.6038961 12:0.3961039 13:0.68034759 
1 1:1 2:-1 3:-1 4:-1 5:0.64771278 6:0.01015568 7:0.018182924 8:-1 9:-1 10:0 11:0.30760948 12:0.69239052 13:0.75367238 
1 1:1 2:-1 3:-1 4:-1 5:0.023084867 6:0.00018243736 7:0 8:1 9:-1 10:0 11:0 12:1 13:1.0002664 
1 1:1 2:-1 3:-1 4:-1 5:0.023084867 6:0.00012162491 7:0.00030406227 8:-1 9:-1 10:0 11:0 12:1 13:1.0002665 
1 1:1 2:-1 3:-1 4:-1 5:0.64771278 6:0.0017635612 7:0.0099124301 8:-1 9:-1 10:0 11:0.4168798 12:0.5831202 13:0.66878179 
1 1:1 2:-1 3:-1 4:-1 5:0.64771278 6:0.014594989 7:0.0099732425 8:1 9:1 10:0 11:0.41005291 12:0.58994709 13:0.67246281 
1 1:1 2:-1 3:-1 4:-1 5:0.034505802 6:0.018912673 7:0.018122111 8:1 9:-1 10:0 11:0.66948293 12:0.33051707 13:0.341723 
1 1:1 2:-1 3:-1 4:-1 5:0.64771278 6:0.0045001216 7:0.023716857 8:1 9:-1 10:0 11:0.61989796 12:0.38010204 13:0.69109816 
1 1:1 2:-1 3:-1 4:-1 5:0.64771278 6:0.00072974945 7:0.0010946242 8:1 9:-1 10:0 11:0.031358885 12:0.96864111 13:1.1393119 
1 1:1 2:-1 3:-1 4:-1 5:0.64771278 6:0.0077231817 7:0.00072974945 8:1 9:-1 10:0 11:0.4893617 12:0.5106383 13:0.64810857 
1 1:1 2:-1 3:-1 4:-1 5:0.64771278 6:0.00668937 7:0.0050474337 8:1 9:-1 10:0 11:0.46831755 12:0.53168245 13:0.6508588 
1 1:1 2:-1 3:-1 4:-1 5:0.64771278 6:0.017696424 7:0.0025541231 8:1 9:-1 10:0 11:0.24029126 12:0.75970874 13:0.8304493 
1 1:1 2:-1 3:-1 4:-1 5:0.64771278 6:0.0012162491 7:0.0046217465 8:1 9:-1 10:0 11:0.27350427 12:0.72649573 13:0.79041504 
1 1:1 2:-1 3:-1 4:-1 5:0.64771278 6:0.0024933106 7:0.00091218682 8:1 9:-1 10:0 11:0.65591398 12:0.34408602 13:0.71887103 
1 1:1 2:-1 3:-1 4:-1 5:0.64771278 6:0.0090002432 7:0.0057163707 8:1 9:-1 10:0 11:0.41288068 12:0.58711932 13:0.67082384 
1 1:1 2:-1 3:-1 4:-1 5:0.64771278 6:0.0043784967 7:0.0021284359 8:1 9:-1 10:0 11:0.029717682 12:0.97028232 13:1.1420234 
1 1:1 2:-1 3:-1 4:-1 5:0.64771278 6:0.0023108733 7:0.0057163707 8:1 9:-1 10:0 11:0.57575758 12:0.42424242 13:0.6652268 
1 1:1 2:-1 3:-1 4:-1 5:0.64771278 6:0.0040744344 7:0.01362199 8:1 9:-1 10:0 11:0.32236842 12:0.67763158 13:0.73888153 
1 1:1 2:-1 3:-1 4:-1 5:0.034505802 6:0.050900024 7:0.041717344 8:1 9:-1 10:0 11:0.63432836 12:0.36567164 13:0.27874402 
1 1:1 2:-1 3:-1 4:-1 5:0.64771278 6:0.014655802 7:0.0085137436 8:1 9:-1 10:0 11:0.65306122 12:0.34693878 13:0.71661012 
1 1:1 2:-1 3:-1 4:-1 5:0.64771278 6:0.0045609341 7:0.010702992 8:1 9:-1 10:0 11:0.56653992 12:0.43346008 13:0.66134518 
1 1:1 2:-1 3:-1 4:-1 5:0.64771278 6:0.0028581854 7:0.0036487473 8:-1 9:-1 10:0 11:0.57142857 12:0.42857143 13:0.66329593 
1 1:1 2:-1 3:-1 4:-1 5:0.64771278 6:0.0018243736 7:0.00072974945 8:1 9:-1 10:0 11:0.35207101 12:0.64792899 13:0.71208683 
1 1:1 2:-1 3:-1 4:-1 5:0.64771278 6:0.043237655 7:0.0099732425 8:1 9:-1 10:0 11:0.55111111 12:0.44888889 13:0.65722917 
1 1:1 2:-1 3:-1 4:-1 5:0.64771278 6:0.012405741 7:0.0065069326 8:1 9:-1 10:0 11:0.73656846 12:0.26343154 13:0.80223851 
1 1:1 2:-1 3:-1 4:-1 5:0.64771278 6:0.0016419363 7:0.0017027487 8:1 9:-1 10:0 11:0.67630058 12:0.32369942 13:0.73747204 
1 1:1 2:-1 3:-1 4:-1 5:0.64771278 6:0.0017635612 7:0.015567988 8:-1 9:-1 10:0 11:0.5047619 12:0.4952381 13:0.64797223 
1 1:1 2:-1 3:-1 4:-1 5:0.64771278 6:0.016723425 7:0.00072974945 8:-1 9:-1 10:0 11:0.21131448 12:0.78868552 13:0.86785331 
1 1:1 2:-1 3:-1 4:-1 5:0.64771278 6:0.0042568718 7:0.0067501824 8:1 9:-1 10:0 11:0.69988545 12:0.30011455 13:0.76119137 
1 1:1 2:-1 3:-1 4:-1 5:0.64771278 6:0.0026149355 7:0.0016419363 8:1 9:-1 10:0 11:0.64102564 12:0.35897436 13:0.70646606 
1 1:1 2:-1 3:-1 4:-1 5:0.034505802 6:0.0098516176 7:0.034602287 8:1 9:-1 10:0 11:0.73404255 12:0.26595745 13:0.47073208 
1 1:1 2:-1 3:-1 4:-1 5:0.64771278 6:0.0023716857 7:0.011797616 8:1 9:-1 10:0 11:0.66804979 12:0.33195021 13:0.72982161 
1 1:1 2:-1 3:-1 4:-1 5:0.64771278 6:0.0063853077 7:0.010216492 8:1 9:-1 10:0 11:0.54265403 12:0.45734597 13:0.65341752 
1 1:1 2:-1 3:-1 4:-1 5:0.64771278 6:0.01039893 7:0.0054731209 8:1 9:-1 10:0 11:0.56223176 12:0.43776824 13:0.65966742 
1 1:1 2:-1 3:-1 4:-1 5:0.64771278 6:0.00036487473 7:0.0068109949 8:-1 9:-1 10:0 11:0.5 12:0.5 13:0.64774869 
1 1:1 2:-1 3:-1 4:-1 5:0.64771278 6:0.0058988081 7:0.0041352469 8:1 9:-1 10:0 11:0.69722456 12:0.30277544 13:0.75840216 
1 1:1 2:-1 3:-1 4:-1 5:0.64771278 6:0.0040744344 7:0.0010338117 8:1 9:-1 10:0 11:0.43939394 12:0.56060606 13:0.65897032 
1 1:1 2:-1 3:-1 4:-1 5:0.00060749651 6:0.0018243736 7:0.0024933106 8:1 9:-1 10:0 11:0.53640615 12:0.46359385 13:0.072880339 
1 1:1 2:-1 3:-1 4:-1 5:0.64771278 6:0.0079056191 7:0.040561907 8:1 9:-1 10:0 11:0.56133333 12:0.43866667 13:0.66052004 
1 1:1 2:-1 3:-1 4:-1 5:0.001214993 6:0.00012162491 7:0 8:-1 9:-1 10:0 11:0 12:0 13:0.0012210654 
1 1:1 2:-1 3:-1 4:-1 5:0.64771278 6:0.0017635612 7:0.0016419363 8:1 9:-1 10:0 11:0.34513274 12:0.65486726 13:0.71796456 
1 1:1 2:-1 3:-1 4:-1 5:0.64771278 6:0.0010946242 7:0.0010338117 8:1 9:-1 10:0 11:0.59615385 12:0.40384615 13:0.67565994 
1 1:1 2:-1 3:-1 4:-1 5:0.64771278 6:0.000668937 7:0.00060812454 8:-1 9:-1 10:0 11:0.35 12:0.65 13:0.71381556 
1 1:1 2:-1 3:-1 4:-1 5:0.64771278 6:0.0036487473 7:0.0170883 8:1 9:-1 10:0 11:0.72613459 12:0.27386541 13:0.79018008 
1 1:1 2:-1 3:-1 4:-1 5:0.023084867 6:6.0812454e-05 7:0.00091218682 8:-1 9:-1 10:0 11:0 12:0 13:0.023102963 
1 1:1 2:-1 3:-1 4:-1 5:6.0749651e-05 6:0.04633909 7:0.029068353 8:1 9:-1 10:0 11:0.6031474 12:0.3968526 13:0.21342405 
1 1:1 2:-1 3:-1 4:-1 5:0.023084867 6:6.0812454e-05 7:0.00060812454 8:-1 9:-1 10:0 11:0 12:0 13:0.023092956 
1 1:1 2:-1 3:-1 4:-1 5:0.64771278 6:0.0034663099 7:0.0072366821 8:1 9:-1 10:0 11:0.19516078 12:0.80483922 13:0.88955271 
1 1:1 2:-1 3:-1 4:-1 5:0.64771278 6:0.010763804 7:0.0031622476 8:-1 9:-1 10:0 11:0.5 12:0.5 13:0.64780993 
1 1:1 2:-1 3:-1 4:-1 5:0.64771278 6:0.0010946242 7:0.013439552 8:1 9:-1 10:0 11:0.38607595 12:0.61392405 13:0.68675208 
1 1:1 2:-1 3:-1 4:-1 5:0.64771278 6:0.0077839942 7:0.0051082462 8:1 9:-1 10:0 11:0.64945978 12:0.35054022 13:0.71342234 
1 1:1 2:-1 3:-1 4:-1 5:0.64771278 6:0.004013622 7:0.000668937 8:1 9:-1 10:0 11:0.040247678 12:0.95975232 13:1.1247387 
1 1:1 2:-1 3:-1 4:-1 5:0.64771278 6:0.0021284359 7:0.000668937 8:-1 9:-1 10:0 11:0.2 12:0.8 13:0.88291382 
1 1:1 2:-1 3:-1 4:-1 5:0.64771278 6:0.0031014352 7:0.0093043055 8:1 9:-1 10:0 11:0.4375 12:0.5625 13:0.65973709 
1 1:1 2:-1 3:-1 4:-1 5:0.64771278 6:0.014655802 7:0.0063853077 8:1 9:-1 10:0 11:0.63942308 12:0.36057692 13:0.70536698 
1 1:1 2:-1 3:-1 4:-1 5:0.64771278 6:0.014899051 7:0.011432741 8:1 9:-1 10:0 11:0.6606383 12:0.3393617 13:0.72325872 
1 1:1 2:-1 3:-1 4:-1 5:0.64771278 6:0.0051690586 7:0.0046217465 8:1 9:-1 10:0 11:0.67439786 12:0.32560214 13:0.73568905 
1 1:1 2:-1 3:-1 4:-1 5:0.64771278 6:0.0024324982 7:0.0049866213 8:1 9:-1 10:0 11:0.049077557 12:0.95092244 13:1.1103544 
1 1:1 2:-1 3:-1 4:-1 5:0.64771278 6:0.019642423 7:0.0027365604 8:1 9:-1 10:0 11:0.61177347 12:0.38822653 13:0.68549135 
1 1:1 2:-1 3:-1 4:-1 5:0.64771278 6:0.0071758696 7:0.014473364 8:1 9:-1 10:0 11:0.2853717 12:0.7146283 13:0.77720913 
1 1:1 2:-1 3:-1 4:-1 5:0.64771278 6:0.0046217465 7:0.0044393092 8:-1 9:-1 10:0 11:0.368 12:0.632 13:0.6994776 
1 1:1 2:-1 3:-1 4:-1 5:0.64771278 6:0.0062636828 7:0.0061420579 8:1 9:-1 10:0 11:0.37576687 12:0.62423313 13:0.69378979 
1 1:1 2:-1 3:-1 4:-1 5:0.64771278 6:0.0037703722 7:0.010946242 8:1 9:-1 10:0 11:0.66066838 12:0.33933162 13:0.72313428 
1 1:1 2:-1 3:-1 4:-1 5:0.64771278 6:0.0037095597 7:0.039710533 8:1 9:-1 10:0 11:0.1602729 12:0.8397271 13:0.93956401 
1 1:1 2:-1 3:-1 4:-1 5:0.023084867 6:0 7:0.00042568718 8:-1 9:-1 10:0 11:0 12:0 13:0.023088792 
1 1:1 2:-1 3:-1 4:-1 5:0.034505802 6:0.0078448066 7:0.02031136 8:1 9:-1 10:0 11:0.075499269 12:0.92450073 13:0.84998131 
1 1:1 2:-1 3:-1 4:-1 5:0.64771278 6:0.0076015568 7:0.014838239 8:1 9:-1 10:0 11:0.67503925 12:0.32496075 13:0.73645417 
1 1:1 2:-1 3:-1 4:-1 5:0.64771278 6:0.00024324982 7:0.037642909 8:-1 9:-1 10:0 11:0.4 12:0.6 13:0.67893217 
1 1:1 2:-1 3:-1 4:-1 5:0.64771278 6:0.0092434931 7:0.0077231817 8:1 9:-1 10:0 11:0.67340067 12:0.32659933 13:0.73481161 
1 1:1 2:-1 3:-1 4:-1 5:0.64771278 6:0.0017027487 7:0.014716614 8:1 9:-1 10:0 11:0.32 12:0.68 13:0.74118238 
1 1:1 2:-1 3:-1 4:-1 5:0.64771278 6:0.0093043055 7:0.00085137436 8:1 9:-1 10:0 11:0.025345622 12:0.97465438 13:1.1492634 
1 1:1 2:-1 3:-1 4:-1 5:0.64771278 6:0.010094867 7:0.0035879348 8:1 9:-1 10:0 11:0.65870307 12:0.34129693 13:0.72138289 
1 1:1 2:-1 3:-1 4:-1 5:0.64771278 6:0.002006811 7:0.0076015568 8:1 9:-1 10:0 11:0.61674009 12:0.38325991 13:0.68855402 
1 1:1 2:-1 3:-1 4:-1 5:0.64771278 6:0.0035271224 7:0.0020676234 8:1 9:-1 10:0 11:0.033316049 12:0.96668395 13:1.1361004 
1 1:1 2:-1 3:-1 4:-1 5:0.64771278 6:0.0048649964 7:0.0047433714 8:1 9:-1 10:0 11:0.39779006 12:0.60220994 13:0.67923891 
1 1:1 2:-1 3:-1 4:-1 5:0.64771278 6:0.0093043055 7:0.0031622476 8:1 9:-1 10:0 11:0.46748625 12:0.53251375 13:0.651043 
1 1:1 2:-1 3:-1 4:-1 5:0.64771278 6:0.0055339333 7:0.011067867 8:1 9:-1 10:0 11:0.50892857 12:0.49107143 13:0.64807703 
1 1:1 2:-1 3:-1 4:-1 5:0.64771278 6:0.0023716857 7:0.0032838725 8:1 9:-1 10:0 11:0.3029703 12:0.6970297 13:0.75817614 
1 1:1 2:-1 3:-1 4:-1 5:0.64771278 6:0.0043784967 7:0.011675991 8:1 9:-1 10:0 11:0.55069252 12:0.44930748 13:0.65571813 
1 1:1 2:-1 3:-1 4:-1 5:0.64771278 6:0.0048041839 7:0.0052298711 8:1 9:-1 10:0 11:0.063360882 12:0.93663912 13:1.0872889 
1 1:1 2:-1 3:-1 4:-1 5:0.023084867 6:0 7:0.0015811238 8:1 9:-1 10:0 11:0 12:0 13:0.023138951 
1 1:1 2:-1 3:-1 4:-1 5:0.64771278 6:0.0015811238 7:0.040561907 8:1 9:-1 10:0 11:0.097204301 12:0.9027957 13:1.034484 
1 1:1 2:-1 3:-1 4:-1 5:0.64771278 6:0.002675748 7:0.0055339333 8:1 9:-1 10:0 11:0.54545455 12:0.45454545 13:0.65409027 
1 1:1 2:-1 3:-1 4:-1 5:0.034505802 6:0.044575529 7:0.0049258088 8:1 9:-1 10:0 11:0.75565912 12:0.24434088 13:0.51443973 
1 1:1 2:-1 3:-1 4:-1 5:0.64771278 6:0.001337874 7:0.00072974945 8:-1 9:-1 10:0 11:0.48275862 12:0.51724138 13:0.64863181 
1 1:1 2:-1 3:-1 4:-1 5:0.64771278 6:0.0055947458 7:0.011128679 8:1 9:-1 10:0 11:0.6535254 12:0.3464746 13:0.71691504 
1 1:1 2:-1 3:-1 4:-1 5:0.64771278 6:0.0061420579 7:0.004682559 8:1 9:-1 10:0 11:0.375 12:0.625 13:0.69432809 
1 1:1 2:-1 3:-1 4:-1 5:0.64771278 6:0.0069934323 7:0.0024933106 8:1 9:-1 10:0 11:0.036194416 12:0.96380558 13:1.1313927 
1 1:1 2:-1 3:-1 4:-1 5:0.64771278 6:0.0027365604 7:0.00024324982 8:1 9:-1 10:0 11:0.11859444 12:0.88140556 13:1.0007098 
1 1:1 2:-1 3:-1 4:-1 5:0.64771278 6:0.0021892484 7:0.0096691802 8:-1 9:-1 10:0 11:0.46857143 12:0.53142857 13:0.65083112 
1 1:1 2:-1 3:-1 4:-1 5:0.034505802 6:0.0032230601 7:0.0026149355 8:1 9:-1 10:0 11:0.64100906 12:0.35899094 13:0.28415153 
1 1:1 2:-1 3:-1 4:-1 5:0.64771278 6:0.0025541231 7:0.0015203114 8:1 9:-1 10:0 11:0.72267206 12:0.27732794 13:0.78604839 
1 1:1 2:-1 3:-1 4:-1 5:0.64771278 6:0.0077839942 7:0.00024324982 8:-1 9:-1 10:0 11:0.2962963 12:0.7037037 13:0.7652276 
1 1:1 2:-1 3:-1 4:-1 5:0.64771278 6:0.015811238 7:0.0074191194 8:1 9:-1 10:0 11:0.45478036 12:0.54521964 13:0.65422943 
1 1:1 2:-1 3:-1 4:-1 5:0.64771278 6:0.0034663099 7:0.027973729 8:1 9:-1 10:0 11:0.6576087 12:0.3423913 13:0.72089416 
1 1:1 2:-1 3:-1 4:-1 5:0.64771278 6:0.0071150572 7:0.004013622 8:-1 9:-1 10:0 11:0.38321168 12:0.61678832 13:0.68859031 
1 1:1 2:-1 3:-1 4:-1 5:0.64771278 6:0.0046217465 7:0.032656288 8:1 9:-1 10:0 11:0.67803547 12:0.32196453 13:0.73986901 
1 1:1 2:-1 3:-1 4:-1 5:0.64771278 6:0.0029798103 7:0.0032230601 8:1 9:-1 10:0 11:0.73933333 12:0.26066667 13:0.80540231 
1 1:1 2:-1 3:-1 4:-1 5:0.64771278 6:0.022196546 7:0.0023108733 8:1 9:-1 10:0 11:0.73635153 12:0.26364847 13:0.80217084 
1 1:1 2:-1 3:-1 4:-1 5:0.034505802 6:0.0058379956 7:0.008027244 8:1 9:-1 10:0 11:0.34411765 12:0.65588235 13:0.31382543 
1 1:1 2:-1 3:-1 4:-1 5:0.64771278 6:0.005351496 7:0.007358307 8:-1 9:-1 10:0 11:0.22764228 12:0.77235772 13:0.84636254 
1 1:1 2:-1 3:-1 4:-1 5:0.64771278 6:0.0068109949 7:0.0057163707 8:1 9:-1 10:0 11:0.53054662 12:0.46945338 13:0.65064836 
1 1:1 2:-1 3:-1 4:-1 5:0.64771278 6:0.0070542447 7:0.0048041839 8:1 9:-1 10:0 11:0.22161572 12:0.77838428 13:0.85416387 
1 1:1 2:-1 3:-1 4:-1 5:0.64771278 6:0.00048649964 7:0.00024324982 8:-1 9:-1 10:0 11:0.375 12:0.625 13:0.69428534 
1 1:1 2:-1 3:-1 4:-1 5:0.64771278 6:0.046217465 7:0.0026149355 8:-1 9:-1 10:0 11:0.49773756 12:0.50226244 13:0.64938063 
1 1:1 2:-1 3:-1 4:-1 5:0.64771278 6:0.0037703722 7:0.0084529312 8:1 9:-1 10:0 11:0.72587413 12:0.27412587 13:0.78974299 
1 1:1 2:-1 3:-1 4:-1 5:0.023084867 6:0.00012162491 7:0.00018243736 8:1 9:1 10:0 11:0 12:1 13:1.0002664 
1 1:1 2:-1 3:-1 4:-1 5:0.64771278 6:0.0036487473 7:0.026088543 8:1 9:-1 10:0 11:0.60661506 12:0.39338494 13:0.68241692 
1 1:1 2:-1 3:-1 4:-1 5:0.64771278 6:0.0093043055 7:0.0023108733 8:1 9:-1 10:0 11:0.50093458 12:0.49906542 13:0.64778642 
1 1:1 2:-1 3:-1 4:-1 5:0.64771278 6:0.011128679 7:0.013561177 8:1 9:-1 10:0 11:0.74117053 12:0.25882947 13:0.80777008 
1 1:1 2:-1 3:-1 4:-1 5:0.001214993 6:6.0812454e-05 7:0 8:-1 9:-1 10:0 11:0 12:0 13:0.0012165139 
1 1:1 2:-1 3:-1 4:-1 5:0.64771278 6:0.0078448066 7:0.0088178059 8:-1 9:-1 10:0 11:0.55263158 12:0.44736842 13:0.65631659 
1 1:1 2:-1 3:-1 4:-1 5:0.64771278 6:0.0048041839 7:0.014047677 8:1 9:-1 10:0 11:0.74353448 12:0.25646552 13:0.81054823 
1 1:1 2:-1 3:-1 4:-1 5:0.64771278 6:0.0029189978 7:0.0036487473 8:1 9:-1 10:0 11:0.5668693 12:0.4331307 13:0.66139223 
1 1:1 2:-1 3:-1 4:-1 5:0.64771278 6:0.0015203114 7:0.013196303 8:1 9:-1 10:0 11:0.16487455 12:0.83512545 13:0.93217196 
1 1:1 2:-1 3:-1 4:-1 5:0.64771278 6:0.0049258088 7:0.0012770615 8:1 9:-1 10:0 11:0.084745763 12:0.91525424 13:1.0532341 
1 1:1 2:-1 3:-1 4:-1 5:0.64771278 6:0.0045609341 7:0.0035879348 8:1 9:-1 10:0 11:0.73239437 12:0.26760563 13:0.79724154 
1 1:1 2:-1 3:-1 4:-1 5:0.64771278 6:0.0090610557 7:0.00668937 8:1 9:-1 10:0 11:0.66222222 12:0.33777778 13:0.72451562 
1 1:1 2:-1 3:-1 4:-1 5:0.64771278 6:0.002006811 7:6.0812454e-05 8:1 9:1 10:0 11:0.006226369 12:0.99377363 13:1.1810104 
1 1:1 2:-1 3:-1 4:-1 5:0.001214993 6:0.00012162491 7:6.0812454e-05 8:1 9:-1 10:0 11:0 12:1 13:1.0000007 
1 1:1 2:-1 3:-1 4:-1 5:0.64771278 6:0.00097299927 7:0.0057163707 8:-1 9:-1 10:0 11:0.37931034 12:0.62068966 13:0.69125208 
1 1:1 2:-1 3:-1 4:-1 5:0.64771278 6:0.013804427 7:0.0012162491 8:1 9:-1 10:0 11:0.38235294 12:0.61764706 13:0.6892657 
1 1:1 2:-1 3:-1 4:-1 5:0.64771278 6:0.0049258088 7:0.0059596205 8:1 9:-1 10:0 11:0.23443114 12:0.76556886 13:0.8376747 
1 1:1 2:-1 3:-1 4:-1 5:0.64771278 6:0.0041352469 7:0.023351982 8:1 9:-1 10:0 11:0.67218543 12:0.32781457 13:0.733952 
1 1:1 2:-1 3:-1 4:-1 5:0.64771278 6:0.027548042 7:0.018669423 8:1 9:-1 10:0 11:0.72815534 12:0.27184466 13:0.79300613 
1 1:1 2:-1 3:-1 4:-1 5:0.64771278 6:0.0032230601 7:0.0084529312 8:1 9:-1 10:0 11:0.50761828 12:0.49238172 13:0.64795512 
1 1:1 2:-1 3:-1 4:-1 5:0.64771278 6:0.0041352469 7:0.0069326198 8:1 9:-1 10:0 11:0.21703522 12:0.78296478 13:0.86015887 
1 1:1 2:-1 3:-1 4:-1 5:0.64771278 6:0.00048649964 7:0.0027973729 8:1 9:-1 10:0 11:0.40909091 12:0.59090909 13:0.67275386 
1 1:1 2:-1 3:-1 4:-1 5:0.64771278 6:0.043420092 7:0.015020676 8:1 9:-1 10:0 11:0.57280453 12:0.42719547 13:0.66546583 
1 1:1 2:-1 3:-1 4:-1 5:0.64771278 6:0.015446363 7:0.0038919971 8:1 9:-1 10:0 11:0.66148024 12:0.33851976 13:0.72393994 
1 1:1 2:-1 3:-1 4:-1 5:0.64771278 6:0.001337874 7:0.002006811 8:-1 9:-1 10:0 11:0.35714286 12:0.64285714 13:0.70793383 
1 1:1 2:-1 3:-1 4:-1 5:0.64771278 6:0.0051690586 7:0.021284359 8:-1 9:-1 10:0 11:0.4939577 12:0.5060423 13:0.64819567 
1 1:1 2:-1 3:-1 4:-1 5:0.64771278 6:0.027669667 7:0.0057771832 8:1 9:-1 10:0 11:0.74024586 12:0.25975414 13:0.80697157 
1 1:1 2:-1 3:-1 4:-1 5:0.64771278 6:0.0050474337 7:0.012709803 8:-1 9:-1 10:0 11:0.432 12:0.568 13:0.66197799 
1 1:1 2:-1 3:-1 4:-1 5:0.64771278 6:0.0011554366 7:0.028460229 8:1 9:-1 10:0 11:0.54754098 12:0.45245902 13:0.65527379 
1 1:1 2:-1 3:-1 4:-1 5:0.64771278 6:0.012344928 7:0.013804427 8:1 9:-1 10:0 11:0.73026316 12:0.26973684 13:0.79495867 
1 1:1 2:-1 3:-1 4:-1 5:0.64771278 6:0.0076623693 7:0.0023108733 8:1 9:-1 10:0 11:0.1875 12:0.8125 13:0.90012271 
1 1:1 2:-1 3:-1 4:-1 5:0.64771278 6:0.0031014352 7:0.024993919 8:-1 9:-1 10:0 11:0.36363636 12:0.63636364 13:0.70323987 
1 1:1 2:-1 3:-1 4:-1 5:0.64771278 6:0.0019459985 7:6.0812454e-05 8:1 9:-1 10:0 11:0.28431373 12:0.71568627 13:0.77821456 
1 1:1 2:-1 3:-1 4:-1 5:0.64771278 6:0.012040866 7:0.0095475553 8:1 9:-1 10:0 11:0.67288204 12:0.32711796 13:0.73438463 
1 1:1 2:-1 3:-1 4:-1 5:0.64771278 6:0.00085137436 7:0.0010338117 8:1 9:-1 10:0 11:0.7318236 12:0.2681764 13:0.79655656 
1 1:1 2:-1 3:-1 4:-1 5:0.0055282182 6:0.00036487473 7:0.0094259304 8:-1 9:-1 10:0 11:0.5 12:0.5 13:0.010933549 
1 1:1 2:-1 3:-1 4:-1 5:0.64771278 6:0.0037095597 7:0.0092434931 8:1 9:-1 10:0 11:0.12424409 12:0.87575591 13:0.99216987 
1 1:1 2:-1 3:-1 4:-1 5:0.023084867 6:0 7:0.00054731209 8:1 9:-1 10:0 11:0 12:0 13:0.023091354 
1 1:1 2:-1 3:-1 4:-1 5:0.023084867 6:0 7:6.0812454e-05 8:1 9:-1 10:0 11:0 12:0 13:0.023084947 
1 1:1 2:-1 3:-1 4:-1 5:0.64771278 6:0.001337874 7:0.0015811238 8:-1 9:-1 10:0 11:0.56109325 12:0.43890675 13:0.6591401 
1 1:1 2:-1 3:-1 4:-1 5:0.034505802 6:0.0022500608 7:0.0075407443 8:1 9:-1 10:0 11:0.75342466 12:0.24657534 13:0.50808346 
1 1:1 2:-1 3:-1 4:-1 5:0.64771278 6:0.0027365604 7:0.016480175 8:-1 9:-1 10:0 11:0.3 12:0.7 13:0.76145317 
1 1:1 2:-1 3:-1 4:-1 5:0.64771278 6:0.001337874 7:0.0037703722 8:-1 9:-1 10:0 11:0.55748031 12:0.44251969 13:0.65784785 
1 1:1 2:-1 3:-1 4:-1 5:0.64771278 6:0.0034054974 7:0.00030406227 8:1 9:-1 10:0 11:0.57142857 12:0.42857143 13:0.66328854 
1 1:1 2:-1 3:-1 4:-1 5:0.64771278 6:0.0097908052 7:0.012040866 8:1 9:-1 10:0 11:0.67158309 12:0.32841691 13:0.73316827 
1 1:1 2:-1 3:-1 4:-1 5:0.64771278 6:0.0041960594 7:0.0077839942 8:1 9:-1 10:0 11:0.62444444 12:0.37555556 13:0.69394216 
1 1:1 2:-1 3:-1 4:-1 5:0.64771278 6:0.0061420579 7:0.012162491 8:1 9:-1 10:0 11:0.73482428 12:0.26517572 13:0.80017952 
1 1:1 2:-1 3:-1 4:-1 5:0.64771278 6:0.003344685 7:0.0068718073 8:1 9:-1 10:0 11:0.53898097 12:0.46101903 13:0.65243261 
1 1:1 2:-1 3:-1 4:-1 5:0.64771278 6:0.0025541231 7:0.0075407443 8:1 9:-1 10:0 11:0.65294118 12:0.34705882 13:0.71635134 
1 1:1 2:-1 3:-1 4:-1 5:0.64771278 6:0.015324739 7:0.014473364 8:1 9:-1 10:0 11:0.55325444 12:0.44674556 13:0.6567498 
1 1:1 2:-1 3:-1 4:-1 5:0.64771278 6:0.044149842 7:0.0031014352 8:1 9:-1 10:0 11:0.2388245 12:0.7611755 13:0.8332714 
1 1:1 2:-1 3:-1 4:-1 5:0.64771278 6:0.0024933106 7:0.0040744344 8:-1 9:-1 10:0 11:0.49618321 12:0.50381679 13:0.64777537 
1 1:1 2:-1 3:-1 4:-1 5:0.00060749651 6:0.00054731209 7:0.0018851861 8:1 9:-1 10:0 11:0.70684039 12:0.29315961 13:0.41368589 
0.9196364529051497 1:1 2:-1 3:-1 4:-1 5:0.64771278 6:0.020676234 7:0.0037095597 8:1 9:-1 10:0 11:0.7470024 12:0.2529976 13:0.81487045 
1 1:1 2:-1 3:-1 4:-1 5:0.64771278 6:0.0026149355 7:0.010702992 8:-1 9:-1 10:0 11:0.52991453 12:0.47008547 13:0.65056341 
1 1:1 2:-1 3:-1 4:-1 5:0.64771278 6:0.0085137436 7:0.0010946242 8:1 9:-1 10:0 11:0.2108678 12:0.7891322 13:0.86832899 
1 1:1 2:-1 3:-1 4:-1 5:0.64771278 6:0.0029798103 7:0.01015568 8:1 9:-1 10:0 11:0.35376045 12:0.64623955 13:0.7107657 
1 1:1 2:-1 3:-1 4:-1 5:0.64771278 6:0.0088178059 7:0.015020676 8:1 9:-1 10:0 11:0.69824561 12:0.30175439 13:0.75963182 
1 1:1 2:-1 3:-1 4:-1 5:0.034505802 6:0.0052298711 7:0.012953053 8:1 9:-1 10:0 11:0.48586572 12:0.51413428 13:0.046742855 
1 1:1 2:-1 3:-1 4:-1 5:0.64771278 6:0.024689856 7:0.0045001216 8:1 9:-1 10:0 11:0.67567568 12:0.32432432 13:0.73729875 
1 1:1 2:-1 3:-1 4:-1 5:0.64771278 6:0.0094867429 7:0.011371929 8:1 9:-1 10:0 11:0.6619898 12:0.3380102 13:0.72437141 
1 1:1 2:-1 3:-1 4:-1 5:0.64771278 6:0.0014594989 7:0.0040744344 8:-1 9:-1 10:0 11:0.31578947 12:0.68421053 13:0.74517424 
1 1:1 2:-1 3:-1 4:-1 5:0.64771278 6:0.0021284359 7:0.0010946242 8:1 9:-1 10:0 11:0.62528217 12:0.37471783 13:0.69449266 
1 1:1 2:-1 3:-1 4:-1 5:0.64771278 6:0.0023716857 7:0.011858429 8:1 9:-1 10:0 11:0.35802469 12:0.64197531 13:0.70732315 
1 1:1 2:-1 3:-1 4:-1 5:0.64771278 6:0.018304549 7:0.0058379956 8:1 9:-1 10:0 11:0.70588235 12:0.29411765 13:0.76775722 
1 1:1 2:-1 3:-1 4:-1 5:0.64771278 6:0 7:0.010034055 8:1 9:-1 10:0 11:0.44117647 12:0.55882353 13:0.65838693 
1 1:1 2:-1 3:-1 4:-1 5:0.64771278 6:0.0055339333 7:0.0064461202 8:-1 9:-1 10:0 11:0.275 12:0.725 13:0.78873571 
1 1:1 2:-1 3:-1 4:-1 5:0.64771278 6:0.0034054974 7:0.021649234 8:1 9:-1 10:0 11:0.57905759 12:0.42094241 13:0.6670926 
1 1:1 2:-1 3:-1 4:-1 5:0.64771278 6:0.015811238 7:0.011615179 8:-1 9:-1 10:0 11:0.16666667 12:0.83333333 13:0.92971027 
1 1:1 2:-1 3:-1 4:-1 5:0.64771278 6:0.023960107 7:0.014777426 8:1 9:-1 10:0 11:0.69459757 12:0.30540243 13:0.75617271 
1 1:1 2:-1 3:-1 4:-1 5:0.64771278 6:0.0087569934 7:0.0036487473 8:1 9:-1 10:0 11:0.20661754 12:0.79338246 13:0.87402226 
1 1:1 2:-1 3:-1 4:-1 5:0.64771278 6:0.0088786183 7:0.00060812454 8:1 9:-1 10:0 11:0.17424242 12:0.82575758 13:0.91873992 
1 1:1 2:-1 3:-1 4:-1 5:0.64771278 6:0.00018243736 7:0.0015203114 8:1 9:-1 10:0 11:0.070676692 12:0.92932331 13:1.0755502 
1 1:1 2:-1 3:-1 4:-1 5:0.64771278 6:0.00024324982 7:0.00018243736 8:1 9:-1 10:0 11:0.66666667 12:0.33333333 13:0.7284525 
1 1:1 2:-1 3:-1 4:-1 5:0.64771278 6:0.0021284359 7:0.00036487473 8:1 9:-1 10:0 11:0.69396552 12:0.30603448 13:0.75500132 
1 1:1 2:-1 3:-1 4:-1 5:0.64771278 6:0.0032230601 7:0.032413038 8:-1 9:-1 10:0 11:0.3699422 12:0.6300578 13:0.698751 
1 1:1 2:-1 3:-1 4:-1 5:0.034505802 6:0.011067867 7:0.01386524 8:1 9:-1 10:0 11:0.41805401 12:0.58194599 13:0.168422 
1 1:1 2:-1 3:-1 4:-1 5:0.64771278 6:0.045305279 7:0.012953053 8:-1 9:-1 10:0 11:0.56843993 12:0.43156007 13:0.66369291 
1 1:1 2:-1 3:-1 4:-1 5:0.64771278 6:0.0037703722 7:0.017939674 8:1 9:-1 10:0 11:0.66724138 12:0.33275862 13:0.72920957 
1 1:1 2:-1 3:-1 4:-1 5:0.64771278 6:0.0085745561 7:0.015507176 8:-1 9:-1 10:0 11:0.29936306 12:0.70063694 13:0.76214603 
1 1:1 2:-1 3:-1 4:-1 5:0.64771278 6:0.0025541231 7:0.011007054 8:1 9:-1 10:0 11:0.35697941 12:0.64302059 13:0.70815188 
1 1:1 2:-1 3:-1 4:-1 5:0.64771278 6:0.0018243736 7:0.013317928 8:1 9:-1 10:0 11:0.42391304 12:0.57608696 13:0.66548436 
1 1:1 2:-1 3:-1 4:-1 5:0.64771278 6:0.04682559 7:0.013074678 8:-1 9:-1 10:0 11:0.56997608 12:0.43002392 13:0.66444114 
1 1:1 2:-1 3:-1 4:-1 5:0.64771278 6:0.0056555583 7:0.00072974945 8:1 9:-1 10:0 11:0.13542601 12:0.86457399 13:0.97530566 
1 1:1 2:-1 3:-1 4:-1 5:0.64771278 6:0.0068109949 7:0.0071758696 8:1 9:-1 10:0 11:0.59285714 12:0.40714286 13:0.67388391 
1 1:1 2:-1 3:-1 4:-1 5:0.64771278 6:0.00018243736 7:0.0041960594 8:-1 9:-1 10:0 11:0.4 12:0.6 13:0.67790079 
1 1:1 2:-1 3:-1 4:-1 5:0.64771278 6:0.0039528095 7:0.011189492 8:1 9:-1 10:0 11:0.35294118 12:0.64705882 13:0.71146178 
1 1:1 2:-1 3:-1 4:-1 5:0.64771278 6:0.008696181 7:0.0036487473 8:-1 9:-1 10:0 11:0.57142857 12:0.42857143 13:0.66334677 
1 1:1 2:-1 3:-1 4:-1 5:0.64771278 6:0.0094867429 7:0.0024933106 8:1 9:-1 10:0 11:0.71257485 12:0.28742515 13:0.77484213 
1 1:1 2:-1 3:-1 4:-1 5:0.64771278 6:0.0071758696 7:0.0083921187 8:-1 9:-1 10:0 11:0.54874652 12:0.45125348 13:0.65510202 
1 1:1 2:-1 3:-1 4:-1 5:0.64771278 6:0.0075407443 7:0.025966918 8:-1 9:-1 10:0 11:0.39597315 12:0.60402685 13:0.68084457 
1 1:1 2:-1 3:-1 4:-1 5:0.64771278 6:0.0042568718 7:0.001337874 8:1 9:-1 10:0 11:0.62105263 12:0.37894737 13:0.69149599 
1 1:1 2:-1 3:-1 4:-1 5:0.64771278 6:0.018912673 7:0.01313549 8:1 9:-1 10:0 11:0.69491525 12:0.30508475 13:0.75632658 
1 1:1 2:-1 3:-1 4:-1 5:0.64771278 6:0.0094259304 7:0.013439552 8:1 9:-1 10:0 11:0.23125756 12:0.76874244 13:0.84183806 
1 1:1 2:-1 3:-1 4:-1 5:0.64771278 6:0.0077839942 7:0.0010338117 8:-1 9:-1 10:0 11:0.35869565 12:0.64130435 13:0.70672567 
1 1:1 2:-1 3:-1 4:-1 5:0.64771278 6:0.0065069326 7:0.0091218682 8:1 9:-1 10:0 11:0.20035778 12:0.79964222 13:0.88249602 
1 1:1 2:-1 3:-1 4:-1 5:0.64771278 6:0.0026149355 7:0.0029189978 8:1 9:-1 10:0 11:0.25048924 12:0.74951076 13:0.8176611 
1 1:1 2:-1 3:-1 4:-1 5:0.64771278 6:0.044332279 7:0.013500365 8:-1 9:-1 10:0 11:0.56772674 12:0.43227326 13:0.66334538 
1 1:1 2:-1 3:-1 4:-1 5:0.64771278 6:0.0072974945 7:0.0058988081 8:-1 9:-1 10:0 11:0.55555556 12:0.44444444 13:0.65724088 
1 1:1 2:-1 3:-1 4:-1 5:0.64771278 6:0.0069326198 7:0.00060812454 8:1 9:-1 10:0 11:0.68320611 12:0.31679389 13:0.74420305 
1 1:1 2:-1 3:-1 4:-1 5:0.64771278 6:0.00054731209 7:0.0019459985 8:1 9:-1 10:0 11:0.21756487 12:0.78243513 13:0.85942675 
1 1:1 2:-1 3:-1 4:-1 5:0.023084867 6:0 7:6.0812454e-05 8:1 9:-1 10:0 11:0 12:0 13:0.023084947 
1 1:1 2:-1 3:-1 4:-1 5:0.64771278 6:0.0068718073 7:0.0091218682 8:1 9:-1 10:0 11:0.32415421 12:0.67584579 13:0.73712227 
1 1:1 2:-1 3:-1 4:-1 5:0.64771278 6:0.0017635612 7:0.0018243736 8:1 9:-1 10:0 11:0.28488372 12:0.71511628 13:0.77758494 
1 1:1 2:-1 3:-1 4:-1 5:0.64771278 6:0.01362199 7:0.008696181 8:1 9:-1 10:0 11:0.7404985 12:0.2595015 13:0.80693936 
1 1:1 2:-1 3:-1 4:-1 5:0.034505802 6:0.017574799 7:0.042264656 8:1 9:-1 10:0 11:0.76622486 12:0.23377514 13:0.53552641 
1 1:1 2:-1 3:-1 4:-1 5:0.64771278 6:0.0091826806 7:0.0070542447 8:1 9:-1 10:0 11:0.67127184 12:0.32872816 13:0.73280427 
1 1:1 2:-1 3:-1 4:-1 5:0.64771278 6:0.0036487473 7:0.0022500608 8:-1 9:-1 10:0 11:0.37176471 12:0.62823529 13:0.69665442 
1 1:1 2:-1 3:-1 4:-1 5:0.64771278 6:0.018000486 7:0.0013986865 8:1 9:-1 10:0 11:0.42857143 12:0.57142857 13:0.66352542 
1 1:1 2:-1 3:-1 4:-1 5:0.64771278 6:0.015750426 7:0.007358307 8:1 9:-1 10:0 11:0.375 12:0.625 13:0.69450274 
1 1:1 2:-1 3:-1 4:-1 5:0.64771278 6:0.0041352469 7:0.0027973729 8:1 9:-1 10:0 11:0.44497608 12:0.55502392 13:0.65701392 
1 1:1 2:-1 3:-1 4:-1 5:0.64771278 6:0.00054731209 7:0.00030406227 8:1 9:-1 10:0 11:0.10769231 12:0.89230769 13:1.017425 
1 1:1 2:-1 3:-1 4:-1 5:0.64771278 6:0.00054731209 7:0.00079056191 8:1 9:-1 10:0 11:0.12539185 12:0.87460815 13:0.99038267 
0.4964763700061347 1:1 2:-1 3:-1 4:-1 5:0.64771278 6:0.0059596205 7:0.015932863 8:-1 9:-1 10:0 11:0.57142857 12:0.42857143 13:0.66349783 
1 1:1 2:-1 3:-1 4:-1 5:0.64771278 6:0.0059596205 7:0.0041960594 8:1 9:-1 10:0 11:0.47719298 12:0.52280702 13:0.64935784 
1 1:1 2:-1 3:-1 4:-1 5:0.64771278 6:0.00030406227 7:0.0010338117 8:-1 9:-1 10:0 11:0.56862745 12:0.43137255 13:0.6620966 
1 1:1 2:-1 3:-1 4:-1 5:0.64771278 6:0.0052906835 7:0.025297981 8:1 9:-1 10:0 11:0.70073892 12:0.29926108 13:0.76248559 
1 1:1 2:-1 3:-1 4:-1 5:0.64771278 6:0.0082096813 7:0.0087569934 8:1 9:-1 10:0 11:0.72470978 12:0.27529022 13:0.7884503 
1 1:1 2:-1 3:-1 4:-1 5:0.64771278 6:0.0015203114 7:0.0038311846 8:1 9:-1 10:0 11:0.23880597 12:0.76119403 13:0.83212866 
1 1:1 2:-1 3:-1 4:-1 5:0.64771278 6:0.013804427 7:0.014473364 8:1 9:-1 10:0 11:0.6293279 12:0.3706721 13:0.69773541 
1 1:1 2:-1 3:-1 4:-1 5:0.64771278 6:0.017939674 7:0.0091826806 8:1 9:-1 10:0 11:0.25088339 12:0.74911661 13:0.81741931 
1 1:1 2:-1 3:-1 4:-1 5:0.64771278 6:0.0025541231 7:0.0019459985 8:1 9:-1 10:0 11:0.37305699 12:0.62694301 13:0.69570127 
1 1:1 2:-1 3:-1 4:-1 5:0.64771278 6:0.022500608 7:0.011311117 8:1 9:-1 10:0 11:0.63559322 12:0.36440678 13:0.70264368 
1 1:1 2:-1 3:-1 4:-1 5:0.64771278 6:0.011675991 7:0.0013986865 8:-1 9:-1 10:0 11:0.546875 12:0.453125 13:0.65456794 
1 1:1 2:-1 3:-1 4:-1 5:0.64771278 6:0.0012162491 7:0.00054731209 8:-1 9:-1 10:0 11:0.57142857 12:0.42857143 13:0.66328107 
1 1:1 2:-1 3:-1 4:-1 5:0.64771278 6:0.017149112 7:0.0068718073 8:1 9:-1 10:0 11:0.70159453 12:0.29840547 13:0.76317401 
1 1:1 2:-1 3:-1 4:-1 5:0.64771278 6:0.0026149355 7:0.01015568 8:1 9:-1 10:0 11:0.13384995 12:0.86615005 13:0.97770408 
1 1:1 2:-1 3:-1 4:-1 5:0.64771278 6:0.0097299927 7:0.011250304 8:1 9:-1 10:0 11:0.66666667 12:0.33333333 13:0.72860428 
1 1:1 2:-1 3:-1 4:-1 5:0.64771278 6:0.0023716857 7:0.010277305 8:1 9:-1 10:0 11:0.35655362 12:0.64344638 13:0.70848468 
1 1:1 2:-1 3:-1 4:-1 5:0.034505802 6:0.010459742 7:0.0059596205 8:1 9:-1 10:0 11:0.65090284 12:0.34909716 13:0.30401026 
1 1:1 2:-1 3:-1 4:-1 5:0.64771278 6:0.0037703722 7:0.0010946242 8:1 9:-1 10:0 11:0.48305085 12:0.51694915 13:0.64861109 
1 1:1 2:-1 3:-1 4:-1 5:0.64771278 6:0.01362199 7:0.0038311846 8:1 9:-1 10:0 11:0.59174312 12:0.40825688 13:0.6733493 
1 1:1 2:-1 3:-1 4:-1 5:0.64771278 6:0.0064461202 7:0.0035271224 8:1 9:-1 10:0 11:0.6772009 12:0.3227991 13:0.73836744 
1 1:1 2:-1 3:-1 4:-1 5:0.64771278 6:0.00668937 7:0.013257115 8:1 9:-1 10:0 11:0.64035088 12:0.35964912 13:0.70607777 
1 1:1 2:-1 3:-1 4:-1 5:0.64771278 6:0.0030406227 7:0.017453174 8:1 9:-1 10:0 11:0.60631229 12:0.39368771 13:0.68194935 
1 1:1 2:-1 3:-1 4:-1 5:0.034505802 6:0.0065069326 7:0.024324982 8:1 9:-1 10:0 11:0.26807229 12:0.73192771 13:0.46581815 
1 1:1 2:-1 3:-1 4:-1 5:0.64771278 6:0.00018243736 7:0.0010946242 8:1 9:-1 10:0 11:0.22828784 12:0.77171216 13:0.84548392 
1 1:1 2:-1 3:-1 4:-1 5:0.64771278 6:0.0034663099 7:0.0067501824 8:1 9:-1 10:0 11:0.33819629 12:0.66180371 13:0.72409336 
1 1:1 2:-1 3:-1 4:-1 5:0.64771278 6:0.00060812454 7:0.0023716857 8:-1 9:-1 10:0 11:0.42857143 12:0.57142857 13:0.66328425 
1 1:1 2:-1 3:-1 4:-1 5:0.64771278 6:0.0039528095 7:0.0035271224 8:1 9:-1 10:0 11:0.5704417 12:0.4295583 13:0.6628786 
1 1:1 2:-1 3:-1 4:-1 5:0.64771278 6:0.01289224 7:0.009365118 8:1 9:-1 10:0 11:0.69177955 12:0.30822045 13:0.75292984 
1 1:1 2:-1 3:-1 4:-1 5:0.64771278 6:0.0038311846 7:0.016905862 8:1 9:-1 10:0 11:0.46067416 12:0.53932584 13:0.65270086 
1 1:1 2:-1 3:-1 4:-1 5:0.64771278 6:0.0020676234 7:0.0011554366 8:1 9:-1 10:0 11:0.57575758 12:0.42424242 13:0.66520244 
1 1:1 2:-1 3:-1 4:-1 5:0.64771278 6:0.0055339333 7:0.0012770615 8:-1 9:-1 10:0 11:0.43478261 12:0.56521739 13:0.66073998 
1 1:1 2:-1 3:-1 4:-1 5:0.64771278 6:0.0079056191 7:0.0054731209 8:1 9:-1 10:0 11:0.57348703 12:0.42651297 13:0.6642482 
1 1:1 2:-1 3:-1 4:-1 5:0.64771278 6:0.0099124301 7:0.011554366 8:1 9:-1 10:0 11:0.49589246 12:0.50410754 13:0.64794374 
1 1:1 2:-1 3:-1 4:-1 5:0.64771278 6:0.0069934323 7:0.018182924 8:1 9:-1 10:0 11:0.72427984 12:0.27572016 13:0.78810986 
1 1:1 2:-1 3:-1 4:-1 5:0.64771278 6:0.012588178 7:0.022683045 8:1 9:-1 10:0 11:0.68330465 12:0.31669535 13:0.74471954 
1 1:1 2:-1 3:-1 4:-1 5:0.64771278 6:0.0052298711 7:0.0018243736 8:1 9:-1 10:0 11:0.29752066 12:0.70247934 13:0.7639071 
1 1:1 2:-1 3:-1 4:-1 5:0.64771278 6:0.00097299927 7:0 8:-1 9:-1 10:0 11:0.097560976 12:0.90243902 13:1.0331319 
1 1:1 2:-1 3:-1 4:-1 5:0.64771278 6:0.0091218682 7:0.0028581854 8:1 9:-1 10:0 11:0.70162602 12:0.29837398 13:0.76304352 
1 1:1 2:-1 3:-1 4:-1 5:0.034505802 6:0.0024324982 7:0.032230601 8:1 9:-1 10:0 11:0.083916084 12:0.91608392 13:0.83350986 
1 1:1 2:-1 3:-1 4:-1 5:0.64771278 6:0.0082096813 7:0.0055339333 8:-1 9:-1 10:0 11:0.15456674 12:0.84543326 13:0.94706198 
1 1:1 2:-1 3:-1 4:-1 5:0.64771278 6:0.0079664315 7:0.0016419363 8:1 9:-1 10:0 11:0.71907216 12:0.28092784 13:0.78202842 
1 1:1 2:-1 3:-1 4:-1 5:0.64771278 6:0.0024324982 7:0.0030406227 8:1 9:-1 10:0 11:0.69477912 12:0.30522088 13:0.75584563 
1 1:1 2:-1 3:-1 4:-1 5:0.64771278 6:0.00097299927 7:6.0812454e-05 8:1 9:-1 10:0 11:0.12790698 12:0.87209302 13:0.98658282 
1 1:1 2:-1 3:-1 4:-1 5:0.64771278 6:0.020250547 7:0.013804427 8:1 9:-1 10:0 11:0.37533274 12:0.62466726 13:0.69447836 
1 1:1 2:-1 3:-1 4:-1 5:0.64771278 6:0.0043784967 7:0.016297738 8:-1 9:-1 10:0 11:0.10792741 12:0.89207259 13:1.0172022 
1 1:1 2:-1 3:-1 4:-1 5:0.64771278 6:0.014047677 7:0.0057771832 8:-1 9:-1 10:0 11:0.2962963 12:0.7037037 13:0.76533871 
1 1:1 2:-1 3:-1 4:-1 5:0.64771278 6:0.0025541231 7:0.0062636828 8:1 9:-1 10:0 11:0.73663102 12:0.26336898 13:0.80221852 
1 1:1 2:-1 3:-1 4:-1 5:0.64771278 6:0.0071758696 7:0.0081488689 8:1 9:-1 10:0 11:0.40834387 12:0.59165613 13:0.67324076 
1 1:1 2:-1 3:-1 4:-1 5:0.64771278 6:0.012466553 7:0.0029189978 8:1 9:-1 10:0 11:0.74243734 12:0.25756266 13:0.80919666 
1 1:1 2:-1 3:-1 4:-1 5:0.64771278 6:0.0043784967 7:0.002675748 8:1 9:-1 10:0 11:0.61290323 12:0.38709677 13:0.68596408 
1 1:1 2:-1 3:-1 4:-1 5:0.64771278 6:0.0025541231 7:0.010581367 8:1 9:-1 10:0 11:0.35678392 12:0.64321608 13:0.7083034 
1 1:1 2:-1 3:-1 4:-1 5:0.64771278 6:0.0075407443 7:0.0061420579 8:1 9:-1 10:0 11:0.54729064 12:0.45270936 13:0.65465414 
1 1:1 2:-1 3:-1 4:-1 5:0.64771278 6:0.0015203114 7:0.0010946242 8:1 9:-1 10:0 11:0.56716418 12:0.43283582 13:0.66149789 
1 1:1 2:-1 3:-1 4:-1 5:0.64771278 6:0.00030406227 7:0.00042568718 8:-1 9:-1 10:0 11:0.23076923 12:0.76923077 13:0.84230217 
1 1:1 2:-1 3:-1 4:-1 5:0.023084867 6:6.0812454e-05 7:6.0812454e-05 8:-1 9:-1 10:0 11:0 12:0 13:0.023085027 
1 1:1 2:-1 3:-1 4:-1 5:0.64771278 6:0.0019459985 7:0.0027365604 8:-1 9:-1 10:0 11:0.066666667 12:0.93333333 13:1.0819678 
1 1:1 2:-1 3:-1 4:-1 5:0.64771278 6:6.0812454e-05 7:0.00054731209 8:-1 9:-1 10:0 11:0.56643357 12:0.43356643 13:0.66120029 
1 1:1 2:-1 3:-1 4:-1 5:0.64771278 6:0.0029798103 7:0.025966918 8:1 9:-1 10:0 11:0.62382739 12:0.37617261 13:0.69393652 
1 1:1 2:-1 3:-1 4:-1 5:0.64771278 6:0.012040866 7:0.00097299927 8:1 9:-1 10:0 11:0.60287081 12:0.39712919 13:0.67971125 
1 1:1 2:-1 3:-1 4:-1 5:0.64771278 6:0.0038919971 7:0.013196303 8:-1 9:-1 10:0 11:0.41221374 12:0.58778626 13:0.67122786 
1 1:1 2:-1 3:-1 4:-1 5:0.64771278 6:0.0054123084 7:0.0075407443 8:1 9:-1 10:0 11:0.2907777 12:0.7092223 13:0.77117694 
1 1:1 2:-1 3:-1 4:-1 5:0.64771278 6:0.0052906835 7:0.003344685 8:1 9:-1 10:0 11:0.36516425 12:0.63483575 13:0.70163647 
1 1:1 2:-1 3:-1 4:-1 5:0.64771278 6:0.0070542447 7:0.0058379956 8:1 9:-1 10:0 11:0.62303665 12:0.37696335 13:0.69294138 
1 1:1 2:-1 3:-1 4:-1 5:0.64771278 6:0.0022500608 7:0.00012162491 8:1 9:-1 10:0 11:0.45806452 12:0.54193548 13:0.65312423 
1 1:1 2:-1 3:-1 4:-1 5:0.64771278 6:0.0075407443 7:0.027791292 8:-1 9:-1 10:0 11:0.55042017 12:0.44957983 13:0.65614772 
1 1:1 2:-1 3:-1 4:-1 5:0.64771278 6:0.022683045 7:0.0018851861 8:1 9:-1 10:0 11:0.41021898 12:0.58978102 13:0.67252691 
1 1:1 2:-1 3:-1 4:-1 5:0.64771278 6:0.0089394308 7:0.0021284359 8:1 9:-1 10:0 11:0.63636364 12:0.36363636 13:0.70284881 
1 1:1 2:-1 3:-1 4:-1 5:0.64771278 6:0.015993676 7:0.014351739 8:1 9:-1 10:0 11:0.55917031 12:0.44082969 13:0.65878533 
1 1:1 2:-1 3:-1 4:-1 5:0.023084867 6:0.00012162491 7:0.00024324982 8:-1 9:-1 10:0 11:0 12:1 13:1.0002665 
1 1:1 2:-1 3:-1 4:-1 5:0.64771278 6:0.0065677451 7:0.0031014352 8:1 9:-1 10:0 11:0.3291874 12:0.6708126 13:0.73231986 
1 1:1 2:-1 3:-1 4:-1 5:0.64771278 6:0.045974216 7:0.0015203114 8:1 9:-1 10:0 11:0.42718447 12:0.57281553 13:0.66547441 
1 1:1 2:-1 3:-1 4:-1 5:0.64771278 6:0.011067867 7:0.00012162491 8:-1 9:-1 10:0 11:0.1686747 12:0.8313253 13:0.92669314 
1 1:1 2:-1 3:-1 4:-1 5:0.64771278 6:0.0048649964 7:0.04037947 8:1 9:-1 10:0 11:0.70443815 12:0.29556185 13:0.76705009 
1 1:1 2:-1 3:-1 4:-1 5:0.64771278 6:0.018122111 7:0.0096691802 8:1 9:-1 10:0 11:0.055881027 12:0.94411897 13:1.0995092 
1 1:1 2:-1 3:-1 4:-1 5:0.64771278 6:0.00024324982 7:0.002006811 8:-1 9:-1 10:0 11:0.53389831 12:0.46610169 13:0.65125441 
1 1:1 2:-1 3:-1 4:-1 5:0.0055282182 6:0.00036487473 7:0.00060812454 8:1 9:-1 10:0 11:0.4925 12:0.5075 13:0.016002004 
1 1:1 2:-1 3:-1 4:-1 5:0.64771278 6:0.0045001216 7:0.0021892484 8:1 9:-1 10:0 11:0.70841487 12:0.29158513 13:0.77026224 
1 1:1 2:-1 3:-1 4:-1 5:0.023084867 6:0 7:6.0812454e-05 8:-1 9:-1 10:0 11:0 12:0 13:0.023084947 
1 1:1 2:-1 3:-1 4:-1 5:0.023084867 6:0.00024324982 7:0.00012162491 8:-1 9:-1 10:0 11:0 12:0 13:0.023086469 
1 1:1 2:-1 3:-1 4:-1 5:0.64771278 6:0.0081488689 7:0.018061299 8:-1 9:-1 10:0 11:0.53333333 12:0.46666667 13:0.65143603 
1 1:1 2:-1 3:-1 4:-1 5:0.64771278 6:0.0037095597 7:0.013196303 8:1 9:-1 10:0 11:0.71448276 12:0.28551724 13:0.77700139 
1 1:1 2:-1 3:-1 4:-1 5:0.023084867 6:0.00012162491 7:0.00097299927 8:1 9:-1 10:0 11:0.40625 12:0.59375 13:0.1889183 
1 1:1 2:-1 3:-1 4:-1 5:0.64771278 6:0.0015811238 7:0.018243736 8:1 9:-1 10:0 11:0.58035714 12:0.41964286 13:0.66760486 
1 1:1 2:-1 3:-1 4:-1 5:0.64771278 6:0.00030406227 7:0.00091218682 8:-1 9:-1 10:0 11:0.5 12:0.5 13:0.64771349 
1 1:1 2:-1 3:-1 4:-1 5:0.034505802 6:0.01337874 7:0.011311117 8:1 9:-1 10:0 11:0.48944193 12:0.51055807 13:0.044084847 
1 1:1 2:-1 3:-1 4:-1 5:0.023084867 6:0.00012162491 7:0 8:-1 9:-1 10:0 11:0 12:0 13:0.023085188 
1 1:1 2:-1 3:-1 4:-1 5:0.64771278 6:0.001337874 7:0.0043784967 8:1 9:-1 10:0 11:0.5 12:0.5 13:0.64772896 
1 1:1 2:-1 3:-1 4:-1 5:0.64771278 6:0.0068109949 7:0.0022500608 8:1 9:-1 10:0 11:0.11363636 12:0.88636364 13:1.0083108 
1 1:1 2:-1 3:-1 4:-1 5:0.64771278 6:0.012648991 7:0.0082704938 8:1 9:-1 10:0 11:0.56638812 12:0.43361188 13:0.66135449 
1 1:1 2:-1 3:-1 4:-1 5:0.64771278 6:0.0057163707 7:0.026331793 8:-1 9:-1 10:0 11:0.32121212 12:0.67878788 13:0.74035012 
1 1:1 2:-1 3:-1 4:-1 5:0.64771278 6:0.011189492 7:0.017209925 8:-1 9:-1 10:0 11:0.54205607 12:0.45794393 13:0.65347386 
1 1:1 2:-1 3:-1 4:-1 5:0.64771278 6:0.0021892484 7:0.0055947458 8:1 9:-1 10:0 11:0.01836083 12:0.98163917 13:1.1608071 
1 1:1 2:-1 3:-1 4:-1 5:0.64771278 6:0.024324982 7:0.0051690586 8:1 9:-1 10:0 11:0.74027778 12:0.25972222 13:0.8068977 
1 1:1 2:-1 3:-1 4:-1 5:0.64771278 6:0.0043176843 7:0.015324739 8:1 9:-1 10:0 11:0.55555556 12:0.44444444 13:0.65736672 
1 1:1 2:-1 3:-1 4:-1 5:0.64771278 6:0.0097908052 7:0.010034055 8:1 9:-1 10:0 11:0.38150808 12:0.61849192 13:0.68984761 
1 1:1 2:-1 3:-1 4:-1 5:0.034505802 6:0.0021284359 7:0.0014594989 8:1 9:-1 10:0 11:0.75913978 12:0.24086022 13:0.51943337 
1 1:1 2:-1 3:-1 4:-1 5:0.64771278 6:0.011067867 7:0.019095111 8:1 9:-1 10:0 11:0.3293238 12:0.6706762 13:0.7324892 
1 1:1 2:-1 3:-1 4:-1 5:0.64771278 6:0.0034054974 7:0.0070542447 8:-1 9:-1 10:0 11:0.375 12:0.625 13:0.69432932 
1 1:1 2:-1 3:-1 4:-1 5:0.64771278 6:0.01684505 7:0.0017027487 8:1 9:-1 10:0 11:0.69158879 12:0.30841121 13:0.75275729 
1 1:1 2:-1 3:-1 4:-1 5:0.0027944839 6:0.0030406227 7:0.0028581854 8:1 9:-1 10:0 11:0.23243243 12:0.76756757 13:0.5351587 
1 1:1 2:-1 3:-1 4:-1 5:0.64771278 6:0.0047433714 7:0.0055947458 8:-1 9:-1 10:0 11:0.5 12:0.5 13:0.64775431 
1 1:1 2:-1 3:-1 4:-1 5:0.64771278 6:0.00072974945 7:0.0051082462 8:1 9:-1 10:0 11:0.21659919 12:0.78340081 13:0.86071049 
1 1:1 2:-1 3:-1 4:-1 5:0.64771278 6:0.01064218 7:0.011493554 8:1 9:-1 10:0 11:0.17866324 12:0.82133676 13:0.9125823 
1 1:1 2:-1 3:-1 4:-1 5:0.64771278 6:0.0023716857 7:0.0046217465 8:1 9:-1 10:0 11:0.65714286 12:0.34285714 13:0.7199544 
1 1:1 2:-1 3:-1 4:-1 5:0.64771278 6:0.0029189978 7:0.0029798103 8:1 9:-1 10:0 11:0.58837772 12:0.41162228 13:0.67141025 
1 1:1 2:-1 3:-1 4:-1 5:0.64771278 6:0.0027973729 7:0.0039528095 8:1 9:-1 10:0 11:0.60294118 12:0.39705882 13:0.67966376 
1 1:1 2:-1 3:-1 4:-1 5:0.034505802 6:0.0022500608 7:0.0010946242 8:1 9:-1 10:0 11:0.10132159 12:0.89867841 13:0.79810702 
1 1:1 2:-1 3:-1 4:-1 5:0.64771278 6:0.012162491 7:0.0055339333 8:1 9:-1 10:0 11:0.5465313 12:0.4534687 13:0.6545006 
1 1:1 2:-1 3:-1 4:-1 5:0.64771278 6:0.0023716857 7:0.0018851861 8:1 9:-1 10:0 11:0.3627204 12:0.6372796 13:0.70350819 
1 1:1 2:-1 3:-1 4:-1 5:0.017192151 6:0.00012162491 7:0.00036487473 8:1 9:-1 10:0 11:0.069565217 12:0.93043478 13:0.8610413 
1 1:1 2:-1 3:-1 4:-1 5:0.64771278 6:0.0045609341 7:0.0055339333 8:-1 9:-1 10:0 11:0.10809477 12:0.89190523 13:1.0168294 
1 1:1 2:-1 3:-1 4:-1 5:0.023084867 6:0 7:6.0812454e-05 8:1 9:-1 10:0 11:0 12:1 13:1.0002664 
1 1:1 2:-1 3:-1 4:-1 5:0.64771278 6:0.0062028703 7:0.013196303 8:1 9:-1 10:0 11:0.484375 12:0.515625 13:0.64863011 
1 1:1 2:-1 3:-1 4:-1 5:0.023084867 6:0.00024324982 7:0.0011554366 8:1 9:-1 10:0 11:0.6 12:0.4 13:0.20133133 
1 1:1 2:-1 3:-1 4:-1 5:0.64771278 6:0.0054731209 7:0.018973486 8:1 9:-1 10:0 11:0.61685393 12:0.38314607 13:0.68886948 
1 1:1 2:-1 3:-1 4:-1 5:0.64771278 6:0.00079056191 7:0.0024933106 8:-1 9:-1 10:0 11:0.25 12:0.75 13:0.81825343 
1 1:1 2:-1 3:-1 4:-1 5:0.64771278 6:0.018122111 7:0.0058988081 8:1 9:-1 10:0 11:0.53710247 12:0.46289753 13:0.65222804 
1 1:1 2:-1 3:-1 4:-1 5:0.64771278 6:0.00018243736 7:0.013439552 8:1 9:-1 10:0 11:0.052264808 12:0.94773519 13:1.105251 
1 1:1 2:-1 3:-1 4:-1 5:0.034505802 6:0.0055339333 7:0.013500365 8:1 9:-1 10:0 11:0.54476045 12:0.45523955 13:0.09704394 
1 1:1 2:-1 3:-1 4:-1 5:0.64771278 6:0.010277305 7:0.0077839942 8:-1 9:-1 10:0 11:0.57126568 12:0.42873432 13:0.66333494 
1 1:1 2:-1 3:-1 4:-1 5:0.64771278 6:0.0026149355 7:0.00024324982 8:1 9:-1 10:0 11:0.68691589 12:0.31308411 13:0.74785623 
1 1:1 2:-1 3:-1 4:-1 5:0.64771278 6:0.010277305 7:0.018122111 8:1 9:-1 10:0 11:0.70034193 12:0.29965807 13:0.76191432 
1 1:1 2:-1 3:-1 4:-1 5:0.64771278 6:0.0044393092 7:0.004013622 8:1 9:-1 10:0 11:0.27286038 12:0.72713962 13:0.79116199 
1 1:1 2:-1 3:-1 4:-1 5:0.64771278 6:0.0042568718 7:0.00668937 8:1 9:-1 10:0 11:0.37406484 12:0.62593516 13:0.69500602 
1 1:1 2:-1 3:-1 4:-1 5:0.64771278 6:0.004013622 7:0.004682559 8:1 9:-1 10:0 11:0.11543388 12:0.88456612 13:1.0055517 
1 1:1 2:-1 3:-1 4:-1 5:0.64771278 6:0.0084529312 7:0.01064218 8:1 9:-1 10:0 11:0.67861886 12:0.32138114 13:0.73982115 
1 1:1 2:-1 3:-1 4:-1 5:0.64771278 6:0.0060812454 7:0.016784237 8:1 9:-1 10:0 11:0.7029703 12:0.2970297 13:0.76461644 
1 1:1 2:-1 3:-1 4:-1 5:0.64771278 6:0.0083313063 7:0.012223303 8:1 9:-1 10:0 11:0.24484991 12:0.75515009 13:0.82471627 
1 1:1 2:-1 3:-1 4:-1 5:0.64771278 6:0.0062636828 7:0.00097299927 8:-1 9:-1 10:0 11:0.51263538 12:0.48736462 13:0.64823656 
1 1:1 2:-1 3:-1 4:-1 5:0.64771278 6:0.0062028703 7:0.0039528095 8:1 9:-1 10:0 11:0.48611111 12:0.51388889 13:0.64834986 
1 1:1 2:-1 3:-1 4:-1 5:0.64771278 6:0.0017635612 7:0.0019459985 8:1 9:-1 10:0 11:0.13630573 12:0.86369427 13:0.97397783 
1 1:1 2:-1 3:-1 4:-1 5:0.023084867 6:0.00048649964 7:6.0812454e-05 8:-1 9:-1 10:0 11:0 12:0 13:0.023090073 
1 1:1 2:-1 3:-1 4:-1 5:0.64771278 6:0 7:0.010277305 8:-1 9:-1 10:0 11:0.57142857 12:0.42857143 13:0.66335935 
1 1:1 2:-1 3:-1 4:-1 5:0.64771278 6:0.0072974945 7:0.011980054 8:1 9:-1 10:0 11:0.6744186 12:0.3255814 13:0.73580977 
1 1:1 2:-1 3:-1 4:-1 5:0.023084867 6:0.00018243736 7:0.00036487473 8:-1 9:-1 10:0 11:0.058823529 12:0.94117647 13:0.88265497 
1 1:1 2:-1 3:-1 4:-1 5:0.023084867 6:0.00030406227 7:0.0010338117 8:-1 9:-1 10:0 11:0 12:0 13:0.023110005 
1 1:1 2:-1 3:-1 4:-1 5:0.64771278 6:6.0812454e-05 7:0 8:1 9:-1 10:0 11:0.010723861 12:0.98927614 13:1.1734975 
1 1:1 2:-1 3:-1 4:-1 5:0.034505802 6:0.0035879348 7:0.0052906835 8:1 9:-1 10:0 11:0.67149059 12:0.32850941 13:0.34477182 
1 1:1 2:-1 3:-1 4:-1 5:0.64771278 6:0.0023108733 7:0.0091826806 8:1 9:-1 10:0 11:0.28480204 12:0.71519796 13:0.77772884 
1 1:1 2:-1 3:-1 4:-1 5:0.64771278 6:0.002006811 7:0.0099732425 8:1 9:-1 10:0 11:0.6659292 12:0.3340708 13:0.7278498 
1 1:1 2:-1 3:-1 4:-1 5:0.64771278 6:0.0043784967 7:0.0012770615 8:-1 9:-1 10:0 11:0.37931034 12:0.62068966 13:0.6912428 
1 1:1 2:-1 3:-1 4:-1 5:0.64771278 6:0.0039528095 7:0.014838239 8:-1 9:-1 10:0 11:0.56363636 12:0.43636364 13:0.6602772 
1 1:1 2:-1 3:-1 4:-1 5:0.023084867 6:0 7:0.00018243736 8:-1 9:-1 10:0 11:0 12:0 13:0.023085588 
1 1:1 2:-1 3:-1 4:-1 5:0.64771278 6:0.0052298711 7:0.011675991 8:1 9:-1 10:0 11:0.71794872 12:0.28205128 13:0.78083423 
1 1:1 2:-1 3:-1 4:-1 5:0.64771278 6:0.0057163707 7:0.0027365604 8:1 9:-1 10:0 11:0.47272727 12:0.52727273 13:0.65003632 
1 1:1 2:-1 3:-1 4:-1 5:0.64771278 6:0.00018243736 7:0.011311117 8:-1 9:-1 10:0 11:0.42253521 12:0.57746479 13:0.66608032 
1 1:1 2:-1 3:-1 4:-1 5:0.64771278 6:0 7:0.00012162491 8:1 9:-1 10:0 11:0.17567568 12:0.82432432 13:0.9166662 
1 1:1 2:-1 3:-1 4:-1 5:0.017192151 6:0.00018243736 7:0.0013986865 8:1 9:-1 10:0 11:0.076923077 12:0.92307692 13:0.84632966 
1 1:1 2:-1 3:-1 4:-1 5:0.64771278 6:0.0063853077 7:0.0021284359 8:1 9:-1 10:0 11:0.47802198 12:0.52197802 13:0.64923746 
1 1:1 2:-1 3:-1 4:-1 5:0.64771278 6:0.0044393092 7:0.0060812454 8:1 9:-1 10:0 11:0.16178429 12:0.83821571 13:0.9365618 
1 1:1 2:-1 3:-1 4:-1 5:0.64771278 6:0.0046217465 7:0.0099732425 8:1 9:-1 10:0 11:0.269627 12:0.730373 13:0.79494625 
1 1:1 2:-1 3:-1 4:-1 5:0.64771278 6:0.0032838725 7:0.014899051 8:1 9:-1 10:0 11:0.6 12:0.4 13:0.67805944 
1 1:1 2:-1 3:-1 4:-1 5:0.64771278 6:0.01362199 7:0.014838239 8:1 9:-1 10:0 11:0.53590034 12:0.46409966 13:0.65199149 
1 1:1 2:-1 3:-1 4:-1 5:0.64771278 6:0.0065069326 7:0.0027365604 8:-1 9:-1 10:0 11:0.53649635 12:0.46350365 13:0.65185091 
1 1:1 2:-1 3:-1 4:-1 5:0.64771278 6:0.0067501824 7:0.0063244953 8:1 9:-1 10:0 11:0.65698479 12:0.34301521 13:0.71985714 
1 1:1 2:-1 3:-1 4:-1 5:0.64771278 6:0.0055947458 7:0.0023716857 8:1 9:-1 10:0 11:0.73387097 12:0.26612903 13:0.79896889 
1 1:1 2:-1 3:-1 4:-1 5:0.64771278 6:0.002675748 7:0.0035879348 8:-1 9:-1 10:0 11:0.50314465 12:0.49685535 13:0.64775877 
1 1:1 2:-1 3:-1 4:-1 5:0.64771278 6:0.0031622476 7:0.0029189978 8:1 9:-1 10:0 11:0.22911877 12:0.77088123 13:0.84442697 
1 1:1 2:-1 3:-1 4:-1 5:0.64771278 6:0.0039528095 7:0.0091218682 8:1 9:-1 10:0 11:0.48743425 12:0.51256575 13:0.64827638 
1 1:1 2:-1 3:-1 4:-1 5:0.023084867 6:6.0812454e-05 7:0.00060812454 8:-1 9:-1 10:0 11:0 12:0 13:0.023092956 
1 1:1 2:-1 3:-1 4:-1 5:0.64771278 6:0.0064461202 7:0.0055339333 8:1 9:-1 10:0 11:0.67883212 12:0.32116788 13:0.73995116 
1 1:1 2:-1 3:-1 4:-1 5:0.64771278 6:0.00085137436 7:0.015811238 8:-1 9:-1 10:0 11:0.47619048 12:0.52380952 13:0.64965386 
1 1:1 2:-1 3:-1 4:-1 5:0.64771278 6:0.0037095597 7:0.0021284359 8:-1 9:-1 10:0 11:0.55882353 12:0.44117647 13:0.65832436 
1 1:1 2:-1 3:-1 4:-1 5:0.64771278 6:0.0023108733 7:0.0083313063 8:-1 9:-1 10:0 11:0.49264706 12:0.50735294 13:0.64793738 
1 1:1 2:-1 3:-1 4:-1 5:0.00060749651 6:0.018426174 7:0.038068596 8:1 9:-1 10:0 11:0.53395062 12:0.46604938 13:0.079998054 
1 1:1 2:-1 3:-1 4:-1 5:0.64771278 6:0.016480175 7:0.024750669 8:1 9:1 10:0 11:0.38760407 12:0.61239593 13:0.68625608 
1 1:1 2:-1 3:-1 4:-1 5:0.64771278 6:0.0094867429 7:0.0064461202 8:1 9:-1 10:0 11:0.20258065 12:0.79741935 13:0.87948649 
1 1:1 2:-1 3:-1 4:-1 5:0.64771278 6:0.010946242 7:0.0091826806 8:1 9:-1 10:0 11:0.73063973 12:0.26936027 13:0.79530794 
1 1:1 2:-1 3:-1 4:-1 5:0.64771278 6:0.015567988 7:0.010581367 8:-1 9:-1 10:0 11:0.56918548 12:0.43081452 13:0.66259542 
1 1:1 2:-1 3:-1 4:-1 5:0.64771278 6:0.0074191194 7:0.025419606 8:1 9:-1 10:0 11:0.1328125 12:0.8671875 13:0.97956096 
1 1:1 2:-1 3:-1 4:-1 5:0.64771278 6:0.00054731209 7:0.010277305 8:1 9:-1 10:0 11:0.44871795 12:0.55128205 13:0.65586367 
1 1:1 2:-1 3:-1 4:-1 5:0.64771278 6:0.0040744344 7:0.0017635612 8:1 9:-1 10:0 11:0.38461538 12:0.61538462 13:0.68760889 
1 1:1 2:-1 3:-1 4:-1 5:0.64771278 6:0.0082704938 7:0.0012770615 8:-1 9:-1 10:0 11:0.31713396 12:0.68286604 13:0.74388294 
1 1:1 2:-1 3:-1 4:-1 5:0.64771278 6:0.0093043055 7:0.011615179 8:1 9:-1 10:0 11:0.59891045 12:0.40108955 13:0.67741157 
1 1:1 2:-1 3:-1 4:-1 5:0.64771278 6:0.0034054974 7:0.020432985 8:1 9:-1 10:0 11:0.2276511 12:0.7723489 13:0.84655574 
1 1:1 2:-1 3:-1 4:-1 5:0.64771278 6:0.0034054974 7:0.0029798103 8:1 9:-1 10:0 11:0.7148289 12:0.2851711 13:0.7772761 
1 1:1 2:-1 3:-1 4:-1 5:0.034505802 6:0.0037703722 7:0.0068109949 8:1 9:-1 10:0 11:0.18839201 12:0.81160799 13:0.62421905 
1 1:1 2:-1 3:-1 4:-1 5:0.64771278 6:0.0012770615 7:0.0012770615 8:1 9:-1 10:0 11:0.27118644 12:0.72881356 13:0.79306852 
1 1:1 2:-1 3:-1 4:-1 5:0.64771278 6:0.004682559 7:0.018791048 8:1 9:-1 10:0 11:0.54896907 12:0.45103093 13:0.65536154 
1 1:1 2:-1 3:-1 4:-1 5:0.64771278 6:0.0029189978 7:0.00054731209 8:-1 9:-1 10:0 11:0.34831461 12:0.65168539 13:0.71524436 
1 1:1 2:-1 3:-1 4:-1 5:0.64771278 6:0.0045609341 7:0.0095475553 8:1 9:-1 10:0 11:0.66060606 12:0.33939394 13:0.72306364 
1 1:1 2:-1 3:-1 4:-1 5:0.64771278 6:0.0049866213 7:0.0058988081 8:-1 9:-1 10:0 11:0.25 12:0.75 13:0.81828571 
1 1:1 2:-1 3:-1 4:-1 5:0.023084867 6:6.0812454e-05 7:0 8:-1 9:-1 10:0 11:0 12:0 13:0.023084947 
1 1:1 2:-1 3:-1 4:-1 5:0.023084867 6:0 7:0.00012162491 8:-1 9:-1 10:0 11:0 12:0 13:0.023085188 
1 1:1 2:-1 3:-1 4:-1 5:0.64771278 6:0.0032230601 7:0.01289224 8:-1 9:-1 10:0 11:0.45226131 12:0.54773869 13:0.65484683 
1 1:1 2:-1 3:-1 4:-1 5:0.64771278 6:0.00072974945 7:0.0063244953 8:1 9:-1 10:0 11:0.6374269 12:0.3625731 13:0.7036455 
1 1:1 2:-1 3:-1 4:-1 5:0.64771278 6:0.0086353685 7:0.02675748 8:1 9:-1 10:0 11:0.7147651 12:0.2852349 13:0.77770082 
1 1:1 2:-1 3:-1 4:-1 5:0.64771278 6:0.0034663099 7:0.000668937 8:-1 9:-1 10:0 11:0.49618321 12:0.50381679 13:0.64776738 
1 1:1 2:-1 3:-1 4:-1 5:0.64771278 6:0.0045609341 7:0.000668937 8:-1 9:-1 10:0 11:0.5 12:0.5 13:0.64772918 
1 1:1 2:-1 3:-1 4:-1 5:0.023084867 6:0.00042568718 7:6.0812454e-05 8:1 9:-1 10:0 11:0 12:0 13:0.023088872 
1 1:1 2:-1 3:-1 4:-1 5:0.64771278 6:0.0012770615 7:0.0096083678 8:1 9:-1 10:0 11:0.37789203 12:0.62210797 13:0.69229128 
1 1:1 2:-1 3:-1 4:-1 5:0.023084867 6:6.0812454e-05 7:0.00012162491 8:-1 9:-1 10:0 11:0 12:0 13:0.023085268 
1 1:1 2:-1 3:-1 4:-1 5:0.64771278 6:0.0021284359 7:0.00048649964 8:1 9:-1 10:0 11:0.55153203 12:0.44846797 13:0.65586493 
1 1:1 2:-1 3:-1 4:-1 5:0.64771278 6:0.0099732425 7:0.011128679 8:1 9:-1 10:0 11:0.71433616 12:0.28566384 13:0.77686235 
1 1:1 2:-1 3:-1 4:-1 5:0.64771278 6:0.008027244 7:0.0042568718 8:1 9:-1 10:0 11:0.6589404 12:0.3410596 13:0.72156954 
1 1:1 2:-1 3:-1 4:-1 5:0.64771278 6:0.0041352469 7:0.028095354 8:1 9:-1 10:0 11:0.63774734 12:0.36225266 13:0.70443992 
1 1:1 2:-1 3:-1 4:-1 5:0.64771278 6:0.0052298711 7:0.0046217465 8:1 9:-1 10:0 11:0.65035318 12:0.34964682 13:0.71414625 
1 1:1 2:-1 3:-1 4:-1 5:0.023084867 6:0.00042568718 7:0.0010946242 8:-1 9:-1 10:0 11:0.5 12:0.5 13:0.023114725 
1 1:1 2:-1 3:-1 4:-1 5:0.034505802 6:0.027912917 7:0.010094867 8:1 9:-1 10:0 11:0.65686519 12:0.34313481 13:0.31701488 
1 1:1 2:-1 3:-1 4:-1 5:0.64771278 6:0 7:0 8:-1 9:-1 10:0 11:0.093023256 12:0.90697674 13:1.0402173 
1 1:1 2:-1 3:-1 4:-1 5:0.64771278 6:0.0024933106 7:0.0010946242 8:-1 9:-1 10:0 11:0.32758621 12:0.67241379 13:0.73378833 
1 1:1 2:-1 3:-1 4:-1 5:0.64771278 6:0.0038311846 7:0.0080880564 8:-1 9:-1 10:0 11:0.55555556 12:0.44444444 13:0.65723482 
1 1:1 2:-1 3:-1 4:-1 5:0.64771278 6:0.0045001216 7:0.0057771832 8:1 9:-1 10:0 11:0.096969697 12:0.9030303 13:1.0340789 
1 1:1 2:-1 3:-1 4:-1 5:0.64771278 6:0.0021892484 7:0.0015811238 8:1 9:-1 10:0 11:0.71428571 12:0.28571429 13:0.77666763 
1 1:1 2:-1 3:-1 4:-1 5:0.64771278 6:0.010581367 7:0.0060812454 8:1 9:-1 10:0 11:0.58823529 12:0.41176471 13:0.67143328 
1 1:1 2:-1 3:-1 4:-1 5:0.64771278 6:0.02304792 7:0.025419606 8:1 9:1 10:0 11:0.39597902 12:0.60402098 13:0.6811686 
1 1:1 2:-1 3:-1 4:-1 5:0.64771278 6:0.0062636828 7:0.017635612 8:1 9:-1 10:0 11:0.01458671 12:0.98541329 13:1.1672131 
1 1:1 2:-1 3:-1 4:-1 5:0.64771278 6:0.0022500608 7:0.0041352469 8:1 9:-1 10:0 11:0.27995643 12:0.72004357 13:0.78309048 
1 1:1 2:-1 3:-1 4:-1 5:0.64771278 6:0.010277305 7:0.010946242 8:1 9:-1 10:0 11:0.70655271 12:0.29344729 13:0.76838361 
1 1:1 2:-1 3:-1 4:-1 5:0.64771278 6:0.00085137436 7:0.00018243736 8:-1 9:-1 10:0 11:0.30769231 12:0.69230769 13:0.75330047 
1 1:1 2:-1 3:-1 4:-1 5:0.64771278 6:0.0069326198 7:0.0088178059 8:1 9:-1 10:0 11:0.53012048 12:0.46987952 13:0.65060482 
1 1:1 2:-1 3:-1 4:-1 5:0.64771278 6:0.007358307 7:0.00085137436 8:-1 9:-1 10:0 11:0.5625 12:0.4375 13:0.65970577 
1 1:1 2:-1 3:-1 4:-1 5:0.64771278 6:0.0046217465 7:0.0059596205 8:1 9:-1 10:0 11:0.51322751 12:0.48677249 13:0.64829668 
1 1:1 2:-1 3:-1 4:-1 5:0.034505802 6:0.01039893 7:0.020250547 8:1 9:-1 10:0 11:0.61312608 12:0.38687392 13:0.22999764 
1 1:1 2:-1 3:-1 4:-1 5:0.64771278 6:0.0094259304 7:0.0027365604 8:1 9:-1 10:0 11:0.45175936 12:0.54824064 13:0.65493268 
1 1:1 2:-1 3:-1 4:-1 5:0.64771278 6:0.0043784967 7:0.010946242 8:1 9:-1 10:0 11:0.1684679 12:0.8315321 13:0.92699783 
1 1:1 2:-1 3:-1 4:-1 5:0.64771278 6:0.0083921187 7:0.0055339333 8:1 9:-1 10:0 11:0.72220482 12:0.27779518 13:0.78557802 
1 1:1 2:-1 3:-1 4:-1 5:0.64771278 6:0.0067501824 7:0.0042568718 8:-1 9:-1 10:0 11:0.52307692 12:0.47692308 13:0.64940411 
1 1:1 2:-1 3:-1 4:-1 5:0.64771278 6:0.0082704938 7:0.0063853077 8:1 9:-1 10:0 11:0.72173913 12:0.27826087 13:0.78505667 
1 1:1 2:-1 3:-1 4:-1 5:0.64771278 6:0.0080880564 7:0.037764534 8:1 9:-1 10:0 11:0.48795181 12:0.51204819 13:0.64931044 
1 1:1 2:-1 3:-1 4:-1 5:0.64771278 6:0.0017635612 7:0.0034054974 8:1 9:-1 10:0 11:0.029460505 12:0.9705395 13:1.1424431 
1 1:1 2:-1 3:-1 4:-1 5:0.0055282182 6:0.0010946242 7:0.0058988081 8:1 9:1 10:0 11:0.93977591 12:0.06022409 13:0.87958965 
1 1:1 2:-1 3:-1 4:-1 5:0.64771278 6:0.0067501824 7:0.0097299927 8:1 9:-1 10:0 11:0.71712159 12:0.28287841 13:0.77989692 
1 1:1 2:-1 3:-1 4:-1 5:0.64771278 6:0.00030406227 7:0.00030406227 8:-1 9:-1 10:0 11:0.53333333 12:0.46666667 13:0.65113475 
1 1:1 2:-1 3:-1 4:-1 5:0.64771278 6:0.0086353685 7:0.0091826806 8:1 9:-1 10:0 11:0.67514451 12:0.32485549 13:0.73647344 
1 1:1 2:-1 3:-1 4:-1 5:0.64771278 6:0.008696181 7:0.012648991 8:1 9:-1 10:0 11:0.67040449 12:0.32959551 13:0.73206435 
1 1:1 2:-1 3:-1 4:-1 5:0.023084867 6:6.0812454e-05 7:0.00030406227 8:-1 9:-1 10:0 11:0 12:0 13:0.02308695 
1 1:1 2:-1 3:-1 4:-1 5:0.64771278 6:0.0074191194 7:0.0019459985 8:1 9:-1 10:0 11:0.44668246 12:0.55331754 13:0.65647674 
1 1:1 2:-1 3:-1 4:-1 5:0.023084867 6:0 7:0.00024324982 8:-1 9:-1 10:0 11:0 12:0 13:0.023086149 
1 1:1 2:-1 3:-1 4:-1 5:0.023084867 6:0.000668937 7:0.0010338117 8:1 9:-1 10:0 11:0.42857143 12:0.57142857 13:0.14471555 
1 1:1 2:-1 3:-1 4:-1 5:0.64771278 6:0.0030406227 7:0.015689613 8:1 9:-1 10:0 11:0.63292683 12:0.36707317 13:0.70033236 
1 1:1 2:-1 3:-1 4:-1 5:0.64771278 6:0.00012162491 7:0.001337874 8:-1 9:-1 10:0 11:0.57142857 12:0.42857143 13:0.66328109 
1 1:1 2:-1 3:-1 4:-1 5:0.023084867 6:6.0812454e-05 7:0 8:-1 9:-1 10:0 11:0 12:0 13:0.023084947 
1 1:1 2:-1 3:-1 4:-1 5:0.64771278 6:0.0022500608 7:0.00012162491 8:1 9:-1 10:0 11:0.10890152 12:0.89109848 13:1.0155634 
1 1:1 2:-1 3:-1 4:-1 5:0.64771278 6:0.0034663099 7:0.0041960594 8:1 9:-1 10:0 11:0.15302491 12:0.84697509 13:0.94927778 
1 1:1 2:-1 3:-1 4:-1 5:0.64771278 6:0.01039893 7:0.0010946242 8:1 9:-1 10:0 11:0.064420585 12:0.93557942 13:1.0856145 
1 1:1 2:-1 3:-1 4:-1 5:0.64771278 6:0.019885673 7:0.0037095597 8:-1 9:-1 10:0 11:0.55 12:0.45 13:0.65569889 
1 1:1 2:-1 3:-1 4:-1 5:0.64771278 6:0.009365118 7:0.00054731209 8:1 9:-1 10:0 11:0.62307692 12:0.37692308 13:0.69297299 
1 1:1 2:-1 3:-1 4:-1 5:0.64771278 6:0.00097299927 7:0.00079056191 8:1 9:-1 10:0 11:0.05982906 12:0.94017094 13:1.092948 
1 1:1 2:-1 3:-1 4:-1 5:0.64771278 6:0.0088178059 7:0.0093043055 8:1 9:-1 10:0 11:0.35939323 12:0.64060677 13:0.70624161 
1 1:1 2:-1 3:-1 4:-1 5:0.64771278 6:0.013196303 7:6.0812454e-05 8:-1 9:-1 10:0 11:0.25818522 12:0.74181478 13:0.80845751 
1 1:1 2:-1 3:-1 4:-1 5:0.034505802 6:0.027365604 7:0.0029189978 8:1 9:-1 10:0 11:0.7728513 12:0.2271487 13:0.54748458 
1 1:1 2:-1 3:-1 4:-1 5:0.64771278 6:0.006020433 7:0.0083921187 8:1 9:-1 10:0 11:0.33843017 12:0.66156983 13:0.72391833 
1 1:1 2:-1 3:-1 4:-1 5:0.64771278 6:0.050656775 7:0.012588178 8:1 9:-1 10:0 11:0.58704453 12:0.41295547 13:0.67272834 
1 1:1 2:-1 3:-1 4:-1 5:0.64771278 6:0.000668937 7:0.0046217465 8:1 9:-1 10:0 11:0.2962963 12:0.7037037 13:0.76520222 
1 1:1 2:-1 3:-1 4:-1 5:0.64771278 6:0.0069326198 7:0.0076623693 8:1 9:-1 10:0 11:0.49089841 12:0.50910159 13:0.6480509 
1 1:1 2:-1 3:-1 4:-1 5:0.64771278 6:0.0012162491 7:0.00097299927 8:1 9:-1 10:0 11:0.21428571 12:0.78571429 13:0.86375047 
1 1:1 2:-1 3:-1 4:-1 5:0.64771278 6:0.0085137436 7:0.00030406227 8:1 9:1 10:0 11:0.0063350452 12:0.99366495 13:1.1808576 
1 1:1 2:-1 3:-1 4:-1 5:0.64771278 6:0.0087569934 7:0.0097299927 8:1 9:-1 10:0 11:0.47645951 12:0.52354049 13:0.64955355 
1 1:1 2:-1 3:-1 4:-1 5:0.64771278 6:0.0060812454 7:0.0044393092 8:1 9:-1 10:0 11:0.27777778 12:0.72222222 13:0.78556947 
1 1:1 2:-1 3:-1 4:-1 5:0.64771278 6:0.0045001216 7:0.017392362 8:1 9:-1 10:0 11:0.60135135 12:0.39864865 13:0.67892781 
1 1:1 2:-1 3:-1 4:-1 5:0.64771278 6:0.0049866213 7:0.0078448066 8:1 9:-1 10:0 11:0.068164794 12:0.93183521 13:1.079604 
1 1:1 2:-1 3:-1 4:-1 5:0.64771278 6:0.014412552 7:0.0026149355 8:1 9:-1 10:0 11:0.64303797 12:0.35696203 13:0.70822726 
1 1:1 2:-1 3:-1 4:-1 5:0.64771278 6:0.0018243736 7:0.0074799319 8:1 9:-1 10:0 11:0.24956971 12:0.75043029 13:0.8188116 
1 1:1 2:-1 3:-1 4:-1 5:0.64771278 6:0.0024933106 7:0.00072974945 8:1 9:-1 10:0 11:0.080924855 12:0.91907514 13:1.0592613 
1 1:1 2:-1 3:-1 4:-1 5:0.64771278 6:0.000668937 7:0.0029798103 8:-1 9:-1 10:0 11:0.38888889 12:0.61111111 13:0.68478017 
1 1:1 2:-1 3:-1 4:-1 5:0.64771278 6:0.00012162491 7:0.001337874 8:1 9:-1 10:0 11:0.018382353 12:0.98161765 13:1.1607566 
1 1:1 2:-1 3:-1 4:-1 5:0.64771278 6:0.00012162491 7:0.00012162491 8:-1 9:-1 10:0 11:0.11320755 12:0.88679245 13:1.0089428 
1 1:1 2:-1 3:-1 4:-1 5:0.034505802 6:0.0070542447 7:0.004013622 8:1 9:-1 10:0 11:0.61495063 12:0.38504937 13:0.23261796 
1 1:1 2:-1 3:-1 4:-1 5:0.64771278 6:0.0072974945 7:0.012588178 8:1 9:-1 10:0 11:0.63888889 12:0.36111111 13:0.70491421 
1 1:1 2:-1 3:-1 4:-1 5:0.64771278 6:0.021892484 7:0.037642909 8:1 9:-1 10:0 11:0.60898228 12:0.39101772 13:0.6847895 
1 1:1 2:-1 3:-1 4:-1 5:0.023084867 6:0.00054731209 7:0.00012162491 8:1 9:-1 10:0 11:0 12:0 13:0.023091675 
1 1:1 2:-1 3:-1 4:-1 5:0.64771278 6:0.010094867 7:0.0024324982 8:1 9:-1 10:0 11:0.46855346 12:0.53144654 13:0.65084192 
1 1:1 2:-1 3:-1 4:-1 5:0.64771278 6:0.0088178059 7:0.016297738 8:1 9:-1 10:0 11:0.45163337 12:0.54836663 13:0.6551584 
1 1:1 2:-1 3:-1 4:-1 5:0.017192151 6:0.003344685 7:0.0035879348 8:1 9:-1 10:0 11:0.7173913 12:0.2826087 13:0.43515003 
1 1:1 2:-1 3:-1 4:-1 5:0.64771278 6:0.0040744344 7:0.0080880564 8:1 9:-1 10:0 11:0.72523745 12:0.27476255 13:0.78901299 
1 1:1 2:-1 3:-1 4:-1 5:0.64771278 6:0.0063244953 7:0.0086353685 8:1 9:-1 10:0 11:0.70149254 12:0.29850746 13:0.76291768 
1 1:1 2:-1 3:-1 4:-1 5:0.0020047385 6:0.0055339333 7:0.00079056191 8:1 9:-1 10:0 11:0.72445255 12:0.27554745 13:0.44894439 
1 1:1 2:1 3:-1 4:-1 5:0.0001214993 6:0.022257358 7:0.029919728 8:1 9:-1 10:0 11:0.70592088 12:0.29407912 13:0.41352658 
1 1:1 2:-1 3:-1 4:-1 5:0.034505802 6:0.002006811 7:0.0031014352 8:1 9:-1 10:0 11:0.75789474 12:0.24210526 13:0.51695559 
1 1:1 2:-1 3:-1 4:-1 5:0.64771278 6:0.0052906835 7:0.016784237 8:1 9:-1 10:0 11:0.73893805 12:0.26106195 13:0.80511311 
1 1:1 2:-1 3:-1 4:-1 5:0.0020047385 6:0.00085137436 7:0.0062028703 8:1 9:-1 10:0 11:0.7173913 12:0.2826087 13:0.43483231 
1 1:1 2:-1 3:-1 4:-1 5:6.0749651e-05 6:0.0041352469 7:0.0027365604 8:1 9:-1 10:0 11:0.75 12:0.25 13:0.50002459 
1 1:1 2:-1 3:-1 4:-1 5:0.0001214993 6:0.0082096813 7:0.024081732 8:1 9:-1 10:0 11:0.78634361 12:0.21365639 13:0.57325213 
1 1:1 2:-1 3:-1 4:-1 5:0.64771278 6:0.0071758696 7:0.0067501824 8:1 9:-1 10:0 11:0.74757282 12:0.25242718 13:0.81535152 
1 1:1 2:-1 3:-1 4:-1 5:0.034505802 6:0.0018851861 7:0.0058988081 8:1 9:-1 10:0 11:0.75 12:0.25 13:0.50122749 
1 1:1 2:-1 3:-1 4:-1 5:0.017192151 6:0.0010338117 7:0.014838239 8:1 9:-1 10:0 11:0.75 12:0.25 13:0.50051655 
1 1:1 2:-1 3:-1 4:-1 5:0.034505802 6:0.015203114 7:0.011067867 8:1 9:-1 10:0 11:0.70165746 12:0.29834254 13:0.40522488 
1 1:1 2:-1 3:-1 4:-1 5:0.64771278 6:0.0012770615 7:0.00012162491 8:1 9:-1 10:0 11:0.73170732 12:0.26829268 13:0.79642113 
1 1:1 2:-1 3:-1 4:-1 5:0.64771278 6:0.018608611 7:0.0049258088 8:1 9:-1 10:0 11:0.72756801 12:0.27243199 13:0.79186563 
1 1:1 2:-1 3:-1 4:-1 5:0.64771278 6:0.011128679 7:0.013561177 8:1 9:-1 10:0 11:0.74117053 12:0.25882947 13:0.80777008 
1 1:1 2:-1 3:-1 4:-1 5:0.64771278 6:0.010277305 7:0.018122111 8:1 9:-1 10:0 11:0.70034193 12:0.29965807 13:0.76191432 
0.8765444198516442 1:1 2:1 3:-1 4:-1 5:0.0031589818 6:0.050352712 7:0.0048041839 8:1 9:-1 10:0 11:0.80563003 12:0.19436997 13:0.61335741 
1 1:1 2:-1 3:-1 4:-1 5:0.64771278 6:0.024324982 7:0.003344685 8:1 9:-1 10:0 11:0.73399716 12:0.26600284 13:0.7994707 
1 1:1 2:-1 3:-1 4:-1 5:0.64771278 6:0.043420092 7:0.0034663099 8:1 9:-1 10:0 11:0.72727273 12:0.27272727 13:0.79249021 
1 1:1 2:-1 3:-1 4:-1 5:0.64771278 6:0.0021892484 7:0.0071758696 8:1 9:-1 10:0 11:0.74626866 12:0.25373134 13:0.81374513 
1 1:1 2:-1 3:-1 4:-1 5:0.64771278 6:0.0029189978 7:0.011189492 8:1 9:-1 10:0 11:0.73493976 12:0.26506024 13:0.80028265 
1 1:1 2:-1 3:-1 4:-1 5:0.64771278 6:0.013926052 7:0.0069934323 8:1 9:-1 10:0 11:0.7002492 12:0.2997508 13:0.76169131 
1 1:1 2:-1 3:-1 4:-1 5:0.64771278 6:0.0036487473 7:0.016723425 8:1 9:-1 10:0 11:0.73076923 12:0.26923077 13:0.79551403 
1 1:1 2:-1 3:-1 4:-1 5:0.64771278 6:0.0070542447 7:0.00048649964 8:1 9:-1 10:0 11:0.7357513 12:0.2642487 13:0.80118446 
1 1:1 2:-1 3:-1 4:-1 5:0.64771278 6:0.011250304 7:0.0096691802 8:1 9:-1 10:0 11:0.7015625 12:0.2984375 13:0.76306072 
1 1:1 2:-1 3:-1 4:-1 5:0.64771278 6:0.010520555 7:0.0034663099 8:1 9:-1 10:0 11:0.70535291 12:0.29464709 13:0.76702921 
1 1:1 2:-1 3:-1 4:-1 5:0.0001214993 6:6.0812454e-05 7:0.00097299927 8:1 9:-1 10:0 11:1 12:0 13:1.0000005 
1 1:1 2:-1 3:-1 4:1 5:0.00042524755 6:0.0098516176 7:0.0098516176 8:1 9:-1 10:0 11:0.70473083 12:0.29526917 13:0.40969885 
1 1:1 2:-1 3:-1 4:-1 5:0.013547172 6:0.0022500608 7:0.0050474337 8:1 9:-1 10:0 11:0.77155172 12:0.22844828 13:0.54330049 
1 1:1 2:-1 3:-1 4:-1 5:0.013547172 6:0.002675748 7:0.013743615 8:1 9:-1 10:0 11:0.7618165 12:0.2381835 13:0.52399531 
1 1:1 2:-1 3:-1 4:-1 5:0.64771278 6:0.019277548 7:0.01733155 8:1 9:-1 10:0 11:0.73625476 12:0.26374524 13:0.80216526 
1 1:1 2:-1 3:-1 4:-1 5:0.00030374825 6:0.00054731209 7:0.00024324982 8:1 9:-1 10:0 11:1 12:0 13:1.0000002 
1 1:1 2:-1 3:-1 4:-1 5:0.64771278 6:0.025297981 7:0.031075164 8:1 9:-1 10:0 11:0.73399716 12:0.26600284 13:0.8000976 
1 1:1 2:-1 3:-1 4:-1 5:0.64771278 6:0.032169788 7:0.0036487473 8:1 9:-1 10:0 11:0.73624824 12:0.26375176 13:0.80239203 
1 1:1 2:-1 3:-1 4:-1 5:0.64771278 6:0.00091218682 7:0.0046217465 8:1 9:-1 10:0 11:0.73501577 12:0.26498423 13:0.80030225 
1 1:1 2:-1 3:-1 4:-1 5:0.00060749651 6:0.0029798103 7:0.0032838725 8:1 9:-1 10:0 11:0.74449339 12:0.25550661 13:0.48900727 
1 1:1 2:-1 3:-1 4:-1 5:0.023084867 6:0.00018243736 7:0.00030406227 8:1 9:-1 10:0 11:0.75 12:0.25 13:0.50053275 
1 1:1 2:-1 3:-1 4:-1 5:0.64771278 6:0.0027365604 7:0.010763804 8:1 9:-1 10:0 11:0.74689826 12:0.25310174 13:0.81454908 
1 1:1 2:-1 3:-1 4:-1 5:0.017192151 6:0.0010338117 7:0.015507176 8:1 9:-1 10:0 11:0.70588235 12:0.29411765 13:0.4124164 
1 1:1 2:-1 3:-1 4:-1 5:6.0749651e-05 6:0.025237169 7:0.020250547 8:1 9:-1 10:0 11:0.75714286 12:0.24285714 13:0.51530263 
1 1:1 2:-1 3:-1 4:-1 5:0.64771278 6:0.0084529312 7:0.020432985 8:1 9:-1 10:0 11:0.73140496 12:0.26859504 13:0.79637543 
1 1:1 2:-1 3:-1 4:-1 5:0.64771278 6:0.00079056191 7:0.0044393092 8:1 9:-1 10:0 11:0.73333333 12:0.26666667 13:0.79832947 
1 1:1 2:-1 3:-1 4:-1 5:0.64771278 6:0.0072974945 7:0.045122841 8:1 9:-1 10:0 11:0.7125 12:0.2875 13:0.77604521 
1 1:1 2:-1 3:-1 4:-1 5:0.00030374825 6:0.0070542447 7:0.015993676 8:1 9:-1 10:0 11:0.79252577 12:0.20747423 13:0.58531271 
1 1:1 2:-1 3:-1 4:-1 5:0.64771278 6:0.0052906835 7:0.0064461202 8:1 9:-1 10:0 11:0.72727273 12:0.27272727 13:0.79133618 
1 1:1 2:-1 3:-1 4:-1 5:0.64771278 6:0.0036487473 7:0.020919484 8:1 9:-1 10:0 11:0.74537037 12:0.25462963 13:0.81290175 
1 1:1 2:-1 3:-1 4:-1 5:0.0002429986 6:0.0035271224 7:0.0161153 8:1 9:-1 10:0 11:0.74409938 12:0.25590062 13:0.48847746 
1 1:1 2:-1 3:-1 4:-1 5:0.055464431 6:0.0055339333 7:0.0083313063 8:1 9:-1 10:0 11:0.71610169 12:0.28389831 13:0.43586249 
1 1:1 2:-1 3:-1 4:-1 5:0.0027944839 6:0.0096083678 7:0.0066285575 8:1 9:-1 10:0 11:0.73489933 12:0.26510067 13:0.46995196 
1 1:1 2:-1 3:-1 4:-1 5:0.017192151 6:0.0010946242 7:0.00054731209 8:1 9:-1 10:0 11:0.72727273 12:0.27272727 13:0.45487211 
1 1:1 2:-1 3:-1 4:-1 5:0.64771278 6:0.0099732425 7:0.012405741 8:1 9:-1 10:0 11:0.73507207 12:0.26492793 13:0.80051278 
1 1:1 2:-1 3:-1 4:-1 5:0.64771278 6:0.014959864 7:0.027122355 8:1 9:-1 10:0 11:0.7375958 12:0.2624042 13:0.80392682 
1 1:1 2:-1 3:-1 4:-1 5:0.64771278 6:0.0027973729 7:0.0042568718 8:1 9:-1 10:0 11:0.70114943 12:0.29885057 13:0.76249731 
1 1:1 2:1 3:-1 4:-1 5:6.0749651e-05 6:0.0066285575 7:0.0017635612 8:1 9:-1 10:0 11:0.75974026 12:0.24025974 13:0.5195258 
1 1:1 2:-1 3:-1 4:-1 5:0.034505802 6:0.011371929 7:0.0094867429 8:1 9:-1 10:0 11:0.77168065 12:0.22831935 13:0.54465721 
1 1:1 2:-1 3:-1 4:-1 5:0.64771278 6:0.014716614 7:0.01362199 8:1 9:-1 10:0 11:0.73802198 12:0.26197802 13:0.80408446 
1 1:1 2:-1 3:-1 4:-1 5:0.64771278 6:0.0038919971 7:0.0045001216 8:1 9:-1 10:0 11:0.74107143 12:0.25892857 13:0.80748311 
1 1:1 2:-1 3:-1 4:-1 5:0.64771278 6:0.010824617 7:0.0091218682 8:1 9:-1 10:0 11:0.70668317 12:0.29331683 13:0.76850761 
1 1:1 2:-1 3:-1 4:-1 5:0.64771278 6:0.002675748 7:0.010702992 8:1 9:-1 10:0 11:0.71929825 12:0.28070175 13:0.78231735 
1 1:1 2:-1 3:-1 4:-1 5:0.013547172 6:0.015263926 7:0.013500365 8:1 9:-1 10:0 11:0.75383044 12:0.24616956 13:0.50825027 
1 1:1 2:-1 3:-1 4:-1 5:0.64771278 6:0.0069326198 7:0.0079664315 8:1 9:-1 10:0 11:0.74193548 12:0.25806452 13:0.80856322 
0.3398922394398366 1:1 2:-1 3:-1 4:-1 5:0.081222283 6:0.00042568718 7:0.0039528095 8:1 9:-1 10:0 11:0.75 12:0.25 13:0.5065697 
1 1:1 2:-1 3:-1 4:-1 5:0.00030374825 6:0.0023108733 7:0.012223303 8:1 9:-1 10:0 11:0.76962395 12:0.23037605 13:0.53939145 
1 1:1 2:-1 3:-1 4:-1 5:0.034505802 6:0.044514717 7:0.032473851 8:1 9:-1 10:0 11:0.73737374 12:0.26262626 13:0.47917839 
1 1:1 2:-1 3:-1 4:-1 5:0.034505802 6:0.0099732425 7:0.012344928 8:1 9:-1 10:0 11:0.74788041 12:0.25211959 13:0.49721354 
1 1:1 2:1 3:-1 4:-1 5:0.0031589818 6:0.013682802 7:0.012223303 8:-1 9:-1 10:0 11:0.74418605 12:0.25581395 13:0.48872682 
1 1:1 2:-1 3:-1 4:-1 5:0.034505802 6:0.044210654 7:0.0054123084 8:1 9:-1 10:0 11:0.7670537 12:0.2329463 13:0.53707098 
1 1:1 2:-1 3:-1 4:-1 5:6.0749651e-05 6:0.024324982 7:0.024750669 8:1 9:-1 10:0 11:0.77536886 12:0.22463114 13:0.55183 
1 1:1 2:-1 3:-1 4:-1 5:0.017192151 6:0.003344685 7:0.0035879348 8:1 9:-1 10:0 11:0.7173913 12:0.2826087 13:0.43515003 
1 1:1 2:-1 3:-1 4:-1 5:0.013547172 6:0.032169788 7:0.0036487473 8:1 9:-1 10:0 11:0.73624824 12:0.26375176 13:0.47379811 
1 1:1 2:-1 3:-1 4:-1 5:0.64771278 6:0.010094867 7:0.0067501824 8:1 9:-1 10:0 11:0.72620321 12:0.27379679 13:0.79015877 
1 1:1 2:-1 3:-1 4:-1 5:0.64771278 6:0.0024933106 7:0.0016419363 8:1 9:-1 10:0 11:0.70614035 12:0.29385965 13:0.76779954 
1 1:1 2:-1 3:-1 4:-1 5:0.002429986 6:0.0015811238 7:0.0070542447 8:1 9:-1 10:0 11:0.76612903 12:0.23387097 13:0.5323127 
1 1:1 2:-1 3:-1 4:-1 5:0.055464431 6:0.0074799319 7:0.013500365 8:1 9:-1 10:0 11:0.74852941 12:0.25147059 13:0.50038184 
1 1:1 2:-1 3:-1 4:-1 5:0.64771278 6:0.018365361 7:0.0040744344 8:1 9:-1 10:0 11:0.72017354 12:0.27982646 13:0.78344832 
1 1:1 2:-1 3:-1 4:-1 5:0.64771278 6:0.045122841 7:0.0072366821 8:1 9:-1 10:0 11:0.71666667 12:0.28333333 13:0.78063952 
1 1:1 2:-1 3:-1 4:-1 5:0.055464431 6:0.0051082462 7:0.018791048 8:1 9:-1 10:0 11:0.7515528 12:0.2484472 13:0.50652812 
1 1:1 2:-1 3:-1 4:-1 5:0.64771278 6:0.010094867 7:0.048102651 8:1 9:-1 10:0 11:0.71399177 12:0.28600823 13:0.777893 
1 1:1 2:-1 3:-1 4:-1 5:0.034505802 6:0.022196546 7:0.018851861 8:1 9:-1 10:0 11:0.75167785 12:0.24832215 13:0.50537679 
1 1:1 2:-1 3:-1 4:-1 5:0.034505802 6:0.054244709 7:0.0058379956 8:1 9:-1 10:0 11:0.75883257 12:0.24116743 13:0.52167462 
1 1:1 2:1 3:-1 4:-1 5:0.00066824616 6:0.021770859 7:0.066468013 8:1 9:-1 10:0 11:0.79665072 12:0.20334928 13:0.59741025 
1 1:1 2:-1 3:-1 4:-1 5:0.00030374825 6:0.01039893 7:0.0091218682 8:1 9:-1 10:0 11:0.72169211 12:0.27830789 13:0.44360005 
1 1:1 2:-1 3:-1 4:-1 5:0.64771278 6:0.0021892484 7:0.0038919971 8:1 9:-1 10:0 11:0.72413793 12:0.27586207 13:0.78772015 
0.458501095621043 1:1 2:-1 3:-1 4:-1 5:0.00030374825 6:0.00097299927 7:6.0812454e-05 8:1 9:-1 10:0 11:1 12:0 13:1.0000005 
1 1:1 2:-1 3:-1 4:-1 5:0.034505802 6:0.0062636828 7:0.030588665 8:1 9:-1 10:0 11:0.76490439 12:0.23509561 13:0.53184856 
1 1:1 2:-1 3:-1 4:-1 5:0.0055889679 6:0.00048649964 7:0.017939674 8:1 9:-1 10:0 11:0.71428571 12:0.28571429 13:0.42898342 
1 1:1 2:-1 3:-1 4:-1 5:0.64771278 6:0.0048041839 7:0.018182924 8:1 9:-1 10:0 11:0.73160173 12:0.26839827 13:0.79651929 
1 1:1 2:-1 3:-1 4:-1 5:0.013547172 6:0.0049258088 7:0.0051690586 8:1 9:-1 10:0 11:0.74375821 12:0.25624179 13:0.48775688 
1 1:1 2:-1 3:-1 4:-1 5:0.013547172 6:0.0031622476 7:0.0036487473 8:1 9:-1 10:0 11:0.75587703 12:0.24412297 13:0.51195612 
1 1:1 2:-1 3:-1 4:-1 5:0.013547172 6:0.015263926 7:0.01064218 8:1 9:-1 10:0 11:0.73809524 12:0.26190476 13:0.47674641 
1 1:1 2:-1 3:-1 4:-1 5:0.013547172 6:0.0035879348 7:0.0047433714 8:1 9:-1 10:0 11:0.76744186 12:0.23255814 13:0.5350883 
1 1:1 2:1 3:-1 4:-1 5:0.0031589818 6:0.049258088 7:0.0074799319 8:-1 9:-1 10:0 11:0.72916667 12:0.27083333 13:0.46104418 
1 1:1 2:-1 3:-1 4:-1 5:0.64771278 6:0.0069934323 7:0.013561177 8:1 9:-1 10:0 11:0.74197183 12:0.25802817 13:0.80868172 
1 1:1 2:-1 3:-1 4:-1 5:0.034505802 6:0.011980054 7:0.012953053 8:1 9:-1 10:0 11:0.71395076 12:0.28604924 13:0.42965296 
1 1:1 2:-1 3:-1 4:-1 5:0.055464431 6:0.0036487473 7:0.010034055 8:1 9:-1 10:0 11:0.74537037 12:0.25462963 13:0.49398054 
1 1:1 2:-1 3:-1 4:-1 5:0.00060749651 6:0.048832401 7:0.0079056191 8:1 9:-1 10:0 11:0.76724138 12:0.23275862 13:0.53676745 
1 1:1 2:-1 3:-1 4:-1 5:0.017192151 6:0.00030406227 7:0.013196303 8:1 9:-1 10:0 11:0.72727273 12:0.27272727 13:0.45506195 
1 1:1 2:-1 3:-1 4:-1 5:0.64771278 6:0.02700073 7:0.02602773 8:1 9:-1 10:0 11:0.74119449 12:0.25880551 13:0.80847847 
1 1:1 2:-1 3:-1 4:-1 5:6.0749651e-05 6:0.020007297 7:0.004013622 8:1 9:-1 10:0 11:0.796875 12:0.203125 13:0.59410055 
1 1:1 2:-1 3:-1 4:-1 5:0.013547172 6:0.00072974945 7:0.0032230601 8:1 9:-1 10:0 11:0.73880597 12:0.26119403 13:0.47781546 
1 1:1 2:-1 3:-1 4:-1 5:6.0749651e-05 6:0.0099124301 7:0.0327171 8:1 9:-1 10:0 11:0.73162636 12:0.26837364 13:0.46451239 
1 1:1 2:-1 3:-1 4:-1 5:0.64771278 6:0.0036487473 7:0.0046217465 8:1 9:-1 10:0 11:0.7300885 12:0.2699115 13:0.79456238 
1 1:1 2:-1 3:-1 4:-1 5:0.034505802 6:0.0043784967 7:0.026575043 8:1 9:-1 10:0 11:0.7291372 12:0.2708628 13:0.46036016 
1 1:1 2:-1 3:-1 4:-1 5:0.64771278 6:0.0031014352 7:0.024385794 8:1 9:-1 10:0 11:0.74032258 12:0.25967742 13:0.80694231 
1 1:1 2:-1 3:-1 4:-1 5:6.0749651e-05 6:0.0012770615 7:0.0017027487 8:1 9:-1 10:0 11:0.75 12:0.25 13:0.50000453 
1 1:1 2:-1 3:-1 4:-1 5:0.017192151 6:0.00091218682 7:0.0038311846 8:1 9:-1 10:0 11:0.71052632 12:0.28947368 13:0.42142188 
1 1:1 2:-1 3:-1 4:-1 5:0.017192151 6:0.0021284359 7:0.004013622 8:1 9:-1 10:0 11:0.75 12:0.25 13:0.50031611 
1 1:1 2:-1 3:-1 4:-1 5:0.013547172 6:0.044271467 7:0.0043176843 8:1 9:-1 10:0 11:0.70292887 12:0.29707113 13:0.40851271 
1 1:1 2:-1 3:-1 4:-1 5:0.64771278 6:0.0051690586 7:0.016784237 8:1 9:-1 10:0 11:0.73501577 12:0.26498423 13:0.80048106 
1 1:1 2:-1 3:-1 4:-1 5:0.64771278 6:0.0058379956 7:0.038311846 8:1 9:-1 10:0 11:0.74025974 12:0.25974026 13:0.80742349 
1 1:1 2:-1 3:-1 4:-1 5:0.0020047385 6:0.0060812454 7:0.015263926 8:1 9:-1 10:0 11:0.78723404 12:0.21276596 13:0.57470651 
1 1:1 2:-1 3:-1 4:-1 5:0.0020047385 6:0.0027365604 7:0.022743858 8:1 9:-1 10:0 11:0.75 12:0.25 13:0.50052851 
1 1:1 2:-1 3:-1 4:-1 5:0.002429986 6:0.0093043055 7:0.0079056191 8:1 9:-1 10:0 11:0.74537037 12:0.25462963 13:0.49089861 
1 1:1 2:-1 3:-1 4:-1 5:0.64771278 6:0.007358307 7:0.0065069326 8:1 9:-1 10:0 11:0.70515464 12:0.29484536 13:0.76679986 
1 1:1 2:-1 3:-1 4:-1 5:0.055464431 6:0.0029189978 7:0.00085137436 8:1 9:-1 10:0 11:0.75113809 12:0.24886191 13:0.50533841 
1 1:1 2:1 3:-1 4:-1 5:0.0001214993 6:0.0071758696 7:0.00036487473 8:-1 9:-1 10:0 11:0.72222222 12:0.27777778 13:0.44450254 
1 1:1 2:-1 3:-1 4:-1 5:0.013547172 6:0.0034054974 7:0.0068109949 8:1 9:-1 10:0 11:0.70724638 12:0.29275362 13:0.41478399 
1 1:1 2:-1 3:-1 4:-1 5:0.034505802 6:0.0095475553 7:0.01289224 8:1 9:-1 10:0 11:0.715311 12:0.284689 13:0.43230005 
1 1:1 2:-1 3:-1 4:-1 5:0.64771278 6:0.0029189978 7:0.011189492 8:1 9:-1 10:0 11:0.73493976 12:0.26506024 13:0.80028265 
1 1:1 2:-1 3:-1 4:-1 5:0.64771278 6:0.0017635612 7:0.0032230601 8:1 9:-1 10:0 11:0.74642857 12:0.25357143 13:0.81391247 
1 1:1 2:-1 3:-1 4:-1 5:0.64771278 6:0.026453418 7:0.011128679 8:1 9:-1 10:0 11:0.71963678 12:0.28036322 13:0.7831454 
1 1:1 2:-1 3:-1 4:-1 5:0.0047384728 6:0.057528582 7:0.012344928 8:1 9:-1 10:0 11:0.77996803 12:0.22003197 13:0.56303889 
1 1:1 2:1 3:-1 4:-1 5:0.0015187413 6:0.0067501824 7:0.012284116 8:1 9:-1 10:0 11:0.71965066 12:0.28034934 13:0.43952749 
1 1:1 2:-1 3:-1 4:-1 5:0.081222283 6:0.00048649964 7:0.0036487473 8:1 9:-1 10:0 11:0.75 12:0.25 13:0.50656748 
1 1:1 2:-1 3:-1 4:-1 5:0.64771278 6:0.030284602 7:0.0085745561 8:1 9:-1 10:0 11:0.71503268 12:0.28496732 13:0.77812514 
1 1:1 2:-1 3:-1 4:-1 5:6.0749651e-05 6:0.0027365604 7:0.017027487 8:1 9:-1 10:0 11:0.70106762 12:0.29893238 13:0.40250487 
1 1:1 2:-1 3:-1 4:-1 5:0.64771278 6:0.0032838725 7:0.0021284359 8:1 9:-1 10:0 11:0.73076923 12:0.26923077 13:0.79533949 
1 1:1 2:-1 3:-1 4:-1 5:6.0749651e-05 6:0.002006811 7:0.0015203114 8:1 9:-1 10:0 11:0.70588235 12:0.29411765 13:0.41177241 
1 1:1 2:-1 3:-1 4:-1 5:0.64771278 6:0.025480418 7:0.0034663099 8:1 9:-1 10:0 11:0.73033708 12:0.26966292 13:0.79524448 
1 1:1 2:-1 3:-1 4:-1 5:0.013547172 6:0.0094867429 7:0.021466796 8:1 9:-1 10:0 11:0.7818062 12:0.2181938 13:0.56426348 
1 1:1 2:-1 3:-1 4:-1 5:6.0749651e-05 6:0.0052906835 7:0.0061420579 8:1 9:-1 10:0 11:0.74509804 12:0.25490196 13:0.49026311 
1 1:1 2:-1 3:-1 4:-1 5:0.013547172 6:0.026635855 7:0.030284602 8:1 9:-1 10:0 11:0.76480241 12:0.23519759 13:0.53131103 
1 1:1 2:-1 3:-1 4:-1 5:0.64771278 6:0.020250547 7:0.0065069326 8:1 9:-1 10:0 11:0.71444569 12:0.28555431 13:0.77713067 
1 1:1 2:-1 3:-1 4:-1 5:0.081222283 6:0.0010338117 7:0.0016419363 8:1 9:-1 10:0 11:0.75 12:0.25 13:0.50655782 
1 1:1 2:-1 3:-1 4:-1 5:0.64771278 6:0.0037095597 7:0.0021892484 8:1 9:-1 10:0 11:0.71753986 12:0.28246014 13:0.78028505 
1 1:1 2:-1 3:-1 4:-1 5:0.64771278 6:0.0037095597 7:0.015567988 8:1 9:-1 10:0 11:0.74210526 12:0.25789474 13:0.80885586 
1 1:1 2:-1 3:-1 4:-1 5:6.0749651e-05 6:0.00030406227 7:0.0042568718 8:1 9:-1 10:0 11:0.8 12:0.2 13:0.60001518 
1 1:1 2:-1 3:-1 4:-1 5:0.64771278 6:0.0044393092 7:0.040440282 8:1 9:-1 10:0 11:0.70662461 12:0.29337539 13:0.76939059 
1 1:1 2:-1 3:-1 4:-1 5:0.64771278 6:0.0029798103 7:0.0032230601 8:1 9:-1 10:0 11:0.73933333 12:0.26066667 13:0.80540231 
1 1:1 2:-1 3:-1 4:-1 5:0.64771278 6:0.010277305 7:0.012953053 8:1 9:-1 10:0 11:0.70635559 12:0.29364441 13:0.76820294 
1 1:1 2:-1 3:-1 4:-1 5:0.64771278 6:0.027426417 7:0.0038919971 8:1 9:-1 10:0 11:0.72716763 12:0.27283237 13:0.79165632 
1 1:1 2:-1 3:-1 4:-1 5:0.64771278 6:0.0080880564 7:0.012527366 8:1 9:-1 10:0 11:0.72962227 12:0.27037773 13:0.79414088 
1 1:1 2:-1 3:-1 4:-1 5:0.64771278 6:0.026088543 7:0.0040744344 8:1 9:-1 10:0 11:0.7367688 12:0.2632312 13:0.80278697 
1 1:1 2:-1 3:-1 4:-1 5:0.0055889679 6:0.00060812454 7:0.009365118 8:1 9:-1 10:0 11:0.71428571 12:0.28571429 13:0.4287106 
1 1:1 2:-1 3:-1 4:-1 5:0.64771278 6:0.0072366821 7:0.019703235 8:1 9:-1 10:0 11:0.72650475 12:0.27349525 13:0.7906896 
1 1:1 2:-1 3:-1 4:-1 5:0.64771278 6:0.0045001216 7:0.0079664315 8:1 9:-1 10:0 11:0.74537037 12:0.25462963 13:0.81267585 
1 1:1 2:1 3:-1 4:-1 5:6.0749651e-05 6:0.015993676 7:0.040561907 8:1 9:-1 10:0 11:0.78747204 12:0.21252796 13:0.57659497 
1 1:1 2:-1 3:-1 4:-1 5:0.64771278 6:0.0079056191 7:0.00048649964 8:1 9:-1 10:0 11:0.71465969 12:0.28534031 13:0.77711627 
1 1:1 2:-1 3:-1 4:-1 5:0.081222283 6:0.0043784967 7:0.013196303 8:1 9:-1 10:0 11:0.73333333 12:0.26666667 13:0.47388622 
1 1:1 2:-1 3:-1 4:-1 5:0.034505802 6:0.0052298711 7:0.028216979 8:1 9:-1 10:0 11:0.70730305 12:0.29269695 13:0.41702807 
1 1:1 2:-1 3:-1 4:-1 5:0.017192151 6:0.00042568718 7:0.001337874 8:1 9:-1 10:0 11:0.72 12:0.28 13:0.44033799 
1 1:1 2:1 3:-1 4:-1 5:0.002612235 6:0.00085137436 7:0.0034663099 8:-1 9:-1 10:0 11:0.7173913 12:0.2826087 13:0.43480511 
1 1:1 2:-1 3:-1 4:-1 5:0.013547172 6:0.043663342 7:0.0046217465 8:1 9:-1 10:0 11:0.73568282 12:0.26431718 13:0.47359998 
1 1:1 2:1 3:-1 4:-1 5:0.0031589818 6:0.011007054 7:0.020919484 8:-1 9:-1 10:0 11:0.72992701 12:0.27007299 13:0.46047201 
0.8645646891809848 1:1 2:1 3:-1 4:1 5:0.0002429986 6:0.0038311846 7:0.0057771832 8:-1 9:-1 10:0 11:0.92469687 12:0.075303127 13:0.84942207 
1 1:1 2:-1 3:-1 4:-1 5:0.0014579916 6:0.0050474337 7:0.016176113 8:1 9:-1 10:0 11:0.74596774 12:0.25403226 13:0.49222941 
1 1:1 2:-1 3:-1 4:-1 5:0.034505802 6:0.016905862 7:0.02304792 8:1 9:-1 10:0 11:0.7565758 12:0.2434242 13:0.5151041 
1 1:1 2:-1 3:-1 4:-1 5:0.017192151 6:0.00048649964 7:0.0088786183 8:1 9:-1 10:0 11:0.75 12:0.25 13:0.5003745 
1 1:1 2:-1 3:-1 4:-1 5:0.0055282182 6:0.017757237 7:0.0018243736 8:1 9:-1 10:0 11:0.73224044 12:0.26775956 13:0.46485664 
1 1:1 2:-1 3:-1 4:-1 5:0.055464431 6:0.024629044 7:0.0034054974 8:1 9:-1 10:0 11:0.734375 12:0.265625 13:0.47267436 
1 1:1 2:-1 3:-1 4:-1 5:0.64771278 6:0.0045001216 7:0.0021892484 8:1 9:-1 10:0 11:0.70841487 12:0.29158513 13:0.77026224 
1 1:1 2:-1 3:-1 4:-1 5:0.017192151 6:0.00097299927 7:0.0091218682 8:1 9:-1 10:0 11:0.74025974 12:0.25974026 13:0.48091444 
1 1:1 2:-1 3:-1 4:-1 5:0.00030374825 6:0.0097908052 7:0.0077839942 8:1 9:-1 10:0 11:0.79781421 12:0.20218579 13:0.59575981 
1 1:1 2:-1 3:-1 4:-1 5:0.64771278 6:0.01015568 7:0.012344928 8:1 9:-1 10:0 11:0.73055556 12:0.26944444 13:0.79524262 
1 1:1 2:-1 3:-1 4:-1 5:0.017192151 6:6.0812454e-05 7:6.0812454e-05 8:1 9:-1 10:0 11:0.71212121 12:0.28787879 13:0.42459064 
1 1:1 2:-1 3:-1 4:-1 5:0.64771278 6:0.0037095597 7:0.0030406227 8:1 9:-1 10:0 11:0.74178404 12:0.25821596 13:0.80832724 
1 1:1 2:-1 3:-1 4:-1 5:0.013547172 6:0.011736804 7:0.037946972 8:1 9:-1 10:0 11:0.77042802 12:0.22957198 13:0.54248179 
1 1:1 2:-1 3:-1 4:-1 5:0.017192151 6:0.0024324982 7:0.0023108733 8:1 9:-1 10:0 11:0.75 12:0.25 13:0.50030673 
1 1:1 2:-1 3:-1 4:-1 5:0.034505802 6:0.012284116 7:0.049866213 8:1 9:-1 10:0 11:0.75988225 12:0.24011775 13:0.52343417 
1 1:1 2:-1 3:-1 4:-1 5:0.64771278 6:0.0091218682 7:0.0045609341 8:1 9:-1 10:0 11:0.70235935 12:0.29764065 13:0.76382791 
1 1:1 2:-1 3:-1 4:-1 5:0.017192151 6:0.00042568718 7:0.024689856 8:1 9:-1 10:0 11:0.75 12:0.25 13:0.50090452 
1 1:1 2:-1 3:-1 4:-1 5:0.017192151 6:0.00024324982 7:0.00060812454 8:1 9:-1 10:0 11:0.72727273 12:0.27272727 13:0.45487094 
1 1:1 2:-1 3:-1 4:-1 5:0.0014579916 6:0.0059596205 7:0.0040744344 8:1 9:-1 10:0 11:0.70434783 12:0.29565217 13:0.40876201 
1 1:1 2:-1 3:-1 4:-1 5:0.0014579916 6:0.016176113 7:0.062332766 8:1 9:-1 10:0 11:0.74879923 12:0.25120077 13:0.50175033 
1 1:1 2:-1 3:-1 4:-1 5:0.64771278 6:0.014412552 7:0.011250304 8:1 9:-1 10:0 11:0.71438746 12:0.28561254 13:0.77699039 
1 1:1 2:-1 3:-1 4:-1 5:0.0017009902 6:0.012953053 7:0.0054731209 8:1 9:-1 10:0 11:0.73895582 12:0.26104418 13:0.4781215 
1 1:1 2:-1 3:-1 4:-1 5:0.64771278 6:0.025054731 7:0.012344928 8:1 9:-1 10:0 11:0.73991655 12:0.26008345 13:0.8065679 
1 1:1 2:-1 3:-1 4:-1 5:0.64771278 6:0.0063853077 7:0.0021892484 8:1 9:-1 10:0 11:0.74173118 12:0.25826882 13:0.80827795 
1 1:1 2:-1 3:-1 4:-1 5:6.0749651e-05 6:0.00060812454 7:0.00030406227 8:1 9:-1 10:0 11:1 12:0 13:1.0000002 
1 1:1 2:-1 3:-1 4:-1 5:0.64771278 6:0.027669667 7:0.0065069326 8:1 9:-1 10:0 11:0.72413793 12:0.27586207 13:0.78822017 
1 1:1 2:-1 3:-1 4:-1 5:0.055464431 6:0.048528339 7:0.0077231817 8:1 9:-1 10:0 11:0.73389356 12:0.26610644 13:0.47361982 
1 1:1 2:-1 3:-1 4:-1 5:0.64771278 6:0.0050474337 7:0.020615422 8:1 9:-1 10:0 11:0.74522293 12:0.25477707 13:0.81272348 
1 1:1 2:-1 3:-1 4:-1 5:0.64771278 6:0.0035271224 7:0.0085745561 8:1 9:-1 10:0 11:0.70068695 12:0.29931305 13:0.76204908 
1 1:1 2:-1 3:-1 4:-1 5:0.64771278 6:0.010216492 7:0.011919241 8:1 9:-1 10:0 11:0.73557692 12:0.26442308 13:0.80110189 
1 1:1 2:-1 3:-1 4:-1 5:0.013547172 6:0.014473364 7:0.013986865 8:1 9:-1 10:0 11:0.71359223 12:0.28640777 13:0.42787288 
1 1:1 2:-1 3:-1 4:-1 5:0.64771278 6:0.0051082462 7:0.0025541231 8:1 9:-1 10:0 11:0.70886076 12:0.29113924 13:0.77075011 
1 1:1 2:-1 3:-1 4:-1 5:0.0055282182 6:0.00030406227 7:0.0015811238 8:1 9:-1 10:0 11:0.75 12:0.25 13:0.50003315 
1 1:1 2:-1 3:-1 4:-1 5:0.64771278 6:0.011432741 7:0.024324982 8:1 9:-1 10:0 11:0.70892019 12:0.29107981 13:0.77126184 
0.4963823480635167 1:1 2:-1 3:-1 4:1 5:0.00018224895 6:0.01064218 7:0.0072974945 8:1 9:-1 10:0 11:0.71247549 12:0.28752451 13:0.42514688 
1 1:1 2:-1 3:-1 4:-1 5:0.0020047385 6:0.0013986865 7:0.00054731209 8:1 9:-1 10:0 11:0.71428571 12:0.28571429 13:0.42857875 
1 1:1 2:-1 3:-1 4:-1 5:0.64771278 6:0.010216492 7:0.0048649964 8:1 9:-1 10:0 11:0.72193878 12:0.27806122 13:0.78529432 
1 1:1 2:-1 3:-1 4:-1 5:0.64771278 6:0.0058988081 7:0.0037095597 8:1 9:-1 10:0 11:0.7037037 12:0.2962963 13:0.7652197 
1 1:1 2:-1 3:-1 4:-1 5:0.0047384728 6:0.053393335 7:0.014534177 8:1 9:-1 10:0 11:0.77167382 12:0.22832618 13:0.54617873 
1 1:1 2:-1 3:-1 4:-1 5:0.64771278 6:0.020615422 7:0.013196303 8:1 9:-1 10:0 11:0.70034443 12:0.29965557 13:0.76202529 
1 1:1 2:-1 3:-1 4:-1 5:0.64771278 6:0.0045001216 7:0.014412552 8:1 9:-1 10:0 11:0.73756695 12:0.26243305 13:0.80343763 
1 1:1 2:-1 3:-1 4:-1 5:0.64771278 6:0.0017027487 7:0.00042568718 8:1 9:-1 10:0 11:0.70618557 12:0.29381443 13:0.7678443 
1 1:1 2:-1 3:-1 4:-1 5:0.64771278 6:0.0059596205 7:0.0095475553 8:1 9:-1 10:0 11:0.7440273 12:0.2559727 13:0.81108311 
1 1:1 2:-1 3:-1 4:-1 5:0.64771278 6:0.034906349 7:0.018122111 8:1 9:-1 10:0 11:0.73809524 12:0.26190476 13:0.80488265 
1 1:1 2:-1 3:-1 4:-1 5:0.0055282182 6:0.0018243736 7:0.00085137436 8:1 9:-1 10:0 11:0.75 12:0.25 13:0.50003461 
1 1:1 2:-1 3:-1 4:-1 5:0.013547172 6:0.0099732425 7:0.015385551 8:1 9:-1 10:0 11:0.70786195 12:0.29213805 13:0.41634849 
1 1:1 2:-1 3:-1 4:-1 5:0.0055282182 6:0.0044393092 7:0.0029189978 8:1 9:-1 10:0 11:0.76923077 12:0.23076923 13:0.53851613 
1 1:1 2:-1 3:-1 4:-1 5:0.081222283 6:0.0045609341 7:0.01733155 8:1 9:-1 10:0 11:0.72727273 12:0.27272727 13:0.46209286 
1 1:1 2:-1 3:-1 4:-1 5:0.64771278 6:0.01015568 7:0.030102165 8:1 9:-1 10:0 11:0.72502938 12:0.27497062 13:0.78936303 
1 1:1 2:-1 3:-1 4:-1 5:0.081222283 6:0.00030406227 7:0.00024324982 8:1 9:-1 10:0 11:0.75 12:0.25 13:0.50655425 
1 1:1 2:-1 3:-1 4:-1 5:0.017192151 6:0.00085137436 7:0.00668937 8:1 9:-1 10:0 11:0.75 12:0.25 13:0.50034093 
1 1:1 2:-1 3:-1 4:-1 5:0.64771278 6:0.0048041839 7:0.014047677 8:1 9:-1 10:0 11:0.74353448 12:0.25646552 13:0.81054823 
1 1:1 2:-1 3:-1 4:-1 5:0.64771278 6:0.011797616 7:0.011980054 8:1 9:-1 10:0 11:0.70740606 12:0.29259394 13:0.76933974 
1 1:1 2:-1 3:-1 4:-1 5:0.034505802 6:0.010946242 7:0.018912673 8:1 9:-1 10:0 11:0.74591058 12:0.25408942 13:0.49351414 
1 1:1 2:-1 3:-1 4:-1 5:0.64771278 6:0.02006811 7:0.0050474337 8:1 9:-1 10:0 11:0.70802005 12:0.29197995 13:0.77009701 
1 1:1 2:-1 3:-1 4:-1 5:0.64771278 6:0.025297981 7:0.0054123084 8:1 9:-1 10:0 11:0.73475177 12:0.26524823 13:0.80039659 
1 1:1 2:-1 3:-1 4:-1 5:0.034505802 6:0.021710046 7:0.0065677451 8:1 9:-1 10:0 11:0.71048951 12:0.28951049 13:0.42299935 
1 1:1 2:-1 3:-1 4:-1 5:0.64771278 6:0.018365361 7:0.002006811 8:1 9:-1 10:0 11:0.74193548 12:0.25806452 13:0.8087053 
1 1:1 2:-1 3:-1 4:-1 5:6.0749651e-05 6:0.002006811 7:0.0015811238 8:1 9:-1 10:0 11:0.70588235 12:0.29411765 13:0.41177264 
1 1:1 2:-1 3:-1 4:-1 5:0.64771278 6:0.0041960594 7:0.0048649964 8:1 9:-1 10:0 11:0.73529412 12:0.26470588 13:0.80064124 
1 1:1 2:-1 3:-1 4:-1 5:0.64771278 6:0.028399416 7:0.0085745561 8:1 9:-1 10:0 11:0.73399716 12:0.26600284 13:0.79964402 
1 1:1 2:-1 3:-1 4:-1 5:0.0055889679 6:0.00060812454 7:0.00072974945 8:1 9:-1 10:0 11:0.75 12:0.25 13:0.50003214 
1 1:1 2:-1 3:-1 4:-1 5:0.017192151 6:0.010338117 7:0.00042568718 8:1 9:-1 10:0 11:0.72727273 12:0.27272727 13:0.45498813 
1 1:1 2:-1 3:-1 4:-1 5:0.64771278 6:0.0011554366 7:0.010277305 8:1 9:-1 10:0 11:0.72222222 12:0.27777778 13:0.78560147 
1 1:1 2:-1 3:-1 4:-1 5:0.0027944839 6:0.018365361 7:0.020189735 8:1 9:-1 10:0 11:0.7073509 12:0.2926491 13:0.41560836 
1 1:1 2:-1 3:-1 4:-1 5:0.055464431 6:0.031683289 7:0.0038311846 8:1 9:-1 10:0 11:0.71389271 12:0.28610729 13:0.432545 
1 1:1 2:-1 3:-1 4:-1 5:0.64771278 6:0.0036487473 7:0.0046217465 8:1 9:-1 10:0 11:0.7300885 12:0.2699115 13:0.79456238 
1 1:1 2:-1 3:-1 4:-1 5:0.64771278 6:0.019642423 7:0.0061420579 8:1 9:-1 10:0 11:0.72925764 12:0.27074236 13:0.79384612 
1 1:1 2:-1 3:-1 4:-1 5:0.64771278 6:0.010824617 7:0.0021284359 8:1 9:-1 10:0 11:0.7012987 12:0.2987013 13:0.76271765 
1 1:1 2:-1 3:-1 4:-1 5:0.0020047385 6:0.00091218682 7:0.0055947458 8:1 9:-1 10:0 11:0.79569892 12:0.20430108 13:0.59142841 
1 1:1 2:-1 3:-1 4:-1 5:0.0055282182 6:0.0022500608 7:0.001337874 8:1 9:-1 10:0 11:0.79150579 12:0.20849421 13:0.58304367 
1 1:1 2:-1 3:-1 4:-1 5:0.055464431 6:0.025541231 7:0.0034054974 8:1 9:-1 10:0 11:0.73201693 12:0.26798307 13:0.46804665 
1 1:1 2:-1 3:-1 4:-1 5:0.0027944839 6:0.0059596205 7:0.010277305 8:1 9:-1 10:0 11:0.76326531 12:0.23673469 13:0.52667204 
1 1:1 2:-1 3:-1 4:-1 5:0.64771278 6:0.012466553 7:0.0039528095 8:1 9:-1 10:0 11:0.7341169 12:0.2658831 13:0.79934083 
1 1:1 2:-1 3:-1 4:-1 5:0.0055282182 6:0.0015811238 7:0.027791292 8:1 9:-1 10:0 11:0.76551724 12:0.23448276 13:0.53179229 
1 1:1 2:-1 3:-1 4:-1 5:0.017192151 6:0.00097299927 7:0.0035879348 8:1 9:-1 10:0 11:0.77040816 12:0.22959184 13:0.54110229 
1 1:1 2:-1 3:-1 4:-1 5:0.64771278 6:0.0051690586 7:0.0018243736 8:1 9:-1 10:0 11:0.71028037 12:0.28971963 13:0.7722909 
